//Numpy array shape [128, 10]
//Min -0.207834765315
//Max 0.208253070712
//Number of zeros 0

#ifndef W11_H_
#define W11_H_

[[intel::fpga_register]] static constexpr w11_t w11 = {{0.0604526550, -0.1931132972, -0.1257601231, -0.0591933131, -0.0507180244, 0.0937832743, 0.0054770559, -0.2024313807, 0.0011131912, -0.0709531009, -0.1950259358, 0.0183099508, 0.0932433754, -0.0530627668, -0.1880258024, 0.0459818989, -0.1775899976, 0.2024662346, -0.0256982148, 0.1829434782, -0.0590249896, 0.0583397299, 0.0717182904, 0.1594308764, -0.1186067685, 0.2051596195, -0.1065286249, 0.1479014605, 0.1419579834, 0.1235950440, 0.0061249286, -0.0924821123, 0.1617463380, -0.0945914686, 0.0604282171, 0.1933868676, -0.1124180108, 0.0262204558, 0.0892418176, -0.0004730225, -0.1096630245, -0.0695781112, -0.0619173348, -0.0064004362, 0.0197322220, 0.0742327124, -0.0972186849, -0.1473846883, -0.0322571397, 0.0890875608, -0.1762833744, 0.0101652145, -0.0222203434, 0.0909458250, -0.0045679510, 0.1391936094, 0.0464817137, -0.1676051915, 0.0350927562, 0.0305594653, -0.0746434480, 0.0184844583, 0.2035434693, 0.0815780014, 0.0922277421, -0.0997608453, 0.0329637676, -0.1217041314, 0.0314616114, 0.1132424623, -0.1011354327, 0.2067145854, 0.0239366591, -0.1596590579, -0.0986944363, -0.1206750050, 0.0811777264, 0.1176919490, 0.0289953202, -0.1796038002, -0.0896800011, 0.0015158653, -0.0609725714, 0.1265666634, -0.0838374943, -0.0182887763, 0.1652225703, 0.0570726246, -0.1500232965, 0.1063661128, 0.1374971420, 0.0780431181, 0.1830279678, 0.1999637932, 0.1721336693, 0.0049073845, 0.1366634220, 0.1798101217, 0.1962435097, -0.0857774764, -0.1480490118, -0.2000662088, -0.1830910146, 0.1792023033, -0.0424494892, 0.1157399267, -0.0653457940, 0.0388947576, -0.0351718068, -0.0534005761, 0.1357754916, 0.0078751445, 0.1601468474, 0.0668718070, -0.0855327323, -0.0481751710, 0.1702233702, -0.1518663317, -0.0708584934, -0.1234665290, 0.0887405723, 0.0629441291, -0.0000759065, 0.1323859543, 0.0346596986, 0.0559807569, -0.1193694249, -0.1846255362, 0.1308705062, 0.1655208915, 0.0473741442, -0.0527147204, -0.1589898169, -0.0704739988, -0.0897721723, 0.0194636583, -0.1936057210, 0.1201106459, -0.0640269816, -0.1261865199, -0.2066315562, -0.0241062790, -0.0977367014, -0.0523840785, -0.0048081130, 0.1481078714, -0.0931450948, 0.0945582539, 0.0122972280, 0.0622752160, 0.2066550106, 0.1096082479, -0.0908474252, 0.1183999032, 0.0777101368, -0.0698072910, -0.0572436452, 0.0429184884, 0.1859098226, 0.1474291235, 0.1797640771, -0.0388188511, 0.0573490411, -0.0632106364, -0.0830964595, 0.0812932104, -0.0419515073, 0.1235853881, -0.0840673745, -0.0794554353, -0.0578350425, -0.1775185019, 0.1598149687, 0.2050238103, 0.0660794228, -0.0686788410, -0.0088306963, -0.1934111863, 0.1181932837, -0.1297876835, -0.2075534910, 0.1833351105, -0.1585452259, 0.0316759795, 0.1133106798, 0.0050921738, -0.1329115331, 0.1200764626, 0.0431738645, 0.2006339282, 0.0572984368, -0.0940658897, -0.1133956760, 0.1311936229, -0.0619036555, -0.0179447532, -0.0490919352, 0.1008754224, -0.1803585589, -0.0531664789, -0.1154989153, 0.1006800085, 0.0432298034, -0.0631789118, -0.1540259421, -0.1291842461, -0.0309536904, -0.1410352588, 0.1710686535, 0.0059976131, -0.0459126979, 0.1799919158, -0.0419157147, 0.0724732429, -0.0020376593, 0.2033900172, 0.0886063427, 0.0779360384, -0.0711688548, 0.0007700175, 0.0469091684, 0.1636882573, 0.1633885354, 0.1239726096, -0.1233371794, -0.1760694534, 0.0525010079, -0.1250453293, 0.1207737774, 0.0184031129, -0.1419743001, -0.1604854912, -0.0670934767, -0.0010879785, -0.1576584280, 0.1231973320, -0.1214551106, -0.1274995506, 0.0388146192, 0.1010412723, -0.1619711816, -0.0990539715, 0.0565371066, -0.1375691593, 0.1029856652, 0.1695856899, 0.1257597357, 0.2066566497, -0.1905595511, 0.0764295608, 0.2023120373, -0.0536892712, 0.1494141072, -0.0483390242, 0.0335821509, -0.0679538697, -0.1308875978, 0.1880446821, -0.1060997918, 0.0529734343, 0.0599344522, -0.0783432871, 0.1114525050, 0.1092984825, -0.0535695106, -0.0164207816, 0.1139444560, 0.0602042824, -0.0015288889, -0.1831810921, 0.0727854520, -0.0675021708, -0.1793811768, -0.1995028555, -0.1918256581, -0.1217465326, 0.1759258658, -0.1216712222, -0.0204698145, 0.1963676959, -0.1635179371, 0.1807353348, -0.0986397564, 0.1632317454, -0.1672171354, -0.0809443146, -0.1261717975, -0.0352690965, 0.0765183419, 0.0213436335, 0.1383464783, -0.1957255006, -0.1145103574, -0.0846563801, 0.1700598150, 0.0189542472, -0.0404931009, 0.1083134860, -0.0196921974, -0.1568899006, -0.1798162758, -0.1260308027, 0.1623830646, 0.1673370749, -0.1768213660, -0.0403625071, 0.0549059063, -0.1309731007, -0.1585239917, -0.0195968896, -0.1108297557, 0.0741077214, 0.0171790719, 0.1103650182, 0.0998245329, -0.1395554245, 0.0243356079, 0.0859184712, -0.0143041760, 0.0555367619, 0.0146864802, -0.0039525330, 0.0579161197, 0.1564771384, 0.0452325791, 0.0803089589, 0.0948239416, -0.2076644450, 0.1439058632, 0.1047350913, 0.0971492976, -0.0825036764, 0.2082530707, -0.1797050089, -0.0231121033, 0.0235097557, -0.0556538999, -0.1347315609, -0.1823186129, 0.1030838042, 0.1763024181, 0.0278625488, -0.0363216847, -0.0228956044, -0.0283489972, 0.1104981750, -0.2002974749, 0.0576514453, -0.0873424113, 0.1811497360, 0.0090474039, 0.0705017895, 0.0410152078, 0.0004529953, 0.0622397810, 0.0906585306, -0.1830162406, 0.2077021450, -0.0348093361, 0.1144618839, 0.2017671615, 0.0772810429, -0.1744067222, 0.0559620112, -0.1369506717, 0.0137496144, 0.1557837278, -0.1596107781, -0.1725878567, 0.0063134879, -0.0995676592, -0.1365948766, -0.1835612059, 0.0641585737, 0.0188356787, -0.0928506404, -0.1421479583, -0.1928035319, 0.0129187107, -0.0543311238, -0.1215789989, 0.0394446999, -0.1019386575, 0.0879447013, -0.0335467607, -0.0412496477, -0.0409287512, -0.1191044003, -0.0069317818, 0.0224468261, 0.1707397550, 0.0874877125, 0.1147529632, 0.1738022715, 0.0616978854, 0.1244454533, 0.0087954998, 0.0631703585, 0.0690598041, 0.0020591915, 0.0916658789, -0.1846735030, -0.1766898334, 0.1047067195, -0.0454061180, -0.0004384220, 0.1231837124, -0.0489904732, -0.1726981103, 0.0598808676, -0.1615223289, 0.1968846768, -0.0886825919, -0.0762979686, -0.0778273046, -0.0682523549, 0.0959247798, 0.1535613090, -0.0719715357, 0.0966325551, 0.1939363629, 0.1826856881, 0.0655279309, 0.1244642884, -0.0747943670, 0.0680643171, -0.0059060454, -0.1981862336, 0.1669846624, -0.0650834441, -0.1802864671, -0.1908107549, 0.2042166144, -0.0990564525, 0.1385926157, 0.2072804719, -0.2061138302, 0.0617894083, 0.1928770095, 0.1170600802, 0.1136635393, 0.1296003014, -0.2064771354, 0.1306879371, 0.1355331391, 0.0609513968, -0.1624134481, 0.1934045702, -0.0925387368, -0.1596391201, 0.1106649488, -0.1382704675, -0.0329501033, -0.1691923141, 0.1003439873, 0.0858046561, -0.1377725899, -0.1701567471, -0.0335723609, -0.1319576800, -0.1705936342, -0.0357323289, 0.0286269486, 0.1968237311, -0.1423825473, 0.0888481885, 0.0734304339, 0.1481830031, 0.0008038282, 0.1605133265, -0.1857640147, 0.1849715859, -0.1966844350, 0.1854433566, -0.1514810920, -0.0379752517, -0.0568149090, 0.1083756238, -0.0247408748, -0.0461348742, 0.0292373300, 0.1270040125, -0.1452047527, -0.0052945614, -0.1106089726, -0.0135431141, 0.1156433374, 0.0623996109, -0.1941570938, 0.1854301840, -0.1135242879, 0.0966525525, -0.0994870737, -0.1339671612, 0.1727456301, -0.0160786062, -0.0412515849, 0.1999420375, -0.0037617385, -0.1516868621, -0.1177113205, -0.1719091088, 0.1812147349, 0.1715625674, 0.0169238448, 0.0560743362, 0.1235888153, 0.1161646694, -0.1494887173, 0.1671664268, 0.0728227645, -0.0802833587, 0.0374064893, -0.0998501852, 0.0707549006, 0.1096230894, -0.1535693258, -0.1767995954, 0.1245547086, 0.0840164572, 0.0044405758, -0.1900373697, -0.0718944222, 0.0147923678, 0.1850013584, -0.0756535232, 0.1582081467, -0.1204347908, 0.1502280682, 0.0764344782, 0.1400929838, 0.1179250926, -0.0259413123, -0.0545293689, -0.0353697687, 0.1562080830, -0.0546762347, -0.1970395446, -0.1188950092, -0.1345564127, -0.2034276575, 0.1965779513, 0.0045160502, -0.1955047846, 0.1577316076, 0.1754375845, 0.2076980621, 0.0049183816, -0.0933800936, 0.1504931897, 0.1727173477, 0.2051952332, 0.1791359037, -0.0198678374, -0.0153398067, 0.2075050622, -0.0022381097, -0.0236139596, 0.0674762577, 0.0615968853, -0.2010017186, 0.1397631913, -0.1826712787, 0.0981634408, -0.1559645832, -0.1331083477, -0.0042713583, 0.1237685531, -0.1952268779, 0.0395937413, 0.1417080313, -0.1442940831, 0.0355724990, 0.0171018094, -0.0128545165, 0.1643851846, 0.0445962399, -0.1582699567, -0.0608768165, -0.1298573762, 0.0125110447, 0.1433485895, -0.0090778172, -0.0833231658, 0.0955549628, -0.0197641850, 0.1244230121, -0.1309660971, 0.1063862890, -0.0118555725, 0.0456867963, -0.0387728214, 0.1509957463, 0.0953869969, -0.1752347052, 0.0770238787, 0.0318095088, -0.0580168366, -0.0584155470, 0.1133806258, 0.1092952937, 0.1812184006, -0.1286728084, 0.0794888884, 0.1555976421, -0.0037654191, -0.1558800638, -0.0358276814, 0.0003009737, -0.1586489677, -0.0175812542, -0.0411780626, -0.0598847866, 0.0756547600, 0.0263669640, 0.0642820150, -0.0488357097, 0.0692869276, 0.0630032271, 0.1765913814, -0.1618964672, -0.1405573189, -0.1879609227, 0.1985889524, 0.0913157910, 0.0628644675, 0.1234209985, -0.0177362561, 0.1189959198, -0.1293196231, -0.1580601633, -0.1201663837, -0.1755811572, 0.1781022996, -0.1629200280, 0.0364345759, -0.0587987453, -0.1725761145, 0.0382964015, -0.1817722619, -0.0658121556, -0.1781175137, -0.1536757052, 0.0295992941, 0.0617438406, 0.0304498523, -0.0766068399, -0.0195883512, 0.0816059560, -0.0367140770, -0.1503570229, 0.1226033419, -0.0444589704, -0.1872854531, 0.1896167248, -0.1022911742, 0.1842383593, -0.0705690533, -0.0012120754, 0.1817567497, 0.0263671130, -0.1842260361, -0.0095108300, 0.1337419003, 0.0507294089, -0.2026955187, 0.2003812045, -0.0028841943, 0.1912504286, -0.1257558465, 0.0490282029, -0.1996026784, -0.0489647686, 0.1839503199, 0.0426753014, -0.0474211574, 0.0050142258, 0.1412639767, 0.1724807769, 0.0638601333, 0.0714368671, -0.0839006826, 0.1561097056, -0.1244691536, -0.1577620804, -0.1886879802, 0.0308005214, 0.1569139212, 0.1394450217, 0.1378570050, 0.0034004748, 0.1197562069, -0.0298667997, 0.0008477122, -0.0557542741, -0.0439178795, 0.1244893521, -0.0193938613, 0.0229741931, 0.1822774857, 0.0751956552, 0.0452841073, -0.0060828179, -0.0870849937, 0.1162119657, 0.1415306181, -0.0237298906, -0.1534629911, 0.0011953712, 0.1402786523, 0.0991151184, 0.1534670144, -0.1335845143, 0.1409302205, 0.1407552212, -0.1350491345, -0.0463259220, 0.1013241857, 0.0492410213, -0.0068544298, -0.1687687039, 0.0756316930, -0.1388591379, -0.1341015846, -0.1676124483, -0.1060950235, -0.0188389122, 0.1842004210, -0.1897067726, -0.1437520087, -0.1246127784, -0.1550786793, -0.1296134293, -0.1689642668, -0.1835737377, 0.1991473585, 0.0380441546, 0.2025033385, 0.0321611464, 0.1320804209, 0.1089010090, -0.1816856563, 0.1346091181, 0.1810431629, 0.1186175495, 0.1367645413, 0.0641524047, -0.0060469210, -0.1291290820, -0.1535936296, 0.1728497297, -0.0784534514, -0.1196569726, -0.0946875140, 0.1975954920, 0.1059967726, 0.0829297751, -0.0843997076, -0.0332086086, -0.0629691184, -0.1263526678, -0.0559264272, -0.0767580718, 0.0169898123, -0.0993660241, 0.1658447832, -0.1184931695, 0.0885106772, 0.0244837105, -0.0657762587, -0.0233557522, 0.0381394178, -0.0891611353, -0.0227585435, 0.1420012861, 0.0180230141, -0.1167555749, 0.1304835230, 0.1378947943, 0.1859176010, -0.0221450776, 0.0815929323, -0.0229908973, -0.1680082232, -0.0292765051, 0.0137864053, 0.1814897805, 0.0030889660, -0.1812395751, 0.1309903413, -0.0391427875, -0.0460384786, -0.0408323556, -0.0290095955, 0.0656202585, 0.1284813434, -0.0385859460, -0.0029637814, 0.0586371273, 0.1820169538, -0.0196943879, 0.1434399039, -0.1210220605, 0.1225128323, 0.2072837502, 0.1919545680, 0.0395861864, 0.0087091029, -0.0572912693, 0.1663287431, -0.1128748283, -0.0434276611, 0.0287069380, -0.0533439070, -0.1468612999, -0.0501224101, -0.0284613967, 0.0308313966, 0.1414323300, -0.1614413857, -0.1780276299, -0.1664665937, 0.0112745762, -0.0376639515, 0.1471346766, 0.1810137779, -0.0607247949, 0.0008917153, 0.0760101229, -0.1849870384, -0.1312939525, 0.0754965693, -0.1393664181, -0.1878705919, 0.1058170348, -0.1671635807, 0.0228791386, -0.0464371294, 0.0097787380, 0.1856646389, 0.1909676939, 0.0195849687, -0.1578644365, -0.1483602226, -0.0388643891, 0.1272406429, -0.0286514014, 0.0161644667, -0.0784797519, -0.1573435962, -0.0400202870, 0.1898203045, 0.1546235532, -0.0695426166, -0.1609135270, 0.0214168578, 0.0142466575, -0.0317642242, 0.0785043985, 0.0539753586, -0.1032054573, 0.1220925301, -0.1071364209, -0.1308241636, -0.0638514459, 0.0157523304, 0.2078242451, 0.1842959672, -0.1469589472, 0.1385180503, -0.1348096132, 0.0516037792, 0.1632483453, 0.0005219430, -0.1154896691, 0.0465884656, -0.0873440504, 0.1757683903, -0.1692458391, -0.1304450035, 0.1816835254, -0.1450830400, -0.0584723651, 0.0760125071, 0.1297225505, -0.1628900468, 0.1236940771, 0.1383328289, -0.1725658327, 0.0044983476, 0.2017434090, 0.0057137012, -0.1624169201, 0.1566635519, -0.0848126784, 0.0412444323, 0.1734471172, 0.1711341292, -0.1188815385, 0.0869894475, -0.0680563301, -0.0561151952, -0.0159384161, 0.0099701285, -0.0862281770, 0.0373041183, -0.0754308552, -0.0847687349, -0.0770218521, -0.0765451938, -0.2071021348, -0.1745412499, 0.1208712310, -0.0696026236, -0.0210137814, 0.0060743243, 0.1954304427, -0.1270559579, -0.1736999452, 0.0744490772, -0.1274569035, -0.1506850421, 0.0661736280, 0.1019763499, 0.1660699993, 0.0317301154, -0.0868350342, -0.0139426589, -0.1486639231, -0.1464995444, 0.0491558760, -0.1483618170, -0.0799116045, -0.1527397484, -0.0532105714, -0.0497409999, -0.1012835279, 0.1551636010, -0.0618371367, -0.0507820994, 0.0554059893, -0.0701353997, -0.0991226211, 0.1999692768, 0.1477601677, -0.1087953672, -0.1226802096, 0.1698918194, 0.1083820611, -0.1157157645, -0.1806836277, 0.1942467839, 0.0267958343, -0.0932507366, 0.0912208706, -0.0570257455, -0.1998315603, -0.1354557276, -0.0522704870, -0.1856660843, -0.1995512247, -0.0570421517, -0.0596085787, -0.1713558435, 0.1294687241, -0.1803672463, 0.1893196553, -0.0579289496, -0.1934065670, -0.0253130347, 0.1455574781, 0.0939744264, -0.0987845212, 0.0111807138, -0.0351386964, -0.1108406931, 0.0010941029, -0.0466405004, 0.1662091464, -0.1707820594, 0.1804437488, -0.0716791600, -0.0790881962, 0.2080714554, 0.1467600912, -0.1049149632, 0.0458212346, -0.1230254248, 0.1327447146, 0.1130838245, 0.0561189801, -0.0461791605, 0.1559711546, -0.0880145431, -0.0615605414, -0.1012720913, 0.1115588099, 0.0081023425, -0.1759291589, 0.0853054374, 0.1264353245, 0.0923395306, 0.0006690025, 0.1578664333, -0.1881134361, -0.1563965976, 0.0164261609, 0.0882255882, 0.1459759921, 0.1721582264, -0.1746508777, 0.1650421172, -0.0267565697, -0.0820950866, 0.0019237697, -0.0777096897, -0.0421058238, -0.1675672680, -0.0334484726, 0.1286249310, -0.0031729788, 0.1806519479, -0.1857843101, 0.0358314067, 0.1393614858, -0.1554056555, -0.1454033554, 0.1054040641, -0.1322881877, 0.0012500584, -0.1563191414, 0.0509444624, 0.1656449884, -0.1342812032, -0.1778061539, 0.1542169899, 0.0998674780, -0.2024606168, 0.1798878759, -0.0550596267, 0.1155439168, 0.1500576586, 0.0385166854, 0.0428219885, 0.1675562710, 0.0860760659, -0.1260950416, -0.1142913178, -0.1603512764, -0.1394708753, 0.0605360717, -0.1156994626, -0.1018342078, -0.0744963437, 0.1387915760, -0.1475816518, -0.0019700974, 0.2050023228, 0.1077857465, -0.1043661237, -0.0006181896, 0.0090507269, 0.1404135972, 0.2011487335, 0.1828565747, 0.1293577105, -0.0748068988, 0.0139544904, -0.1762182415, 0.1736057848, 0.1155454069, 0.1363425702, 0.0327269286, -0.1384065449, -0.1723081619, 0.0570264906, 0.0940271765, -0.0975501314, 0.1392706782, 0.0987388939, 0.1211462468, 0.0238815248, -0.1760149598, -0.0954279974, 0.0652191788, 0.1091127843, -0.0457725525, -0.0602357686, 0.1234148294, 0.0369613022, 0.0856649131, 0.1251139790, -0.0762968212, -0.1768618822, -0.1739966869, 0.1299940795, 0.0360133052, 0.1940232068, 0.1290022582, 0.0584579557, -0.2078347653, -0.1981960237, 0.1661631614, -0.1142777503, -0.1580470800, -0.0362325013, 0.1703676730, -0.0840560347, 0.1467866451, -0.1268841922, -0.1319278479, 0.1224059016, -0.1906643510, -0.0225121081, -0.1951736361, -0.1025712118, -0.1410013437, -0.1532676667, 0.1399094909, 0.1695582420, 0.1109793931, -0.0135691613, -0.0765911341, -0.0413124412, -0.1274886131, -0.1845898777, 0.1528324634, 0.1627083868, 0.1526321620, 0.1346159130, -0.0318752825, -0.0169179738, -0.0081947595, -0.1260731220, 0.0903297514, 0.0960905701, -0.1368673146, -0.1881588846, -0.0949280262, -0.1442689300, -0.0117616653, -0.0099984258, -0.1808903813, 0.0889998823, -0.1737748086, 0.0896605104, -0.1732282639, 0.1589389890, -0.1464026421, 0.0765678138, -0.0486010611, -0.0065591335, -0.1394462585, 0.0101352334, 0.1049830765, -0.0290755630, 0.0002025366, -0.1169987768, -0.1562859267, 0.1397455782, -0.1228751391, 0.0886085182, -0.0648103207, -0.1172306910, -0.0380483419, 0.1859374195, 0.1869601458, 0.0264978558, 0.1905100793, 0.1721553057, 0.0936736017, -0.0786432624, -0.1489534527, 0.0344245136, 0.1058086306, 0.0390774608, 0.2000638694, 0.1386091858, -0.1083984077, -0.0258829892, 0.0537102371, 0.0015566796, -0.0129415691, -0.0436035395, -0.0319309682, -0.0507162362, -0.1991438270, -0.1862272024, 0.2053193599, -0.0911988020, 0.0714496225, 0.0658183545, -0.1513615400, -0.1662280262, -0.1755445749, -0.1840967685, -0.0785866380, 0.0502553433, -0.0998885110, 0.2047000676, 0.1774667650, -0.1189947352, 0.0774184614, -0.1545396894, -0.0794120878, -0.1883742362, -0.0178598911, -0.0259906799, -0.1469390541, -0.1454711556, -0.0503421426, -0.0254535675, -0.1156700775, -0.1563827693, -0.1058984995, -0.0609013885, 0.1168274730, -0.0288094878, 0.2080086321, -0.0576720238, -0.1472515166, 0.1106467098, -0.2000804842, 0.1434753686, 0.1688645929, -0.0645810366, -0.0278002471, 0.0748709291, -0.1711534560, -0.0151204318, 0.1618351787, 0.1936167628, -0.1057525426, -0.0466106832, 0.1881973594, 0.0953774303, -0.1051312685, 0.0302116126, -0.1993247271, -0.0133641362, 0.0221045017, 0.1701258272, -0.1161199361, -0.1746225804, 0.0554462522, 0.1787691563, 0.1281536967, -0.0068498999, -0.1118199006, -0.2057033032, 0.0937991291, 0.1137616187, -0.0237853229, -0.2040745765, 0.1590497047, 0.1040164381, 0.1229733080, 0.1686166078, 0.0654159933, 0.2012029141, 0.2010227889, -0.0689634532, -0.1143874675, 0.0407189578, 0.0286795944, 0.1498512775, -0.0605192780, -0.1424507499, -0.0326543450, 0.0590158254, -0.1734229922, -0.0622902811, -0.1884780973, -0.0035715848, 0.1293278188, -0.0364398509, 0.0704539269, 0.0799155384, -0.0083159059, -0.0730861127}};

#endif
