//Numpy array shape [3, 3, 1, 16]
//Min -0.194604322314
//Max 0.197430774570
//Number of zeros 0

#ifndef W2_H_
#define W2_H_

[[intel::fpga_register]] static constexpr w2_t w2 = {{-0.0826489478, 0.0234139860, 0.1107983440, 0.1974307746, 0.1300311238, -0.1803230047, 0.0259336084, 0.0235707015, 0.1315989941, -0.1278625429, -0.0826103240, 0.1715165228, -0.1445752829, 0.1502072960, 0.1861723512, -0.1141708866, 0.0977157205, 0.1952974349, 0.0567152947, -0.1505908072, 0.0200743675, 0.1497184187, -0.1027106121, 0.1828439385, -0.1590285003, -0.0175521970, 0.0056819618, 0.0446109176, -0.1210914105, -0.0000801682, -0.1946043223, -0.0774164200, 0.0517596155, 0.0296382904, 0.0161856413, -0.1828870177, 0.1827291697, -0.1181082949, 0.1805948764, -0.0084287226, -0.0335678607, 0.0808302611, -0.0475155562, 0.0103299767, -0.0429722220, 0.1266999096, 0.1934804767, 0.1620205492, 0.0632442087, 0.0871313065, -0.1184115037, -0.0001592487, 0.0355076492, -0.0558185130, -0.1765056700, -0.1505320221, 0.1197383553, -0.0635988414, -0.0244070441, -0.1500473320, 0.0385690480, 0.0604252666, 0.0887930244, 0.0355370194, -0.0563453734, 0.1164610535, 0.0164521188, -0.0135016739, -0.1070965454, 0.0564334244, 0.1064701527, 0.1156568974, 0.0536469370, 0.1336221248, -0.0496728122, 0.0454727560, 0.1843932420, -0.0980898291, -0.1207361296, -0.1350302398, 0.1272024959, -0.1876756400, -0.1057676151, 0.0572452992, 0.0656197518, -0.1463246495, -0.1599982232, -0.0689148009, 0.0043135136, 0.1356345266, -0.1340229213, -0.1384154260, -0.1132474318, 0.1637973934, -0.0017120689, -0.0797030777, -0.0513176024, -0.0365851671, -0.0562449843, 0.0985979587, -0.1189127266, 0.1099005193, 0.1894578785, -0.0243905187, -0.1619271487, -0.0376640558, -0.0460688770, -0.0355656296, -0.1833854467, -0.0084661096, -0.0088074207, -0.1136390716, 0.0557368249, -0.0953842402, -0.0091240853, -0.0036789030, 0.0390116721, 0.0788732022, 0.0094105899, -0.1214464158, 0.1840500385, 0.1521224231, 0.1529428512, -0.0090040714, -0.1798262298, -0.0066730678, -0.1842349172, -0.1392800957, 0.1851655394, -0.1299977005, -0.0297610015, -0.0726113170, 0.0139191300, 0.1291316897, 0.1226230711, 0.1095754057, 0.1361178607, 0.0682400018, 0.0945955664, 0.0110615045, -0.0893274471, 0.0501210690, -0.0279933661, 0.0492476076}};

#endif
