//Numpy array shape [3, 3, 16, 32]
//Min -0.117801591754
//Max 0.117839865386
//Number of zeros 0

#ifndef W4_H_
#define W4_H_

[[intel::fpga_register]] static constexpr w4_t w4 = {{-0.0682519376, -0.0241637751, -0.1158438697, 0.1138165221, -0.0032775924, -0.0954676419, -0.0912122428, 0.1133867428, 0.0207992122, 0.0704020634, 0.0469688103, -0.0692415982, 0.0452495888, 0.0125614479, -0.0737708956, -0.0833517462, -0.0831917226, 0.0230767503, -0.0301550552, 0.0316527560, 0.0584090725, -0.0259807780, 0.0534098372, -0.0991438851, 0.0359057710, -0.0556703098, -0.0360141993, 0.0536786690, -0.0752195641, -0.0213964358, -0.0588344708, -0.0580044612, -0.0939382464, -0.0949698016, -0.0879886597, -0.0820734873, 0.0968006328, 0.0323600098, -0.0522415787, 0.0179601535, -0.1024687961, 0.0553791299, 0.0579647049, -0.0586124696, -0.0465341136, 0.0315331444, 0.1061442867, 0.1055392846, 0.1145956740, 0.0708257630, -0.0229163095, 0.0100279674, 0.1067805365, -0.0890771374, 0.0769886151, -0.0241027400, -0.0708232522, -0.0375868678, 0.1002787575, 0.1127708331, 0.1045393571, 0.0625884309, -0.0860078111, -0.0689139739, 0.1060474887, -0.0873809010, -0.0501050130, -0.1071188822, 0.1002599671, -0.0658023059, 0.0382506326, 0.1066264436, -0.0376936719, 0.0720191523, -0.0726102591, -0.1044924930, 0.0189275667, -0.0281935185, 0.0137598291, -0.0749911591, 0.0854146108, -0.0620047860, 0.0829908028, -0.0170512944, 0.0662402287, 0.0415833667, -0.0725735873, -0.0125105083, -0.1095436811, 0.0328745171, -0.0098186955, -0.0580110922, 0.0368720368, -0.0621010773, 0.1091432199, 0.0051480979, -0.1110521406, 0.0348499939, 0.0602113232, -0.0263865963, 0.0290322378, -0.0193443075, -0.0204145014, -0.0716604590, -0.0043375567, -0.0055761114, 0.0574269071, 0.0252272561, -0.0140821636, 0.1093452498, 0.0824233070, 0.0837866738, 0.0732677206, -0.1172087267, -0.0082902014, 0.0476553366, -0.0049341619, -0.0308068469, 0.0731309131, 0.0441093966, -0.1139505506, 0.0904215947, -0.0332610831, -0.0103768334, 0.0244106427, 0.0108700916, -0.0311617479, 0.0599662885, 0.0642403886, 0.0977245495, 0.0367407575, -0.0612333566, 0.0266957060, -0.0302403942, 0.0548034683, -0.1168128327, -0.0809934884, -0.0319477916, -0.1070723534, 0.0909646973, 0.0579610541, -0.0264460817, 0.0934338048, -0.0958413482, -0.0640469417, 0.0774631575, -0.1061679944, 0.0599815473, -0.0428580642, -0.0627982989, 0.0810405836, -0.0758514553, 0.0846349970, 0.0483098999, 0.1116928831, 0.1062797084, -0.0455695689, 0.0728229806, -0.0393327028, -0.0905058086, -0.1137447879, 0.0531687066, -0.0839688331, -0.0850306451, -0.0579371937, -0.1074709222, 0.1092749462, 0.0709697232, 0.0334464535, 0.0771628991, -0.0243803784, 0.0172772333, 0.0339951143, 0.0144547746, -0.0949526876, 0.0196123943, -0.0787245482, 0.0722372606, -0.0936712325, 0.0766125396, 0.0809233859, 0.0247808918, -0.0669877827, 0.0599208549, -0.0904332846, -0.0177181140, -0.0492758751, -0.0413091928, 0.0516875461, 0.1028385386, -0.0926124156, 0.0074305460, -0.1142492592, 0.0145839676, 0.0253642872, -0.0365552008, 0.0606630817, -0.0910821259, 0.0612439439, -0.0684796423, 0.0162745789, 0.0491461530, -0.1131514460, -0.0061715618, -0.0425259173, -0.1103375852, -0.0181210339, 0.0345508382, -0.1178015918, -0.0146303251, -0.0383841768, -0.0416413397, 0.1161053255, 0.0155874267, 0.0821381435, 0.0809825584, 0.1073240563, -0.0013080984, -0.1099584848, -0.0608642064, -0.0834958851, 0.0637071207, -0.0839300826, -0.0919692591, 0.0115772560, -0.0066887587, -0.0499010831, 0.0266073570, -0.0432622209, 0.0003136322, 0.1153474972, 0.0660840645, -0.0298847035, 0.0295185074, -0.0160634294, -0.0251094922, -0.0624076538, -0.0945421532, 0.0923228189, 0.0222674385, 0.0689862147, -0.0210655257, 0.0679629520, 0.1034675315, -0.0542883128, 0.0996615961, 0.0027613789, -0.0258190781, -0.0311333686, -0.0158025697, -0.0050929412, -0.1112339348, 0.1052577868, -0.1029296592, 0.0601678863, -0.0307831317, 0.0709131733, 0.0247549489, 0.1155888215, 0.0712647513, 0.0498464033, -0.0748631954, 0.1128487512, 0.0576458797, 0.1172771975, 0.0729758069, 0.0161204115, -0.0875266939, -0.0972050726, -0.0245774537, 0.0687886551, -0.0640936643, -0.0057799593, -0.1075505838, 0.0953348503, -0.0650692880, -0.0892705098, 0.0223684236, -0.1002560854, -0.1021436751, 0.0943508372, -0.0505943447, 0.1023987159, -0.1000019386, 0.0220260546, 0.0202091858, 0.0476258621, -0.0786685795, -0.0162772238, -0.0505982488, 0.0871476606, -0.0113901570, 0.0866972432, 0.0712254718, -0.0099321827, -0.0819525793, 0.0671947524, -0.0335882828, -0.0078295395, 0.0480615124, -0.0568357296, -0.0368832126, 0.0316161439, 0.0729609951, -0.0901103839, 0.1080844626, 0.0350749716, -0.0973426402, 0.1072241887, 0.0112682953, -0.1024915278, 0.0370556489, 0.0336447582, -0.0314147472, -0.0006492585, 0.0367196277, -0.0201530531, 0.0060647875, 0.0565321073, -0.0884773582, -0.0991692021, -0.0476137996, -0.0144713745, 0.0078676119, 0.0117757991, 0.0310113952, -0.0875816047, 0.0772250816, -0.1108159497, -0.0285104066, 0.0410265252, -0.0880858749, -0.0261070803, -0.0068230405, 0.0042177215, 0.0604172871, 0.0801734254, -0.0226642117, -0.0349848345, -0.1107793376, 0.0763018057, -0.0790460780, 0.0345371738, 0.0737420693, -0.0165201575, 0.0223882422, 0.0843655989, 0.0486259684, 0.0698600635, -0.0058287159, -0.1166912243, -0.0457393304, 0.0991259292, -0.0160206631, -0.0205168575, 0.0945392922, -0.0081176534, -0.0269986242, -0.0108852088, -0.0834968090, 0.0732765719, -0.0397464186, 0.0099408701, -0.0852645040, -0.1169945076, -0.1139078736, 0.0735173151, 0.1143658683, 0.0753566846, 0.0082240626, -0.0506915897, -0.0889234692, 0.0113900229, -0.0385951921, -0.0671407133, -0.0740428865, 0.0280663744, 0.0584057793, -0.0344913527, 0.0817481950, 0.0525595918, 0.0043048263, -0.0540829226, -0.0008469522, -0.0667141676, 0.0212435499, 0.0733744577, -0.0893770605, -0.0923336297, -0.0249903277, -0.0686120614, 0.0530473515, 0.0687895641, -0.0248561352, -0.0536979213, 0.1122547910, 0.0484488681, -0.0204309970, 0.0063232929, -0.0238515735, -0.1135778874, -0.0813379437, -0.0282260552, 0.0326117352, 0.0110190138, 0.0571068749, 0.1018612012, 0.0709218010, 0.0254658535, -0.1041931883, 0.0453803018, 0.1161052063, 0.0178473964, 0.0664454028, -0.0717968494, -0.0634206682, -0.0496106073, 0.0921475664, -0.0804705024, 0.0866172239, -0.0766190663, -0.1170352548, 0.1084084436, -0.1059524566, 0.0378489867, 0.0024288073, 0.0511054173, -0.0693404451, 0.0109942034, -0.0696606785, 0.0771486536, -0.0774614662, 0.0991971865, -0.0956035256, -0.0867906734, -0.0272963494, -0.1149462834, -0.1076716259, -0.0502450019, -0.0306415185, -0.1143422052, -0.0154048726, -0.1077799723, 0.0017263889, -0.0470985100, 0.0374534950, -0.0455473438, 0.0297775045, -0.0816756785, -0.0408945829, 0.0214629695, -0.0681935698, -0.0618237779, 0.1062704697, 0.0201006755, 0.1049611643, 0.1054588035, 0.0395555273, -0.0198448971, 0.1117208675, 0.0163717195, 0.0105567202, 0.0599161908, 0.0680022761, -0.0026521906, -0.0236733481, -0.0507631823, -0.0715730190, -0.0330112651, 0.0908690318, 0.0784502849, 0.0909566060, -0.0847217143, -0.0161215663, -0.1165070981, 0.0746818259, -0.0675041676, 0.0359191224, 0.0552067831, 0.0992982015, -0.0501265973, -0.0317710787, -0.0571495518, -0.0748939663, -0.0150049254, -0.0310015082, -0.1161907166, 0.0528489724, -0.0640682727, -0.0055518672, -0.0556112230, 0.1003623232, -0.0403114408, -0.0443003029, -0.0426408127, -0.0187241584, -0.0115100518, -0.0017416179, -0.0067197233, -0.0758204386, 0.0794869885, -0.0369489938, -0.0136840120, -0.0282226503, -0.0688131601, 0.0404978916, -0.0808252692, -0.0785210431, -0.0619174279, 0.1125126109, 0.0302736089, 0.0363983884, 0.0905917361, 0.0277606621, -0.0532971323, 0.0172667727, 0.0248084292, -0.0602932572, -0.1132626310, -0.0673671290, 0.0046753213, 0.0936574861, 0.0855876878, -0.0924797654, 0.1131887659, -0.1080545709, -0.0660270900, -0.0681641549, 0.1154952571, -0.0520057827, 0.0573974624, 0.1008083150, -0.0149571896, 0.0765013322, 0.0876153484, 0.0293665454, 0.0195173696, -0.0433101580, 0.1178132817, 0.0169640556, -0.0848409086, -0.0586848520, 0.0399557427, -0.0175715014, 0.0919009522, 0.1056268588, -0.0775240436, 0.0875613466, 0.0192173347, 0.0434033051, -0.0265101120, -0.0058852732, 0.0825528130, 0.1139117256, 0.0220227614, 0.0127253458, 0.0315637812, 0.0555146709, 0.0498103872, -0.0682031214, -0.0938960463, -0.1045502871, -0.0061807260, 0.0848282650, -0.0251248851, -0.0713564977, -0.0947313383, 0.0189055875, 0.0992310122, 0.0492493585, 0.1030597165, 0.1006161645, -0.0047136471, 0.0264323726, -0.0742185786, -0.1076198146, -0.1037602052, 0.1151579246, -0.0287230462, -0.0187033638, -0.0947202668, 0.0555878505, -0.0877999216, 0.0626251623, -0.0555383898, -0.0183237344, -0.0092314780, 0.0504478738, -0.0621917509, -0.0687581450, 0.1052811667, -0.0192924961, -0.0417754799, -0.0923384055, 0.1136859879, 0.0174799040, 0.0096171573, -0.1136821583, -0.0648934990, 0.1047660187, -0.0817246214, -0.0812675506, -0.0620286688, -0.0106172934, -0.0804013461, 0.0854156986, -0.0088931248, -0.0469237193, -0.0483496264, -0.1064316928, 0.0389735028, -0.0667667612, 0.1051512435, -0.1012588441, -0.1064186320, 0.0157567188, 0.0043595284, 0.0149880871, 0.1002643183, -0.0298672244, -0.0034005195, -0.0892879590, -0.0300042257, 0.0096576139, -0.1004163027, 0.0360940024, 0.0528095588, -0.0131122768, 0.0370097086, -0.0946420133, -0.0747691542, -0.0687488988, 0.0929883942, -0.0276722983, -0.0161260590, 0.1051818654, -0.1016649455, 0.0419457778, 0.0395806953, 0.0351388678, -0.0099284202, 0.0936517343, 0.0268759504, -0.0461134017, -0.0350407809, 0.0469594821, -0.0219239444, 0.0170547441, 0.0722507164, 0.0763857439, -0.0593229532, 0.0027759299, -0.0973913670, 0.0376086757, -0.1085875928, -0.0502362624, -0.0424191207, 0.0654975548, 0.0285612270, 0.0207877830, 0.0907759443, 0.1105581596, -0.0051174983, -0.0632143989, 0.0780637786, 0.1034111455, -0.0585165732, -0.1161434501, 0.0401354656, -0.0052771494, 0.0896493867, 0.0630001202, -0.1085870862, -0.0775682107, -0.0363994762, -0.0331638679, 0.0879576281, 0.1024688259, 0.0751683190, 0.0525059029, 0.0372263119, -0.0883154348, -0.0974333435, 0.0100035593, 0.1082684025, -0.0979406759, -0.0305287912, 0.0650591180, -0.0476794392, 0.0070123896, 0.0601250604, -0.0192714781, -0.0989980027, 0.0918810591, -0.1122363582, 0.0607620105, -0.0417445153, -0.0491042286, 0.0639268532, 0.0723635033, -0.0042790547, -0.1089626998, 0.0894390419, 0.0388463363, -0.1037651747, -0.0917624533, 0.1113439873, -0.1116720363, -0.1048391312, 0.0072632506, -0.0311696455, 0.0830775574, 0.0805198178, 0.0783843175, 0.0255029127, 0.0646035001, 0.0354901180, 0.0948763266, 0.0107682422, 0.0914378092, -0.0262391120, 0.0324065164, 0.1163683459, 0.0727796033, 0.0248572007, -0.0280072019, -0.1101920083, -0.0437252223, 0.0398926958, 0.0888365135, -0.0933051705, -0.0885635912, -0.1060066298, 0.0997659191, -0.0792308226, -0.0192826018, -0.0123790652, 0.0793318823, 0.0659793690, -0.0176797062, 0.0348488763, -0.0734606385, 0.0779458806, 0.0248352215, 0.0627841726, 0.0487850085, -0.0138558075, 0.1125029251, -0.0748380795, -0.0176428109, -0.1165840253, 0.0211822167, -0.1061070785, -0.0705020428, -0.0232535377, -0.0935715437, -0.0604320914, -0.0910938680, -0.0217983797, -0.0125021860, -0.0215792954, 0.0805792436, -0.0849830508, -0.0954108015, 0.0428469107, -0.0196304023, 0.0381116495, 0.0370418802, -0.0577195473, -0.0627251565, 0.0043940917, -0.0052303970, -0.0964940563, -0.0753986314, -0.0656981990, -0.0843843147, 0.0383542255, 0.0433859900, 0.0766762421, 0.1047248617, -0.0080719069, 0.0925213769, -0.0868263543, -0.0871238261, -0.0250967070, -0.1055832505, 0.0140060112, -0.0114604309, 0.0932348147, -0.0589203686, 0.0175657347, -0.0680270940, -0.0035438761, -0.0516507700, -0.0344091058, 0.0521431789, 0.1049557701, 0.0738516822, 0.0921557918, -0.0834495276, 0.0316391960, 0.0824066475, -0.0733189136, -0.0381406769, 0.0392457470, -0.0093485117, -0.1104396358, -0.0416053459, 0.0310729370, -0.0589652956, 0.0627312288, 0.0468342230, 0.1010717079, 0.0290013626, -0.0099451691, -0.0857900530, 0.0786419436, 0.0695503131, -0.0978178605, -0.0082590654, 0.0240599737, 0.0179742798, 0.1073544249, 0.0370415375, -0.0051143542, 0.0304075405, -0.0800612867, 0.0103609040, 0.0609951690, 0.1119086519, -0.1171917543, -0.0460495055, -0.0880538151, 0.0092572197, 0.0769486204, -0.0520790368, 0.0166489854, 0.0275205746, 0.0339176431, -0.0302011147, 0.0215223506, 0.0137167498, -0.0732805580, -0.0894014761, -0.0809884295, 0.0307260379, -0.0248407647, 0.0763020441, -0.0040551424, 0.0597268119, -0.1014275700, -0.1127403229, 0.0319541618, -0.1138518155, 0.0500535741, 0.0916703269, 0.0140352026, 0.0613270327, -0.0811547115, 0.1100663319, 0.0032154098, -0.0733357146, -0.0394331515, -0.0874543712, 0.0387603566, -0.0135574043, 0.0239258930, 0.0315551832, 0.0538465306, -0.0446207002, -0.0373371094, -0.0345142782, -0.0359442681, 0.0060282648, -0.0820193738, 0.0658570603, -0.0616588742, -0.0732352585, -0.0131264925, 0.0509615317, -0.0227299631, -0.0403491482, 0.1130468175, 0.1083230451, 0.0457540080, 0.0408039168, 0.0958975926, 0.1038130596, -0.0270763412, 0.1082587019, 0.0125663355, -0.0151613727, 0.0076601878, -0.0005312189, 0.0827592984, 0.0700472519, 0.0093339011, -0.0257102251, -0.1059562191, 0.0455558822, 0.0259507969, -0.0427691638, -0.0032630116, 0.1078309491, -0.0957540125, -0.0549588725, 0.0916339681, -0.0930852517, 0.0992599651, 0.0546785668, -0.0163561776, -0.0924960375, -0.1171208695, -0.0952065587, 0.0383550897, -0.0931253135, 0.0736158267, 0.0148177072, -0.0615693517, 0.0810713395, 0.0900067911, 0.0761392638, -0.0914109498, 0.0571318790, -0.0306596681, 0.0149539784, -0.0509062260, 0.0243823156, -0.0478963777, -0.0788775757, 0.0211939886, 0.0518172458, 0.0929775462, -0.0374670029, -0.0693674237, -0.0886297673, 0.0312626287, -0.0727851614, -0.0641892254, -0.0690539330, 0.0309019312, 0.0867389962, 0.0964450762, -0.0252178907, -0.0291631222, 0.0712421164, 0.0708733276, 0.0418900028, -0.1138130948, 0.0578192398, -0.0407449305, -0.0690773875, 0.0118456259, -0.0195461065, 0.0490461811, -0.0111822858, 0.0601616427, 0.0705322102, 0.0244414583, 0.1150343195, 0.0899989828, -0.0885525793, 0.0890291706, 0.1100557670, 0.1029362306, -0.0042667240, -0.0256597325, -0.0041871741, -0.0263642892, -0.0118123293, -0.0548059344, 0.0094932094, 0.0982717052, 0.0746291503, -0.0551713482, 0.1158654764, -0.1003332436, 0.0101797506, -0.0815407485, -0.0305847004, -0.0987923816, -0.0747537911, -0.0466244444, -0.0091741309, 0.0879391804, 0.1121940389, -0.0240827352, -0.1175288782, -0.1157403588, 0.1151476875, -0.1096632928, -0.0324384645, -0.0324072763, 0.0044126883, -0.0967514664, 0.0636650696, 0.0785477087, 0.0808758661, -0.0424937755, 0.0683386102, -0.0222165585, 0.0504866466, -0.0741528869, 0.0993717089, -0.1144430265, 0.1030365452, -0.0001018867, 0.0221371278, 0.0885690525, -0.0187892318, -0.0429542139, -0.0560489595, -0.0817971155, 0.0644958094, -0.1068960726, -0.0397242233, 0.0047241300, -0.0098692998, 0.1093709245, -0.0746216998, 0.0153345391, -0.0374041796, -0.0574873760, -0.1128037944, -0.1084521040, -0.0700135008, 0.0595467314, -0.0204173699, -0.0317682698, -0.0245919824, -0.0122982562, 0.1090139523, -0.0167150497, -0.0456141829, -0.0108835548, 0.0123608038, -0.0617167279, -0.0361708999, -0.0120239630, 0.1152410880, -0.0331500694, 0.0093485340, 0.0168640241, 0.0757670477, -0.0092825592, -0.0131694004, 0.0883655325, 0.0561826155, 0.0823948458, 0.0324326977, 0.1113579050, -0.0395257622, -0.0416091084, 0.0849473104, -0.0770791396, -0.1145596281, -0.0987995490, -0.0507265702, 0.0192753896, -0.0296937451, 0.1003371999, 0.0813413933, 0.1168172434, 0.0130169466, 0.0151117519, 0.0306307599, -0.1171738580, 0.0168711320, 0.0368670002, 0.0788068548, 0.0897464380, -0.1041066498, -0.0007988214, 0.0335874930, 0.0296477452, -0.0211220309, 0.0722037330, -0.0542318672, 0.1101431176, 0.0608043596, 0.0644450262, -0.1044653207, 0.1164249405, -0.0087452456, -0.0960873663, 0.0638611242, -0.0640400276, 0.0287363157, 0.1083073691, -0.0672052577, -0.0908769816, -0.0346056521, -0.0756715760, 0.0626024827, -0.0669228733, -0.0926675498, -0.0342523530, 0.0376146510, 0.0113745406, -0.0845932513, 0.0428017303, -0.0489421859, -0.0369045660, 0.0345408246, -0.0986709744, -0.0182483792, 0.0683761314, 0.1012607291, 0.1152452752, -0.0343024805, 0.0647459254, -0.0982497036, -0.0015309975, 0.1057334915, -0.0501364619, -0.1169761047, -0.1069287509, 0.0590645149, 0.0258553848, -0.0014367849, 0.0323982313, -0.0400922447, 0.0268452391, 0.0905354246, 0.1105391905, -0.1006877273, 0.0821059123, -0.0061994344, 0.0638992563, 0.0813424960, -0.0937809795, 0.0365371928, 0.0368352756, 0.0401932076, -0.0420501903, 0.1060400084, 0.1170855686, -0.1084311977, 0.0663016811, 0.1018468514, -0.0797998607, 0.0902775899, 0.0915780440, 0.0398557708, -0.0461449251, 0.0626900420, 0.0985050276, -0.0102576688, -0.0659440607, 0.0717654005, -0.0061386898, -0.0554354116, -0.1134377122, 0.0297447965, 0.0008216351, 0.0269495323, 0.0985248908, -0.0968822837, -0.0925102830, 0.0580109432, -0.1167776808, 0.0392994955, -0.0908407867, 0.1058048829, 0.0216173753, -0.0064672083, -0.0749956220, 0.0519765541, -0.0140846595, -0.0036555678, 0.0028131902, 0.0744414851, 0.1176672801, -0.0580507666, -0.0985190198, 0.0604396537, 0.0152986273, 0.0780358687, -0.0256248042, -0.1079781204, 0.1122309938, -0.0359538198, -0.0611744635, -0.0462926924, 0.1130309328, -0.0551283062, -0.0378115699, 0.0517315790, -0.0220243409, -0.0634729266, -0.1029931605, -0.0436672568, -0.0388788953, -0.0057327300, -0.0933442861, 0.0646805838, -0.0221781507, -0.0767041743, -0.0918950737, 0.0933533236, 0.1150160506, -0.0569759347, -0.0526042432, 0.1051131710, 0.0816539004, 0.0828314051, 0.0389899388, 0.0837368593, -0.0386083424, -0.0432536229, -0.0797000006, 0.0385897681, -0.0069281831, -0.0939209089, -0.0849301666, 0.0078984872, 0.1066147313, -0.0409553871, -0.0423912182, -0.0306150466, 0.0837170407, 0.1017565355, -0.0462231264, -0.0772033632, 0.0447904691, 0.0861705765, 0.0620431975, 0.0401674286, -0.0563422441, -0.0546393991, 0.1102045402, 0.0770814791, -0.0965615809, -0.0141381025, 0.0949611440, -0.0561192296, -0.0652888119, -0.0788623169, 0.0205473974, -0.1174076051, 0.0808637515, 0.1162876263, -0.0837291032, 0.0760781839, 0.0618244484, 0.0660914853, 0.0852907524, 0.0805778876, 0.1093033031, 0.0085953400, -0.1019055471, -0.1080487296, -0.0731909275, -0.0778316259, -0.0659238547, 0.1140000895, 0.0382490233, 0.0111072138, -0.0213907883, -0.0423327982, -0.0103706270, -0.0516474545, 0.0526940748, -0.1045613885, -0.0372122377, 0.0014036000, 0.0015419573, -0.0136916041, -0.0817381665, -0.0817767978, 0.0672785118, 0.0188577101, 0.0503057763, -0.0722899362, -0.0821248442, -0.0901642218, 0.0556319579, -0.0878741294, -0.0246932730, -0.0668775514, -0.0742182434, 0.0309434012, -0.0755550265, -0.0165644959, 0.0591847077, -0.0526888445, -0.1012478843, -0.0811842382, -0.0263289958, -0.0862842649, 0.0436305925, -0.0089529455, -0.0754053444, 0.0651661977, 0.0047311261, -0.1088835746, -0.0627786592, 0.1145768836, -0.0752003193, 0.0198981985, 0.0468685552, 0.0826951489, -0.0835128874, 0.0940783098, -0.0834996551, -0.1030175462, -0.1003370062, 0.0699522421, 0.0457177237, -0.0449487418, 0.0935023949, -0.1022966132, 0.0167388991, -0.0626889691, 0.0575994924, -0.0621355809, 0.0417857096, 0.0229611471, 0.1047079191, 0.0535135195, 0.0900496617, 0.0969900414, -0.0688690469, -0.0125572607, -0.0982895717, -0.0903503150, 0.0105211809, -0.0996818468, 0.1031823978, 0.1139499322, -0.0927314684, 0.1137232706, -0.1065762341, -0.0704463795, 0.1014732793, -0.0261189938, -0.0059612244, -0.0923690870, 0.0458655432, 0.0147808120, -0.0506061986, 0.0869657174, 0.0327099934, -0.0719968230, 0.0518168882, 0.0141678378, 0.0470449850, 0.0902106687, -0.0678083226, -0.0910060331, -0.0647273585, 0.0376028344, -0.0257370844, -0.0733258799, 0.0119950995, -0.0729281530, -0.0280004293, 0.1013740227, -0.0825810432, 0.0689408109, 0.0503745601, -0.0146424621, 0.0289518759, 0.0533427969, 0.0368231162, 0.0470701978, 0.0127636120, -0.0335726589, 0.0812599733, 0.0959033594, 0.0804793760, -0.0225080475, 0.0422219560, 0.0963261947, -0.0953894481, 0.0719012097, -0.0474285483, 0.1008048728, 0.0934628025, -0.0573036708, -0.1146857888, 0.0519056693, -0.0470275134, -0.0382462665, -0.0357804820, -0.1032285616, -0.0424189493, 0.0895785168, -0.0505734682, 0.0223936811, 0.0879740790, -0.0358905420, 0.0958303288, 0.0705539659, -0.0048947632, 0.0808076188, 0.0066494495, -0.0832193196, 0.0325454250, -0.0585666411, 0.1063283160, 0.0407624617, -0.1003526896, 0.0922736749, -0.0915754884, 0.0600585267, -0.0887032971, -0.1175884455, -0.1087970287, -0.0013424605, -0.0869728029, 0.0234331712, 0.0851375386, -0.1027390659, 0.0235701427, -0.0073835105, -0.0024579763, 0.0688646063, 0.1059604660, 0.0231857076, -0.0963393524, -0.0355628058, 0.0302228555, -0.0076125339, -0.0081129000, -0.1130735874, -0.0279755592, -0.1132879481, -0.0393346176, 0.0923150554, -0.0120094344, -0.0744789094, -0.0722201467, 0.0362228230, 0.0392661169, -0.0995662287, -0.0239403620, -0.0354225412, -0.0049643666, -0.1091633141, 0.0114591345, 0.0945572928, 0.0374983922, 0.0629470423, 0.0226801410, 0.0144537613, 0.0227576718, 0.0244984701, 0.0409503058, 0.0507280901, 0.0835801736, 0.0112222955, 0.0413085446, -0.1039103270, -0.0957022309, 0.1034003273, -0.0644270182, -0.0340285823, -0.1038614139, 0.0913828537, 0.0441352502, 0.1157007143, -0.0377418026, 0.0811365321, 0.0183195993, 0.1156248525, 0.0623507574, 0.0643651709, 0.0279018655, -0.0357415676, -0.0435099900, -0.0604200363, -0.0346229896, -0.0888350457, -0.0333709493, 0.0457842574, -0.0475134626, 0.0086211041, 0.1011329666, -0.0936101452, 0.1028802618, 0.0463448092, 0.0984919593, 0.0890342668, 0.0026547760, -0.0763922036, -0.1085762084, 0.0573613569, -0.0650191009, -0.0258308500, 0.0139590129, 0.0137070492, -0.0882011056, 0.0848417208, 0.0694658682, 0.0127028897, -0.0043500885, -0.0814235508, 0.1096229926, 0.0578755811, 0.1168951616, 0.0087885484, -0.0452413559, -0.0821076483, -0.0020274892, 0.1027346626, -0.0949437320, 0.1093617454, -0.0597354323, 0.1069979295, -0.0367759094, -0.0544498265, -0.0024705902, -0.0538851395, 0.0137792304, 0.0372179672, -0.0310283154, -0.0100803152, 0.0281163529, -0.1050382629, -0.0709758848, -0.0994565338, 0.0625199601, -0.0303718075, -0.0626091734, 0.0602819100, -0.0094344318, -0.0710258707, 0.0783181414, -0.0949744657, 0.0473452732, -0.0319324732, -0.0184434354, 0.0768173859, -0.1051754951, -0.0732671842, -0.0328060687, 0.0225645527, 0.1004172042, -0.0964675918, -0.0702304170, 0.0605611131, 0.1154883727, -0.0596574880, 0.0707844272, -0.0718488023, -0.0405461416, 0.0798284635, -0.0108666345, -0.0459725484, 0.0774791911, -0.0604982339, -0.0449357331, 0.0122488514, -0.0188648477, -0.0590353422, 0.0059279278, 0.1113468930, 0.0203056261, 0.0610230789, 0.0028863549, -0.0608860664, -0.0446735248, 0.1071074829, 0.1093858853, 0.0739266053, -0.0380386859, -0.0968866721, -0.0709206164, 0.0747398809, -0.0780705735, -0.0346541777, 0.0973991826, 0.0944953933, 0.0675353482, -0.0589591414, 0.0289349034, 0.0630170479, 0.0149217620, -0.1147063300, 0.0608676150, -0.0412310809, -0.1169541627, -0.0575580113, 0.0952421501, 0.0980140641, 0.0590346679, 0.0304854289, -0.0937279314, 0.0844926015, 0.0643792227, 0.0045098215, -0.0796058774, 0.0568109974, 0.0276537016, 0.0385086164, -0.0318372250, 0.0112633184, 0.0392381325, 0.0525136217, 0.0662631914, 0.0630727932, 0.0312980786, 0.0224909112, -0.0582299456, 0.1122329906, 0.0273414180, 0.0166204646, 0.0172303393, -0.1135329604, 0.0831979141, -0.0171203017, 0.0336663947, -0.0405173972, 0.1030807421, 0.0286241397, 0.0672668740, -0.0696137249, -0.0093622208, -0.0994404852, -0.1044048518, 0.0484462008, 0.0715536103, 0.0250445828, -0.1160017848, -0.1119282916, 0.1166589335, -0.0550952628, 0.0320143178, -0.0541729778, -0.0881160796, 0.1123433486, 0.0385333970, 0.0017409772, 0.0180709437, 0.0985122249, -0.0255310163, -0.0419622436, 0.1163436845, -0.1145598292, 0.0770044252, -0.0231032148, 0.1043429747, -0.0040849000, -0.0489460602, -0.0689630955, -0.0223819688, 0.0640363172, 0.0770366564, 0.0451642498, 0.0317359641, 0.0976235345, -0.0893742740, -0.1094930470, -0.0578103885, 0.0045128614, -0.0384385735, 0.0188902244, 0.0122134760, 0.0605042502, 0.0353951976, 0.0510637239, 0.0589463338, 0.0907480642, -0.0257641971, -0.0712320507, -0.1032349095, 0.0063082576, 0.0414753035, -0.0098816678, -0.0258754641, -0.0305871740, -0.0707644746, 0.1058940366, -0.0569763035, 0.0762261376, 0.1153493002, 0.0310407951, -0.0427949801, -0.0303546116, 0.0744945481, 0.1055205390, 0.0904011056, -0.0315314084, 0.0610654429, 0.0258663073, 0.0950256959, -0.0763086379, -0.0299304426, -0.0298203826, -0.0529935658, 0.0216786787, 0.1142983809, 0.1075972542, -0.0249389932, -0.0824499726, -0.0324484631, 0.0870575234, 0.0608050302, 0.0661875531, 0.0014011562, 0.0236182436, -0.0388876349, 0.0732122585, 0.0546414778, 0.0844837204, -0.1155522466, 0.1175002977, -0.0109014809, 0.0655874088, -0.0058506876, 0.0452194139, 0.1012177393, -0.0162046179, -0.0013489500, 0.0732574090, 0.0105999634, -0.1056874096, 0.0639860556, -0.0019027367, -0.0175675899, 0.1021996513, 0.1010982916, -0.0891935527, 0.0075606629, 0.0986499861, 0.0693755373, -0.0930777490, 0.0957072601, -0.1008889601, -0.0386446714, 0.0038705692, -0.0129971057, 0.0971624181, -0.0704315752, 0.0391189381, 0.0801055655, 0.0096959397, 0.1012224033, 0.0365047678, -0.0914050490, 0.0041668341, -0.0836659074, 0.0828699246, -0.0578753501, 0.0099726543, 0.0483885184, -0.0060615614, -0.0168042034, 0.0403657779, -0.0048815608, 0.0996870473, 0.0811451003, -0.0665772706, 0.0635129139, -0.0708446652, -0.0097836331, -0.0415780917, 0.0555214509, 0.0183856413, -0.0889303535, -0.0640700087, 0.0823416486, -0.0281225443, -0.0612229072, 0.0034422204, 0.0690941885, -0.0322920755, -0.0849823803, -0.0072339177, -0.0441216007, -0.0915218294, -0.0256686956, -0.0021226555, -0.0257985070, 0.0282146707, -0.0770088136, 0.0040217340, -0.0264345035, -0.0877735913, 0.0414264724, -0.0879499391, 0.0560755059, 0.0486458316, -0.0139683634, -0.0169734880, -0.0343724713, -0.0817538947, -0.0362530351, 0.0197222754, 0.0885045901, -0.0404026732, 0.0694940910, 0.0627943352, 0.1154190674, 0.0019551888, 0.0426715538, -0.0555578358, 0.0345857069, 0.0000037625, 0.0021624416, 0.0670472309, 0.0344779715, -0.1103939191, -0.0295851752, -0.0958300233, 0.0182508752, 0.0290646628, -0.0859669819, 0.0206017718, 0.0309557691, 0.0164239183, -0.0657079518, 0.0960984752, -0.0971229151, -0.0518509895, 0.0313854441, -0.0840474740, 0.1133175418, -0.0852998495, -0.0171302184, -0.0035222396, -0.0411529988, 0.1032546088, 0.0150500163, 0.0416613743, 0.0196912065, 0.0713657662, 0.0858345851, -0.0422159731, -0.0231449455, 0.0831216797, 0.0910453424, -0.0740806460, 0.0482825562, -0.0265407413, -0.1050285697, 0.1106697842, -0.0466174781, -0.0385425612, 0.0606870279, -0.0833570808, -0.0103761628, 0.1043516621, -0.1177142411, -0.0509986728, 0.0763457045, -0.1151571870, -0.0288817212, 0.0425957963, 0.1142287478, -0.0185559914, -0.1107571721, 0.0763513520, 0.0615532175, -0.0161044225, -0.0054387972, 0.0473190024, -0.0547694340, 0.0218554512, -0.0532553270, 0.0997584090, -0.0020315871, 0.0133708939, -0.0862967670, 0.0538685545, 0.0161973163, 0.0139572099, -0.0930847451, -0.0450226963, -0.0153140277, -0.0554756485, 0.0547842160, -0.0157272667, -0.0153198466, 0.1137536988, 0.0982777998, -0.0821948349, 0.0016057938, -0.0693657845, 0.1132544056, -0.0627188385, 0.1051789150, 0.0154343471, -0.0936753601, -0.0432003513, -0.0226490125, 0.0456003621, -0.1106693894, 0.0366587117, -0.0714457631, 0.0587503687, -0.0445327237, 0.0713519529, -0.1141771600, -0.0373619199, 0.0996982530, -0.1017123759, -0.0229613781, 0.0125586912, -0.0633146018, 0.0078158006, 0.0779993758, 0.0370411500, -0.0530932024, -0.0486582592, -0.0505168214, -0.1109408140, 0.0603861436, 0.0375419930, 0.0015224293, 0.1135822162, 0.0937655792, -0.0896630958, 0.1061652079, 0.1044360176, 0.0898614898, -0.1116068810, -0.0061443672, -0.0993817896, 0.0064210743, -0.1030069292, -0.0100004375, 0.0025978163, -0.1047132537, 0.1151463762, 0.0764782652, -0.0212229639, 0.0965807363, 0.0780535266, 0.0266998038, 0.1078648344, 0.1009274051, 0.0012370944, -0.0536039621, -0.0024399385, -0.1160789430, -0.0480481684, 0.0179992095, -0.0862718746, -0.0007233545, -0.0135404319, 0.0956191793, 0.0384115353, -0.0826036036, -0.0774633735, -0.0686381608, -0.0170659646, 0.1039148495, -0.0989333466, -0.0397053063, -0.0050729066, -0.0653425306, -0.0894389600, 0.0756104663, -0.0774331689, -0.1059549898, 0.0626986846, -0.0366092026, -0.0479278788, -0.0874432474, 0.0169800892, -0.0794037059, -0.0963932127, 0.0731815919, 0.0224123225, -0.1064923033, 0.0294747874, -0.0783326477, -0.0249419138, -0.0363504514, -0.1080485880, 0.0165989771, 0.0582193807, -0.0849956945, -0.0275141671, 0.1171943769, 0.1057543680, 0.0263450965, 0.0306190923, -0.0968912542, 0.1028262898, 0.0849833563, -0.0014960989, 0.0731998309, -0.1139998063, -0.0705212578, -0.0873564258, -0.0083346814, -0.1037986726, -0.0192184001, 0.0832026526, 0.1007048711, 0.0877176449, -0.1037662178, 0.0375524983, -0.0611656718, -0.0428037792, -0.0876374841, 0.0688713565, -0.0956054330, 0.0950944498, 0.0042416602, 0.0537001416, 0.0252977684, -0.0018676668, -0.0673163235, -0.0398437455, -0.0594445616, 0.0205778554, 0.0032586828, 0.0888278559, 0.1018132493, -0.1090040281, -0.0241715834, 0.0546269491, -0.0134329349, -0.0685876161, 0.0995825157, -0.0491617993, -0.1019656733, -0.0418412834, -0.1029210016, -0.0556081571, -0.1100237891, 0.0663379952, 0.0400176719, 0.0227994993, -0.0690692142, -0.0822616518, 0.0276419893, -0.0011938512, 0.0558517054, -0.0437438488, -0.0138655007, 0.1119508520, 0.0107078329, 0.0438457355, -0.0433471650, -0.0975393578, -0.0502066761, 0.0872413889, -0.0609831177, 0.0558008030, 0.0015435591, 0.0905401185, 0.0528411642, -0.0319394171, 0.0326393917, 0.0381884947, 0.1009343341, -0.0330431312, 0.0812169537, 0.0409896299, 0.0940588936, 0.0873061642, 0.0278682336, 0.0170332566, -0.0257747620, 0.0594021603, 0.0899365470, -0.1113709956, 0.0248965099, -0.0584711395, -0.0330109820, 0.0254286006, 0.0196442828, -0.1002816260, 0.1029501334, -0.0530488864, -0.0897471905, 0.1003443077, 0.1066485569, -0.0054559112, 0.0262162164, -0.0261176974, 0.0323297754, -0.0966535658, 0.0256279036, -0.0626703948, 0.0239664391, -0.1163681820, -0.0107957721, -0.0990898833, -0.0386900753, 0.0253618434, 0.0993127599, -0.1137218326, 0.0309831575, -0.0791081488, -0.0227258652, 0.0941974744, -0.0278125629, 0.0012775585, 0.0195828602, 0.0908191577, -0.0893650353, 0.0713184550, 0.1006672755, -0.0786439404, 0.0878470913, -0.0065288246, 0.0771417394, -0.0535010993, 0.0477135703, 0.0410836264, 0.0498573557, 0.0952006057, -0.0555165894, 0.0018662661, 0.1144896671, 0.0486449376, 0.0299929008, 0.0107207224, 0.0885374621, -0.0041571930, 0.0561999008, 0.0836031362, -0.0472501293, -0.0236968696, 0.0456773266, 0.0057190731, -0.0134303495, -0.0539362505, -0.0481974185, 0.0892458931, -0.0291501358, 0.0391264930, -0.0647433251, 0.0842484906, -0.0486401021, 0.1061014310, 0.0528205410, -0.1075394005, 0.0200003609, 0.0571224615, -0.0611710101, 0.0183798745, -0.1116178632, 0.0772092268, 0.1024054959, 0.0042634085, -0.0465235710, 0.0090745464, 0.0859837905, -0.0556123182, 0.0430385843, 0.0167104378, -0.0285987183, 0.0523140505, -0.1093778461, 0.0185888931, -0.0820850357, 0.0415494367, 0.0988489166, 0.0451201722, 0.0019257143, 0.0425730124, -0.0342728049, 0.0965671167, -0.0108455047, -0.0984066576, -0.1168791428, -0.0545926467, 0.0696893111, -0.1086561233, 0.0338383242, 0.0252876356, 0.0543695465, -0.0520999953, 0.0930337682, -0.1099217907, -0.0086837932, -0.0482256338, 0.0783606246, 0.0228347406, -0.0043130293, -0.0064345300, 0.0161749497, -0.0221937448, 0.0299525335, -0.0816528350, 0.0262568668, -0.0148293376, 0.0756537095, -0.0143493712, -0.0349076763, -0.0830800682, 0.0503626987, -0.0704239309, 0.1092223749, 0.0786162987, -0.0555062480, -0.0710683540, -0.0030599758, -0.0399763957, 0.1010225192, 0.1135218963, 0.0178934708, -0.1149007976, 0.0876506343, 0.1056395248, 0.0740505233, 0.1063366905, -0.0478946120, 0.0509904400, -0.0901044831, 0.0102985576, 0.1042552069, -0.0410534441, 0.0730864778, -0.0375897065, -0.0012476891, 0.0138810948, -0.1070867702, 0.0330116078, -0.0748859867, 0.0222320184, -0.0800337195, 0.0124760345, -0.0961741060, 0.0947329625, -0.0722363815, -0.0909327269, -0.0835803151, 0.0924578831, 0.0141622350, -0.0811050087, 0.0186887011, 0.0476727560, -0.0475468189, 0.0736439452, 0.1076522395, 0.0546487495, -0.0097566843, -0.0400914624, 0.0474937335, 0.0580518320, -0.0856935680, -0.0480123162, 0.0338596776, 0.1121922359, 0.0213678405, 0.1095158085, 0.0527780876, 0.1168394908, 0.0949783996, 0.1025346890, 0.0920520350, 0.0525600687, -0.1095421314, 0.0281056240, -0.0299504772, 0.0362781510, 0.0479837134, -0.1148501039, 0.0737468377, -0.1062213555, 0.0074146166, -0.0295829847, -0.0938670710, -0.0102414340, 0.1027433947, -0.0893142000, 0.0918821320, 0.0960936621, 0.0103278086, 0.0379045978, -0.0208329037, -0.0126969889, -0.0592262708, -0.0626145899, -0.0979992598, 0.1112022176, -0.0526680201, 0.1054548100, -0.0791655183, 0.0426414832, -0.0948557258, -0.1161740199, -0.0040146559, -0.0784858614, -0.0391838402, -0.0769907683, 0.0757024810, -0.1017134413, 0.0742376521, 0.1140660420, 0.0255719498, -0.0180890337, 0.0198557749, -0.0066720992, -0.0936700776, -0.1012315303, -0.0578049645, -0.0869463682, 0.1072243378, 0.0822853670, 0.0118262395, -0.0522600114, -0.1171175539, -0.0478431955, -0.0414090827, 0.0724849328, 0.1115712747, 0.0197535828, -0.0323925763, 0.0691452548, 0.0385128036, 0.0863065496, 0.0566811338, 0.0643457845, 0.0775849894, 0.0550624356, 0.0124425068, 0.0736736730, 0.0018215328, 0.1071632728, 0.0906726494, 0.1098320410, -0.0803876072, 0.1150459424, 0.0098809078, 0.0555395111, 0.0730948821, 0.1062344983, -0.0739597082, 0.0464396104, -0.0467607230, -0.0682541803, 0.0231401101, 0.0935427174, -0.0870244503, 0.0872661248, 0.0653567836, 0.0129767284, 0.0356283262, -0.0725440234, -0.0978701264, 0.0181900784, -0.0247932747, -0.0336583033, -0.1000032872, 0.0402648523, 0.0536411032, 0.0720858350, 0.1048527882, -0.0528268293, 0.0785702989, -0.0640885532, -0.1067304909, -0.0842199400, -0.0080130175, 0.0628980175, 0.1037539318, 0.0127584115, -0.0870138258, -0.0041321069, -0.0154793859, -0.0078122839, -0.0645936131, 0.0878470764, 0.1112548336, -0.0600869656, 0.0475181863, -0.0507495850, 0.0148813203, -0.0552360266, 0.0066792667, 0.0280370340, -0.0038700923, 0.0500709638, 0.0303171203, 0.0526429340, -0.0211038515, -0.0532037914, -0.0984005034, 0.0989538059, -0.0821183324, 0.0762540773, -0.0851688907, -0.1070450172, 0.0513457283, -0.0275566205, 0.0152728930, -0.0835744143, -0.0904749781, 0.0155386105, 0.0015242249, -0.0588311292, 0.1137478873, -0.0568772852, -0.0164070651, 0.0815289989, -0.0309302211, 0.1107197180, -0.0874873325, -0.0380707458, -0.0697252452, -0.1081595197, 0.0144285187, 0.0682811812, 0.0267343149, 0.0388260409, 0.0314768925, -0.0816398785, 0.0638067052, -0.0954101235, 0.0954354927, -0.0257708281, -0.0574236475, -0.1081807613, -0.0683712065, -0.1099095717, 0.1138496026, -0.0261040404, -0.0166186392, 0.1021150425, 0.0292827561, 0.0434243754, -0.0910952687, -0.0855462179, -0.0992808342, 0.0388436839, -0.0620194823, -0.1121003330, -0.0565424412, 0.0902095065, 0.0587086752, 0.0767606720, 0.0754175410, 0.0237801746, 0.0262915716, -0.0708595589, -0.0373569429, 0.1099118218, -0.0313229188, -0.0153537020, 0.0893975124, 0.0924585834, 0.1079524383, 0.0765774176, 0.0845987275, -0.1041178852, 0.0165242329, -0.0170045421, 0.0573425367, 0.0173849836, -0.0773763880, 0.0877729729, -0.1111474186, -0.0792790353, 0.0954235867, -0.0925604627, 0.0671445951, -0.0488134995, -0.1126026139, -0.0512673110, 0.0305372700, 0.0892703459, 0.0390427038, -0.0488353297, -0.0708164871, -0.1010807306, -0.0958655104, -0.1044176370, -0.0978043228, 0.0173246637, -0.0659351796, 0.1128014252, -0.0587161519, 0.0082235858, -0.0049241856, 0.1070554629, -0.0572916456, -0.0578253083, -0.0038657337, 0.0358897224, 0.0947831795, 0.0916765854, -0.0727441385, 0.0844212398, 0.0709113106, 0.0173999891, -0.0398769602, -0.0109661594, 0.0889387354, 0.0417649373, 0.0267519280, 0.0042965338, 0.0299152955, -0.0830779821, 0.0423454419, -0.0350574106, 0.0489251241, 0.0510454550, -0.0893056840, -0.0542549342, 0.1173676774, -0.0764568597, -0.0004121140, 0.0783291087, -0.1091946736, 0.0277152881, -0.0528933406, -0.0260000005, -0.0131595656, 0.0144743249, 0.0030708462, -0.0516801253, 0.0842954144, 0.0452824906, -0.0162111968, 0.0154133216, -0.0563572496, 0.0747298226, 0.0791981146, 0.0830661878, 0.0674556717, 0.0213800296, 0.0823624507, -0.0739381909, -0.0653264970, 0.0739331916, -0.0863485485, -0.0813651979, 0.0462848023, 0.1168436781, 0.0956865475, 0.0926060900, -0.0090117007, -0.1164432019, -0.0726927221, 0.0266448781, 0.0186665580, 0.0531943515, 0.0554759875, -0.0259180889, -0.0221075639, 0.0604994670, -0.0114242136, 0.1113100573, -0.0624837726, -0.0263049155, -0.0177902430, -0.1007790118, -0.0319858342, 0.0672233030, -0.0386936143, -0.0566500574, -0.0949665755, 0.0917259529, 0.0699055716, -0.0023044497, -0.0687870532, -0.0343366712, 0.1176968738, 0.0569823459, 0.0617114976, 0.0276248083, 0.0938200876, -0.1032575890, -0.1140250713, -0.0675047785, 0.0548714921, 0.0636385605, -0.0815631747, 0.0920607224, -0.0778509378, 0.0410666838, -0.0916753784, -0.0305641070, 0.0194268897, 0.0876016095, 0.0838353708, -0.0294544101, -0.0449234545, -0.0847890899, -0.1137235239, 0.0676303580, -0.0030766353, 0.1102095917, -0.0116350278, 0.0745991394, 0.0651878491, -0.0281182453, -0.0017349869, 0.0352487341, -0.0537184328, 0.0815610960, -0.0925624073, 0.0247956887, -0.0794150084, 0.0515952483, -0.1094263121, 0.0689558759, 0.1098193750, 0.0754573867, -0.0427077934, -0.0449835882, 0.0182091221, 0.0431608483, -0.0317851603, 0.0134479031, -0.0788444728, -0.0470728055, 0.0290827379, 0.0858153924, 0.0313352868, -0.1060180068, 0.0965188369, -0.0096302703, -0.1153624132, -0.0576850437, 0.0840309486, 0.0420640185, 0.0249809399, 0.0886508897, -0.0050166547, 0.1130831465, -0.0781108439, 0.0223540738, -0.1122325361, 0.0714933649, -0.0941673815, 0.0617591515, -0.0427429453, -0.0506272465, -0.1125886217, 0.0402926132, 0.1050813422, 0.0121292099, -0.0138612837, -0.0447307900, -0.0486231074, -0.0882279649, -0.0161465108, 0.0780621991, -0.1038748994, -0.0489703417, -0.0392155051, 0.0813023075, 0.0476136580, -0.0572130829, -0.0948454738, -0.0081740171, -0.0878838226, -0.0247668922, 0.0061549321, 0.0961906835, 0.0392448977, 0.0275251791, 0.1128006950, -0.0350683108, 0.0466158167, -0.0779688358, 0.0466140434, -0.0004975870, 0.0526252612, -0.1158787981, 0.0735713169, -0.0988095477, 0.0169301853, 0.1136926189, 0.0107646361, 0.0110367164, -0.1125557423, -0.0870849118, 0.0275075063, 0.0614736006, 0.0414672419, -0.0206574053, 0.0204153135, -0.0701370239, 0.0000119954, 0.0639999881, 0.0867896900, -0.0163712129, -0.0548869148, 0.0036833286, 0.0927710012, 0.0563761070, -0.0224922001, 0.0489191785, 0.0361518040, 0.0472473726, 0.0953313932, -0.0174003243, 0.0890417621, -0.0194802210, 0.1091696993, 0.0301960036, -0.0309920684, -0.0057495013, 0.0595464185, 0.0936171487, -0.0587774888, -0.0128837600, -0.0671517029, -0.0852046609, -0.0474186018, 0.0754957423, -0.0112289339, -0.0238986090, 0.1012164429, -0.0608960167, -0.0581463836, -0.0406419262, 0.0511686280, 0.0212148950, 0.0837942585, 0.0319362357, -0.0037746429, -0.0375421345, 0.0052095503, 0.0089675859, -0.0095523000, 0.0862656906, -0.0966399461, 0.0248213783, -0.0130784512, -0.1173882186, -0.1135760918, 0.0459978357, 0.0945635065, 0.1090273187, -0.0293365419, -0.0809220672, -0.1058151126, 0.0553115532, -0.0764741376, 0.0885327682, -0.1167536303, 0.0166228786, 0.0844450369, 0.1130051091, 0.0404003933, -0.0647828579, 0.0413656458, -0.0194963738, 0.0543398783, -0.0437254757, -0.1033503413, 0.0712883249, -0.0224471316, -0.0829769447, -0.0239253044, -0.0439968109, -0.0636963919, 0.0462037399, 0.0774064735, 0.1123488918, -0.0129551515, -0.0586015396, 0.0387659743, -0.0888260826, -0.0508972928, -0.1123734191, -0.0931956172, 0.1135955676, 0.0993699953, -0.0035348311, 0.0411328003, 0.0894888565, 0.0384356007, 0.0104924813, -0.0443655699, 0.0436080024, -0.0193393081, 0.0660698190, 0.0496843085, 0.0283597782, 0.0768542960, 0.0143710002, 0.0258188173, -0.0911440253, -0.0529489741, -0.1163489893, -0.0512552857, -0.0191531032, 0.0614121482, -0.0119561926, -0.0456583276, -0.0452601537, -0.0003426522, 0.0846394971, -0.0994888470, 0.0261823013, 0.0559774265, -0.0294848382, 0.1136081293, -0.0061447024, -0.0003289729, 0.1061113998, -0.0153489858, -0.0373969302, -0.0775661319, -0.0044194609, 0.0174174383, 0.0927473679, -0.0594243295, 0.1087778434, 0.0519285426, 0.0139839873, -0.0372285396, 0.0726834461, 0.0005533621, 0.1044813022, 0.0421115085, 0.0720245317, 0.0922693089, -0.0287416801, -0.0113161728, 0.0738812312, -0.0179344639, -0.0148462802, 0.0676611438, 0.0295204446, -0.0878007635, 0.0978809074, 0.0194599256, 0.0028313398, -0.0503735468, -0.0589684136, 0.0907614157, -0.0395807773, -0.0774710774, 0.1151553616, 0.0711609647, 0.0171460733, -0.0462666452, -0.0252232850, -0.0702361465, 0.1093108281, 0.0714737847, -0.0757791102, -0.0060914531, 0.0554628298, -0.0992722958, 0.0421367660, -0.0214511752, 0.0890446082, 0.1110600159, -0.0832360387, 0.0681131259, -0.0056953877, 0.0928144380, 0.0934553817, -0.0444286540, 0.0376590267, -0.1067012697, 0.0411627516, 0.0036577284, 0.1049772426, 0.0867989287, -0.0207483321, -0.0443298891, 0.0264593139, 0.0355958268, 0.0453264043, -0.0230890810, -0.0705597252, 0.1030377224, -0.1094322726, 0.0404988453, -0.0275472626, -0.1046979427, 0.0032040626, -0.0412126184, 0.0803218111, 0.0674533322, -0.0887090266, -0.0556233861, 0.0927322581, 0.0288311765, -0.0593462735, -0.0075748563, -0.0956612378, -0.0808670968, 0.0861656889, -0.0836190432, 0.0403336361, -0.0672111809, 0.1022508666, -0.0173562691, 0.1172030792, 0.0780668035, -0.0393227041, -0.0105160028, -0.0821995586, -0.0223167837, -0.0775938109, 0.0919059590, -0.0606332980, 0.0569838807, 0.0032873973, 0.1084039435, -0.0143630281, 0.0858269408, 0.0706095472, 0.0503927395, -0.1128327325, 0.0022789910, 0.0984703228, 0.0398400351, -0.0503054932, 0.0834376886, 0.0532730594, -0.0649627894, 0.0348560885, -0.0419695824, 0.0638815835, -0.0770324171, -0.0623678379, -0.1147467047, -0.0585841201, 0.0786500052, -0.0795457661, -0.1091198474, 0.0279036537, 0.0567450002, 0.0433493331, 0.0878446326, 0.0701053813, 0.0825102702, 0.0572636351, 0.0613795742, -0.0109843984, -0.1051184237, -0.0777501464, -0.0398484096, -0.0904815271, 0.0080431923, -0.0062483251, -0.0007007644, 0.0391157046, -0.0291013569, 0.0109983012, 0.0929690078, 0.0193928257, -0.0801230147, 0.0484235510, -0.0194942355, 0.0401476845, 0.0487403050, -0.0089340955, -0.0550409481, 0.0729646310, -0.1170769483, 0.0678904578, 0.0635052398, 0.0195745453, 0.0971562192, -0.0980934203, -0.0596712828, 0.1126462445, -0.1034927368, -0.1018806249, 0.0993067995, -0.1033116207, -0.1156571880, 0.0201723501, -0.1159417629, -0.0932707489, 0.0741080120, -0.0414321795, -0.0374910533, -0.0054566711, 0.0126852468, -0.0511061996, -0.0706967562, 0.0330226794, 0.0141590312, -0.0780167654, 0.0543456897, 0.1089816615, -0.0537529662, 0.0284432843, 0.0955038294, -0.1138577163, 0.0035955459, 0.0253744498, -0.1112373099, 0.0845030621, -0.0767550617, 0.0251972750, 0.1114566997, -0.0584890097, -0.0331224501, -0.0736634210, -0.0356973112, 0.1008113548, -0.0479019135, -0.0557970591, -0.1054272801, 0.1054717079, 0.0894687399, 0.1018098965, -0.0932616740, -0.1154314205, -0.0124618709, 0.0050472841, 0.1001785025, -0.0784135088, 0.0748239234, 0.0876251534, 0.0825075731, -0.1052444428, -0.0060578510, -0.0556084663, 0.1069880053, -0.1091186404, 0.0268419012, 0.0523098335, 0.0141440257, -0.0203695446, 0.0532253459, 0.0131079182, -0.1127719879, 0.0158454105, -0.0479629487, -0.1079832017, -0.1038453653, 0.0360919163, 0.0819538161, -0.0684367269, 0.0863839015, 0.0301730409, -0.0712666363, 0.1080360338, -0.0093050674, 0.0655725226, 0.0657227263, 0.0478489771, 0.0579905286, -0.0362397730, -0.0565033033, -0.0664851665, -0.0242944583, 0.0536933765, -0.1098781824, -0.0785861984, -0.0451590866, 0.0310038403, -0.0475018322, 0.0545746908, -0.0922976658, -0.0687917769, 0.0283463672, 0.0422866866, 0.0128365532, -0.0433167890, 0.0053442195, -0.0515293255, -0.0401686728, 0.0524502918, -0.0412908494, -0.0316185355, 0.0544874743, 0.0814163610, 0.0364092514, -0.0148219764, 0.0906408951, 0.0519747660, -0.0344734266, -0.0830471665, -0.0031822249, 0.0322914496, 0.0409651920, -0.0607624091, -0.1018322110, -0.0088770837, -0.0992541984, -0.0284134671, -0.0405691266, -0.0201475397, -0.0059775487, 0.0600521490, 0.0956720039, -0.1073489785, -0.0584274456, 0.0403064415, -0.0600835085, 0.0421767458, 0.1114031151, 0.0450096801, 0.1085226908, 0.0289953724, 0.0016767159, 0.0551437512, -0.0405344516, -0.0086745247, 0.0660436973, 0.0140208825, 0.0675338134, 0.0354437009, 0.0233512893, 0.0297463164, 0.0167287812, 0.0621736869, 0.0059672669, -0.0987808853, 0.1131855920, -0.0051467791, -0.0776910558, 0.0970530137, 0.0918538645, 0.0091535673, -0.0253299475, 0.0065345913, 0.0595501885, 0.0848304853, -0.0431967303, 0.1165183112, -0.0634358078, -0.0093653426, -0.0290882364, 0.0578499511, 0.1088299081, -0.0393905565, -0.0053873509, -0.0549548790, 0.0681816861, 0.1073288545, 0.0594035611, -0.0925975814, -0.0573339052, 0.0986817852, -0.0127316043, 0.0328966007, -0.0000803024, -0.0525604934, -0.0647146553, -0.0504628420, -0.0612758994, -0.0955752879, -0.0027515739, -0.0461193323, 0.0333005562, 0.1093813851, -0.1140041351, 0.0143439844, -0.0802396238, -0.0266340822, -0.1015957892, 0.1042088941, 0.0081856474, -0.0175337940, -0.1139254048, 0.0740017667, -0.0562634580, -0.0779687464, 0.0198271647, -0.0381967351, 0.0692860708, -0.0902993381, 0.1119434312, 0.0408559516, -0.0287835449, 0.0234791115, -0.0033283085, -0.0918543637, 0.1082905158, 0.1153555587, 0.1016314253, -0.0118120760, -0.0664476827, -0.0670066029, -0.0416171178, 0.0023956820, 0.0870572999, -0.1056643128, 0.0942206010, -0.0234604552, 0.0145813748, 0.0467011556, -0.1134629697, 0.0545989648, 0.0646308139, -0.0579969846, -0.0849286541, -0.0476414189, -0.1103255302, 0.1025537923, 0.1000121608, 0.0309287086, -0.0610416457, 0.0947091952, 0.0740252659, 0.0557829514, 0.0089151189, 0.0734479949, -0.0414594039, 0.0362184122, 0.0743006244, 0.0780279264, -0.0912859142, -0.0613191128, -0.0148395374, 0.0373342410, 0.0941577479, 0.0697959438, 0.1064274833, -0.0115572587, 0.1016505584, 0.0568710789, 0.0930511430, 0.0810059384, -0.0464727730, 0.0935361907, 0.0862347558, -0.0798150301, 0.0327359959, 0.0865929201, 0.0652858093, -0.0120386258, -0.0200061575, 0.0784651861, 0.1125894859, -0.0701698959, -0.0293313116, -0.0838826299, -0.1139278784, 0.0279615745, 0.0184956715, 0.0786653534, -0.0525362417, -0.1094140932, -0.0690278262, -0.0823399946, 0.0025850311, 0.0397440866, -0.0780382901, -0.0694961101, -0.0820274651, -0.0164563805, -0.1046564430, -0.0879637003, -0.0355579183, 0.0228372142, -0.1139919087, -0.0758918077, -0.0078173429, 0.0542791560, -0.0734767094, -0.0906702653, 0.0394781157, -0.0787860602, -0.0195123926, -0.0759648383, -0.0259677991, -0.0163929313, 0.1007744297, -0.0157680064, -0.1138289720, -0.0046691671, -0.1041541621, -0.0905999616, -0.0657498688, 0.0051537976, 0.0613113567, 0.0329738632, 0.1175962612, 0.0638584271, -0.0136210769, -0.0680511743, 0.1086398587, 0.1124575958, 0.0595574006, 0.0077739879, 0.0884926245, 0.0037578121, 0.0223831013, 0.0863545612, 0.0464837030, 0.0958453342, 0.0762273744, -0.0101104975, -0.1122885048, -0.0526546463, -0.1031113118, -0.0089217275, 0.0895403400, 0.0223706737, -0.0144139156, 0.0532791838, 0.0060736388, -0.0162548348, -0.1093980223, 0.0336851105, -0.1121602952, -0.0295732319, 0.0706445202, -0.0868241638, -0.0979729891, 0.0523506328, -0.0602005906, -0.0147652477, -0.0518259034, 0.0680234656, 0.0038952082, -0.0755877867, 0.0382006392, -0.0189780220, -0.0209919959, -0.0591019094, -0.0732232630, -0.0820411742, -0.1108881086, -0.0971032530, 0.0887745246, -0.0243768394, -0.0336076692, 0.0011524931, -0.0889289826, 0.0081950650, 0.0413863435, -0.1020968109, 0.0189068839, -0.0450280383, -0.0259973034, 0.0616991594, 0.0701743290, -0.0708674267, -0.0199249536, 0.0103063360, 0.0913266912, 0.0413629189, 0.0710268542, -0.1118852422, -0.0614622980, -0.0319450945, 0.0789132044, 0.1150092259, 0.1050636098, 0.0870507732, -0.0139913484, -0.0392852426, 0.0726482198, -0.0642749295, 0.0097567365, -0.0956235006, -0.0257092118, -0.0491942540, -0.1069678292, 0.0435560718, 0.0703748092, 0.0817833766, -0.0285828933, 0.0176296309, 0.0120483562, -0.0075337514, 0.0810139403, 0.0099408105, -0.0353680328, 0.0633825734, 0.0611935183, -0.1148577482, -0.0856908113, 0.0510352775, -0.0352319553, -0.0009001717, -0.1132259667, -0.0625914931, 0.0190641209, -0.0662371963, -0.0801078081, -0.0549679771, 0.0104661360, 0.0186253712, 0.0025326908, 0.0980973169, -0.1124160439, -0.0256171674, 0.1111303046, 0.0116827413, 0.1111388281, 0.0562723950, 0.0919080898, 0.0545514748, 0.0175412670, 0.1177230850, -0.0250799060, 0.0358744189, -0.0614947528, -0.0426228270, 0.0441149995, -0.0293268189, -0.0418227091, -0.0225260332, 0.0880270377, 0.0983144864, -0.0333969072, -0.0439313427, 0.1155226305, -0.0875384733, 0.0209135190, 0.0573982224, -0.0107030496, -0.0085133538, -0.0533632189, 0.0392526314, 0.0661148056, -0.0914208740, 0.0678706095, -0.1044755206, -0.0880037174, 0.0882456079, 0.0214744136, -0.0063008443, 0.0587603822, -0.0975202769, -0.0108904392, 0.0542480871, 0.1108856127, 0.0173949525, 0.1147447154, 0.0523730293, 0.1168844178, -0.1106651798, -0.1067508608, 0.0785634443, 0.0708195791, -0.0742477998, -0.0454379842, 0.0612320378, 0.0821295753, -0.0943932608, 0.0988799855, 0.0306890532, 0.0787788108, 0.0956284180, -0.0136449039, -0.0247163177, -0.0065037608, 0.0887119547, -0.0077272579, -0.0805392265, 0.0296058580, -0.0434729010, 0.0566467121, 0.0045156404, 0.0615108237, 0.0857854709, 0.0962967202, -0.0007871911, -0.0956480578, -0.0929459408, -0.0277930051, -0.0621747784, 0.0471755341, -0.1172507927, 0.0897363797, -0.0009439513, -0.1031017303, -0.0390511602, 0.0706126615, 0.1149945930, -0.0137380734, 0.1076787040, 0.0643946454, -0.0982514173, -0.0492007434, -0.0833189785, -0.0753309429, 0.0193005279, 0.0860012844, 0.1069258526, 0.0556732640, -0.1161078513, -0.0155123472, 0.1061050072, -0.0990734696, 0.1050316021, -0.0897344649, 0.0949879810, 0.0376367941, -0.0541838184, -0.0482213870, -0.0414960161, -0.0852427036, -0.0502725393, 0.0459477082, 0.0397315249, 0.0217168704, -0.0643667802, -0.0460704118, -0.1074287221, -0.0298279971, 0.0681076720, -0.0536853373, -0.0348245651, -0.0717967078, -0.0165936947, -0.0551518500, -0.0554772243, 0.0759241804, -0.0839349702, -0.1177123263, -0.0277529657, -0.0225406140, 0.0989962891, 0.1033890918, -0.0087397695, 0.0709841177, 0.0440989211, 0.0944265798, 0.0674002245, -0.1056572869, 0.0108186677, -0.0274177641, -0.0433625877, -0.0077726096, -0.1013435274, 0.0235357210, -0.0942430496, -0.0993726030, 0.0258168802, 0.0007799715, 0.0510946736, -0.0044405907, 0.0760415718, -0.0267754719, 0.1163158640, 0.0862911269, 0.0266530439, 0.0235508755, -0.0959010273, 0.0413924828, -0.0747105181, 0.0139316693, -0.0981016234, 0.0019690171, -0.0071164668, 0.0330714211, -0.0818181932, 0.0897226110, -0.0357392654, -0.0269004256, -0.0267197266, 0.1109373942, 0.0064932853, -0.0379518867, 0.0831525251, -0.1157926247, -0.0716705769, 0.0523498133, 0.0216889903, 0.0082751140, -0.0673985183, -0.0279598832, -0.0197455734, 0.1155444011, -0.0434769168, -0.0545343161, 0.0891373828, -0.0191347525, 0.0600137189, -0.0783801526, -0.1105519459, 0.0636009648, 0.0537290499, -0.1165607050, -0.0201059282, -0.0326355100, -0.0736812353, 0.0880597457, 0.0226508155, -0.1147328541, 0.0318474546, 0.0378792509, -0.0494151860, -0.0743970275, -0.0797424018, 0.1021635607, 0.0543486103, -0.0582806915, -0.0297657028, -0.0999539495, 0.0817867443, 0.0221280828, 0.1069347635, -0.0639606565, -0.0241822600, 0.1088070348, 0.0970308110, -0.0167911053, 0.0772773698, 0.0772600099, 0.0215210840, 0.0105137900, 0.0518561080, 0.0742728338, -0.0557653680, -0.0618409179, 0.0456056967, -0.0153347924, 0.0070442855, 0.0951476917, -0.0792974383, -0.1115473360, -0.0791876018, 0.0829438195, -0.0561898686, -0.0609425157, 0.0628750846, -0.0978491083, -0.1027043387, -0.0017281026, 0.0318393037, 0.0246039256, -0.1108596176, 0.0425558910, 0.0397776291, -0.0787139609, -0.0726965964, -0.1021233350, -0.0636904687, -0.0463368371, -0.0129458532, -0.0853757188, -0.0740032941, -0.1118105873, 0.0110369697, -0.0786835253, 0.0647668168, -0.0042093992, -0.0746410340, -0.1030161455, 0.0668353513, 0.0975265726, -0.1168695018, -0.0640203878, -0.0485781804, 0.0500859991, -0.0543153435, -0.1161279976, 0.0991743430, -0.0731883124, 0.0453976318, -0.1043878272, 0.0668861791, -0.1004399285, -0.1164193153, 0.0743999258, -0.0744336396, -0.0845964253, -0.0316512436, 0.0290507600, 0.1134323105, -0.1090260595, -0.0376098827, 0.1061043516, 0.0592333153, 0.0857751593, 0.0034236461, 0.0543709770, -0.0904804021, -0.0106718615, 0.0241234228, 0.0674921647, 0.0329815373, 0.1063941792, 0.0905866399, -0.0698326081, -0.0335029811, 0.0831045732, -0.0525315478, -0.1176923811, 0.0432088599, -0.0641520321, -0.0834082812, 0.1152031049, 0.0076415315, 0.1021943316, -0.1168569699, -0.0528681353, 0.1135004535, -0.0888052061, 0.0724787042, 0.0469391719, 0.1079230979, -0.0469812080, 0.0513053909, 0.0846031979, -0.1039608791, 0.0574594215, 0.0286020860, 0.0245993957, 0.0616554990, -0.1170716956, 0.0958347991, -0.0851746798, 0.0580889806, 0.0953750238, 0.0799951926, 0.0111187324, -0.0138737038, -0.0019419268, -0.0033297986, 0.0509525910, -0.0094247684, -0.0521486327, 0.0984820053, 0.0782288536, -0.0751052648, 0.0648188516, -0.0786685273, 0.1055378392, 0.0352927670, -0.0598841533, 0.1121150777, 0.0371008888, 0.0533043519, -0.0963411182, 0.0765937194, -0.0179474801, -0.0112543032, -0.0750389546, 0.0496497527, -0.0873999223, -0.0944947526, 0.0896445140, -0.0208121389, -0.0602970533, 0.0032581761, 0.0786556527, -0.0984004438, 0.0434915349, 0.0374324694, -0.0725268573, 0.0348404720, 0.0275463089, 0.0431346819, -0.0294694155, -0.0162476376, 0.0006438047, -0.0190833881, -0.0414304659, 0.0797605291, -0.0693063885, 0.0159807578, 0.1113636419, -0.0042003542, 0.0094035491, -0.0923027247, -0.0666443110, 0.0301317945, 0.1150724962, -0.1176733822, -0.0154867768, 0.0145545676, 0.0456661060, 0.0159424916, -0.0118541941, -0.0261937305, -0.0909403712, 0.0284086838, 0.0825700834, -0.0330248103, 0.1014045104, 0.0395735279, 0.0852460489, 0.1022446230, -0.0089745522, -0.0132531077, 0.0939719006, 0.0461089388, -0.0770873129, -0.1084464267, -0.0904996544, -0.0322074667, -0.0606112443, 0.1055579111, 0.0795714781, -0.0310024917, -0.0131533593, 0.0173194632, -0.0437161997, -0.0825298503, 0.0715344176, 0.0910858884, -0.0213094205, 0.0804445669, -0.0940308273, 0.1131493673, 0.0381292477, -0.0055377334, 0.0903550908, 0.0503677353, 0.0369680896, 0.0425047055, 0.1032090858, -0.0490735397, 0.0932174996, 0.0185244456, 0.0973399207, 0.0785523728, -0.0792138204, 0.0268974230, -0.0606603846, -0.0857860595, -0.0003404617, 0.0814160183, -0.0710811093, 0.0142628923, -0.0928831398, -0.0047745630, 0.0635198876, -0.0129661411, -0.0020177662, -0.0816452503, 0.1130468622, -0.0896807685, 0.0695227161, -0.0893384218, 0.0466930047, 0.0517183915, -0.0918087065, 0.1001895741, 0.0683034137, -0.0419114158, -0.1045908332, -0.0144887343, -0.0000382662, 0.0657586381, -0.0911123827, -0.0814266950, 0.0337692872, -0.0690871701, -0.0572797321, -0.0377112329, 0.0452237651, -0.0573331453, -0.0310915336, 0.0919713899, 0.0850456879, 0.0599814281, 0.0164637044, 0.0268027261, -0.0969024897, 0.0498279110, -0.0695065334, 0.0052339360, 0.0639423952, 0.0848521963, 0.0002749115, -0.0716300607, -0.0822489560, -0.0605926402, -0.0971052721, 0.0718587711, -0.0884859040, -0.0066114068, 0.1042805240, 0.1089212224, 0.0019352734, -0.0757877380, 0.1048926339, 0.0696542189, 0.0125920102, -0.0060732514, -0.0464078635, -0.0014619902, -0.0176155269, -0.0608658381, 0.0172164813, 0.0308291540, -0.0787306502, 0.1026077941, 0.0465210751, -0.0291538462, -0.1107197702, -0.0915244371, 0.1104200259, 0.0837262347, 0.0910061225, 0.1080873385, 0.0973521098, 0.0461660847, 0.0655954108, 0.0902001783, 0.1144376323, 0.0573703423, 0.0657534078, -0.1074028686, 0.0426463410, -0.1082538441, -0.0519417450, -0.0526029170, 0.0124661997, 0.0537415519, -0.1092366800, 0.0623284504, 0.0295985863, -0.0362188369, -0.0449400619, -0.0885903984, 0.0096623376, 0.0544113889, -0.0522087589, -0.0509375036, -0.1050135940, -0.0699396878, 0.0977554843, 0.0771613196, 0.0262520984, 0.1130108163, -0.0330978334, -0.0882232711, 0.0011357442, 0.0605917647, -0.0404990166, 0.0170186386, -0.0951453596, -0.0578760542, -0.0098122060, -0.1044845656, -0.0281749144, -0.0686266124, -0.0480984896, -0.0439138412, -0.0234498307, 0.0982690081, 0.0822786912, 0.0109718069, -0.0192475095, -0.0304036140, -0.0624539889, 0.0860781893, -0.0669546574, 0.0800472125, -0.0079570413, -0.0923794061, 0.0368696377, 0.0126355365, -0.0439332873, -0.0834238678, -0.0875444561, 0.1177401766, 0.0727568939, -0.1129051149, 0.0564670339, -0.0119603500, 0.0302856341, -0.0570515208, 0.1136464998, -0.0084808171, -0.0276539251, -0.1003820226, -0.0792540014, -0.0120361820, -0.0101100430, 0.0925595686, 0.0204143003, 0.0922346339, 0.0799597427, -0.0307324976, -0.0162039772, 0.0704488829, 0.0729334131, -0.1082906500, 0.0352075920, -0.0695919767, -0.0453454256, -0.0365367904, 0.0235339925, 0.0649538264, 0.0984789804, 0.0633505061, -0.0804159343, 0.1053426489, 0.0759450272, 0.0140352324, 0.1081309691, -0.0534966588, 0.0448210612, -0.0967309251, 0.0043963119, 0.0826882049, -0.0208034292, 0.0104177222, -0.0658025816, -0.0722275898, 0.0749672130, 0.0910328105, -0.0222358331, -0.0800745189, -0.0429493263, 0.1065833941, -0.1021184400, 0.0598761961, 0.1167667136, -0.0596870482, -0.0696165636, 0.0891002342, 0.0678113326, 0.0301460400, -0.0527633280, -0.0790555775, -0.0977937803, -0.0620463155, 0.1127538309, 0.0649285093, -0.0923846811, 0.0175595060, 0.0615038052, -0.0547523275, 0.0984453782, -0.0695479810, 0.0940217450, 0.0430152640, 0.0265426561, 0.1088617668, -0.0702518523, -0.0862044692, 0.0496841595, 0.1046290472, -0.0235358998, 0.0111003295, -0.0328504071, -0.0745645463, -0.0103211701, -0.0490090325, 0.1144029871, 0.1135186329, -0.0279507488, 0.0875703618, -0.0829854310, -0.0758710951, -0.0785611346, 0.0207543150, 0.0588351712, -0.0797551870, -0.1115925461, 0.0132023618, -0.0854459405, -0.0568997078, -0.0139390305, -0.0237728208, 0.0014791861, -0.1150190905, -0.0279520154, -0.0513889492, 0.0022988319, -0.0873605832, -0.1038790867, 0.0428780988, 0.0027837977, -0.1030836329, 0.0626138076, -0.1111309826, -0.0717056990, 0.1134173945, -0.1149799153, 0.0360486284, 0.0123346075, -0.1170459017, -0.0819468498, 0.0176763609, -0.0286773071, -0.0783907771, 0.0264372304, -0.0128631592, 0.0010835677, 0.1149712577, -0.0574282557, 0.0857322887, 0.0091327950, 0.0815221146, -0.1092597470, 0.0280086026, -0.0747020543, 0.1169949099, 0.0295793340, 0.0736549571, 0.1019246206, 0.0733055994, 0.0999960676, -0.0976613835, 0.0212906823, 0.1044822857, 0.0213120356, 0.0147828981, -0.0349548832, 0.0667336062, 0.0033357516, 0.0110645667, 0.0607642308, -0.0916686356, -0.0230294019, -0.0838561580, 0.0551151261, 0.0223775879, -0.0594994947, 0.0316563323, 0.0855912343, 0.0018394887, -0.0553301275, -0.1066768765, -0.0631758273, -0.0558374673, 0.0142479613, -0.1150464267, 0.0717611685, -0.0798235759, -0.1098698080, 0.0961760953, -0.0437224135, 0.0240493044, -0.0001901686, -0.0489827618, 0.0871144757, -0.0765802339, -0.0556321815, -0.0321404263, -0.0713885874, 0.0866908953, 0.0580249652, -0.0374770090, 0.1101110652, -0.0451287106, 0.0942889079, 0.0621830150, 0.0495988056, 0.0932255164, 0.0224662945, 0.0974426493, 0.0679538175, -0.0220494866, -0.1115152240, -0.0987164900, -0.0996287763, 0.0107683465, 0.0722575709, 0.0825136080, 0.0727891847, -0.0211563110, 0.1112351194, -0.0623760149, 0.0199379250, -0.0817559212, 0.0321796313, 0.0818826482, -0.0947187766, -0.0673878044, 0.0201432779, -0.0607701652, 0.0906865373, 0.0826625600, -0.0779822022, 0.0557964668, 0.0634926036, 0.0266063735, 0.0034831017, 0.0179387406, -0.0533702150, 0.0344733670, 0.1118400916, -0.0966978520, -0.0920682475, 0.0020753667, 0.0746281371, -0.1045079157, 0.0525363907, -0.0271403491, -0.1037097946, 0.0315844044, -0.0849057287, -0.0498243198, 0.1178003028, 0.0097430572, -0.0580521151, 0.1074623242, -0.1042601466, -0.0682435036, 0.0777103528, -0.0544613451, 0.1032665297, -0.0505892858, 0.0636337027, -0.0933972746, 0.0165729001, -0.0559964702, 0.0938885137, -0.0626008213, -0.0208356902, 0.1141536459, 0.1172421947, -0.0413312539, -0.0575508475, 0.0477797464, -0.0878687873, -0.0012038797, -0.0134261325, 0.0226924792, 0.0254479870, -0.0410779789, 0.0779906884, -0.1166381985, -0.0087186694, 0.0072320923, 0.0828223452, -0.0119787529, -0.0471584424, 0.0402650461, -0.0003297031, 0.0033910498, 0.1114532426, 0.0944010392, 0.0910282508, 0.0450895354, -0.0225568786, 0.0054216310, -0.0753753632, 0.0875182971, -0.1071154848, -0.0198644847, 0.0841569677, 0.0893215016, 0.1178398654, -0.1167394966, -0.0259598494, 0.0809950605, -0.1000201777, -0.0958568826, 0.0625134632, -0.0437227190, -0.0370752588, -0.1023342609, -0.0437769741, 0.1013396755, 0.0470799729, 0.0022474974, 0.0537705049, -0.0557263121, -0.0977976024, 0.0061141849, 0.1164161190, 0.0844419971, -0.0728928596, -0.0118456557, 0.0129084066, -0.0377056375, 0.0882712081, 0.0206627473, -0.0324001387, 0.0589089915, -0.0176441073, -0.0547337234, -0.0764051527, 0.0921165422, -0.0380532369, 0.0659547672, -0.0261393040, -0.0829432607, 0.1034389660, -0.0422087759, -0.0742132068, 0.0670277700, -0.0701317340, 0.0951831266, 0.0550564602, -0.0274386629, -0.0900087506, 0.0432809666, 0.0683989152, 0.0154552534, -0.1071742922, -0.0278317556, 0.0341987386, -0.0730675161, -0.0351932347, 0.0568593815, 0.0372221544, -0.1035135612, 0.0830790028, -0.0623205230, -0.0500140041, -0.1032046825, 0.0089714006, 0.0887336954, -0.0657656044, 0.0820793882, 0.0172185674, -0.1126683056, 0.0911790803, -0.0779459924, 0.0169914439, 0.0027816370, -0.0803348720, -0.1006121710, 0.1088107452, -0.0913973004, -0.0021492615, -0.0090123415, -0.0576065928, 0.0290670469, 0.0172420219, 0.0751532242, -0.0749174803, -0.0170996487, -0.0433782637, -0.0552415624, -0.0122412145, 0.0382197127, -0.0779222995, -0.0683902577, 0.0682220981, -0.1062277853, 0.1154562309, 0.1084146723, -0.0563548058, -0.0802467614, 0.0502246842, 0.0387604013, -0.0603121668, -0.0527292490, -0.0277826935, 0.0707131401, -0.1123148873, -0.0094589889, -0.0159800351, -0.1002118587, -0.0702313781, 0.0281129256, -0.0474554971, -0.0130780861, -0.0702804029, 0.0042917281, -0.0119242445, -0.0198752433, 0.1096840873, 0.1024411246, 0.0948658958, -0.0176607668, 0.0641477332, -0.0619823933, 0.1036292091, -0.0781646520, -0.0705504268, -0.0594558865, -0.0296786577, 0.1108850464, -0.0579828545, -0.0279351845, -0.0298645273, -0.0961142629, -0.0168105811, -0.0318144932, 0.0722500607, -0.1065994650, -0.0704692751, -0.0739054233, -0.0442729294, 0.0422095880, -0.0702228323, -0.0277397335, 0.0073587224, 0.0853659734, 0.0766646937, -0.0139578283, 0.0595185384, -0.0519527644, -0.0702560693, 0.0244155601, -0.0707298070, 0.0125242695, -0.0327695683, 0.0589365289, 0.0935975239, -0.0626268461, 0.0958713815, -0.0343652442, -0.0094528347, 0.0752170309, -0.1159966141, -0.0055578500, -0.0162125975, 0.0507076010, -0.0462450385, -0.0934265256, 0.0627780929, -0.1050025523, 0.0943956450, -0.0520328432, 0.0292252079, -0.0863843262, 0.0820231959, -0.0375240967, 0.0690670535, 0.0505700335, 0.0546780303, -0.0622415394, -0.1166838631, -0.0483559519, -0.0242471695, -0.1028260067, -0.0032773688, 0.0061508268, 0.0678771064, 0.0284909829, 0.1031001285, -0.1071382463, 0.0179114267, -0.1164593548, 0.0141781494, 0.0037372708, 0.0538068041, -0.0053269938, -0.0504446626, 0.0371130481, 0.0248376951, -0.0628378317, 0.0285478607, 0.0499503091, -0.1176487729, -0.0559240617, 0.0697990879, -0.0971776247, -0.0571642779, 0.0487465933, -0.0637351945, 0.0252800211, -0.0113336220, -0.0643510967, -0.0398537517, 0.0071440339, -0.0359419063, -0.0299765244, -0.0258778259, -0.0090639293, 0.0882531628, -0.0597196668, -0.1144205481, -0.0078280196, 0.0429995134, 0.1102562919, 0.0590159073, 0.0980479792, -0.0994306505, 0.1162624136, 0.0801210776, 0.0456065461, -0.0647650659, -0.0686628670, -0.0761672780, 0.0727644488, 0.1144416705, -0.0376040637, 0.0896927640, -0.0544949770, 0.1114042327, -0.0569826812, -0.0590695404, 0.0493283048, 0.0386462435, -0.0878088325, 0.0989644751, -0.0671942979, 0.0419029519, -0.0240223259, 0.0540992990, 0.0309292451, 0.1140132621, 0.0031089485, -0.1164226308, 0.0418717191, -0.1140060201, -0.0576989241, -0.0156063884, 0.0644191280, 0.0249494240, -0.0416123718, 0.1055412218, -0.0258162916, -0.0914568901, -0.1107361540, -0.0858307928, -0.0231984705, 0.0531607494, 0.0809894130, 0.0990325585, -0.0141824707, -0.0942486972, 0.1070210263, -0.0887034088, 0.1148158237, -0.0642117634, -0.0208594278, -0.0556153506, 0.0056253374, -0.0402370915, 0.0217534825, -0.0212364197, -0.0221759602, 0.0681473538, -0.0695867538, 0.0653324500, -0.0827807635, -0.0113898739, -0.0487303287, 0.0054892898, 0.0744063333, 0.0314444080, -0.0208725557, -0.1112377271, -0.0283801407, -0.0667986572, -0.0337946936, -0.0818231106, 0.0097444132, -0.0912340730, 0.0399472043, 0.0598694608, 0.1155047640, 0.1080579981, 0.0113224760, -0.0923565850, 0.1137509421, -0.0572229736, -0.0231825635, 0.0017843023, -0.0307487696, -0.0411198735, -0.0370543823, 0.0056080893, -0.0945584476, 0.0081944689, 0.0588916764, -0.0082474053, -0.0470988750, -0.0251190439, 0.0029929355, -0.0768877417, -0.1033125743, 0.0031269565, -0.0253686681, -0.0227472708, 0.0271683112, -0.0402131826, 0.0082284138, -0.0216186941, 0.0552440360, 0.1177157536, 0.0164156035, 0.0010190010, -0.0545882881, -0.0948968604, 0.1024253294, -0.0952803940, 0.0635771975, -0.0858628526, -0.0816630051, 0.0593153462, -0.0564735755, -0.0402896926, -0.1008537561, 0.0700488165, 0.1056386009, -0.0976029932, -0.0061884746, 0.1166075990, -0.0134280995, 0.0112678483, -0.0288617387, -0.0395772979, -0.0352765173, 0.0713486299, 0.0400165245, -0.0389143229, 0.0328131244, 0.0649854466, -0.1107942611, -0.0234118700, -0.0040091202, -0.0207556635, -0.0135190487, 0.0636755452, 0.0298911110, -0.0578778237, -0.1135053933, -0.0400277898, -0.1036668643, 0.0702729896, -0.0681881756, 0.0784192905, 0.1008250341, -0.0433359221, -0.1064851657, 0.1075708643, -0.0413417593, 0.0795409158, -0.0834750682, 0.0405725017, 0.0853991583, -0.0427820012, -0.0494210050, 0.0952782109, -0.0975675136, 0.0543978438, -0.0037632361, 0.0875342265, 0.0425312892, 0.0790269151, 0.0687289014, -0.0528570935, 0.0610515699}};

#endif
