//Numpy array shape [3, 3, 16, 32]
//Min -0.117845453322
//Max 0.117793835700
//Number of zeros 0

#ifndef W5_H_
#define W5_H_

[[intel::fpga_register]] static constexpr w5_t w5 = {{0.0500630662, -0.0093472973, 0.0525621846, 0.0422261432, -0.0188291296, 0.0702558979, -0.0844405144, 0.0186331198, 0.0333905295, -0.0924536884, 0.1057477966, 0.1067408547, 0.0672408566, 0.0292672440, -0.0504166782, 0.1090494022, 0.0792692527, -0.0654030591, 0.0702039525, -0.0687389821, -0.1100974903, -0.0969462395, 0.1044713333, 0.0934223458, 0.0107101277, -0.1053812802, -0.0279816017, -0.0234677270, -0.0670618713, -0.0253391340, 0.0295138881, 0.1177938357, -0.0968134999, -0.0369530097, -0.0705185086, 0.0574206188, 0.0232272372, 0.0997414663, -0.1127255931, -0.0022925064, 0.0955867842, -0.1011352390, -0.0885363072, 0.0280279890, -0.0202243328, -0.0313566104, 0.0012761205, 0.0629783496, 0.1171082184, 0.1029585078, 0.1053889766, 0.0207682177, -0.0230786577, -0.0756752864, -0.0480367616, -0.0720752180, 0.1000143811, 0.0665474907, -0.0401322320, -0.0107160881, -0.0416185781, 0.0927740708, -0.0135875568, -0.1073575169, 0.0493568853, -0.0275646001, -0.0419830978, -0.0666815639, -0.0218280181, -0.0186686963, 0.0252698436, -0.1118164062, 0.0991441086, -0.0036928803, 0.0529885069, 0.0562234446, -0.0593703538, -0.0563243181, -0.0449353978, -0.0271811485, -0.0060797706, 0.1155547127, 0.0716334060, 0.0250331536, -0.0399755016, 0.1170673147, 0.1151671335, 0.0100973472, -0.0849091560, -0.0496619940, -0.0972560197, 0.1172175482, 0.1071937606, -0.0233824253, -0.0670969933, 0.0461999103, -0.0799832270, -0.0037777871, -0.0028746948, 0.1016588733, -0.0770653710, 0.0330048576, 0.0190035924, 0.0024499148, 0.0731190816, -0.1167507023, 0.1011388376, 0.0720422193, -0.0705475882, -0.0327018499, -0.0364635959, -0.1014653593, -0.0563047342, 0.0421656147, -0.0792721808, -0.0540677160, 0.0007619038, -0.0326708332, -0.0820911601, 0.0643737987, -0.0170132518, 0.0581588373, 0.0078176185, 0.0883116350, 0.1081781760, -0.0126009807, 0.0370684043, 0.0104222074, 0.0705003217, 0.0121766403, -0.0624438711, -0.0116698742, -0.0657121390, -0.0469751060, 0.0453659073, 0.0754384473, -0.0018835440, -0.0864263028, -0.0516539142, -0.0584050789, -0.0045983642, -0.0125675723, 0.1146651879, 0.0123665109, -0.0353136361, 0.0882218406, -0.0295929313, -0.1086098701, 0.0155696347, 0.0225020126, 0.0380964801, 0.0271089897, 0.0498001799, 0.0481016710, 0.0974188223, 0.0828992799, -0.0735472590, -0.0662712306, 0.1141921654, 0.0172005221, 0.0697934404, 0.0056420267, -0.0300743356, -0.0255470872, 0.0336900875, 0.0874059573, 0.0478924736, -0.0552565381, -0.0508677065, 0.0441816077, -0.1132058203, -0.0448195189, -0.0206497908, 0.0723431781, 0.0513892099, -0.0125584975, -0.0987627655, -0.0431705937, 0.0389164314, -0.1140418947, 0.0652819499, -0.0705969036, 0.0435397401, 0.0822141096, -0.1134251207, -0.0687900633, 0.0446724519, 0.0054867864, 0.1158982441, -0.0072895214, 0.0897516087, -0.0518098250, 0.0221858695, -0.0371645316, -0.0323845446, -0.0498806238, 0.0562517419, -0.0768592507, -0.1024029031, -0.0085986331, 0.0163663551, -0.0492206886, -0.1084232777, -0.0177847072, 0.0448280349, 0.0297549143, -0.0612791590, -0.0266332924, -0.0878605843, -0.0735801384, 0.0916493312, -0.1022261158, 0.0522398427, -0.0774476156, -0.0274507180, 0.0271800533, -0.0944353491, 0.0861476883, 0.0466524586, 0.0702320710, -0.0790390819, -0.1120263487, -0.0640471131, -0.0532327592, -0.0019046143, 0.0733746514, 0.0601161048, 0.0503771678, -0.0729238540, -0.0533896014, -0.0381862223, -0.1168047637, -0.0558674745, 0.0310104415, -0.1061742082, -0.0956111923, 0.0901219621, 0.0238406137, -0.0135253146, 0.0369664654, 0.0355307981, 0.0362496898, 0.0495384857, 0.1039522514, 0.0441480353, -0.0316582099, -0.0359396860, -0.0790178105, -0.0102629289, -0.1078478023, 0.0720873848, -0.0161648020, 0.0089993700, 0.0035005212, -0.0188444480, 0.0336465016, -0.1060545072, 0.1038947031, 0.0722784176, -0.0917421430, 0.0868156478, -0.0729175657, -0.0930850208, 0.0888621584, -0.0342861488, 0.1169368848, -0.0459199473, 0.0886913314, 0.0798543915, 0.0325111225, -0.1021054313, -0.0724783093, -0.0908164531, 0.1047824398, 0.0930071101, -0.0282508656, 0.0023278818, 0.0525226370, 0.0605329350, 0.0419963226, 0.0860788450, 0.0214877799, 0.0635382310, 0.0805667117, -0.0166048184, 0.0706219599, -0.0685811266, -0.0685049593, 0.1047060415, -0.1160339564, 0.0454792306, -0.1081904247, -0.0618388690, 0.0373201892, 0.0504644141, 0.0505143479, 0.0666000918, 0.0859016553, -0.0412470996, -0.0147808418, 0.0188967660, 0.0608157739, -0.0906720608, 0.0110014454, -0.0883537605, 0.1176645830, -0.0690023452, -0.0924990699, -0.0655139610, -0.1098698974, -0.1117236242, -0.0882149860, -0.1125875786, -0.0395046920, 0.0164334849, -0.0319659114, -0.0008587539, 0.0367638841, -0.0392444730, -0.0640415698, 0.0157734081, 0.0907002166, 0.0298686549, -0.0848082006, -0.0043383166, -0.0299533457, -0.0174418241, -0.1096947640, 0.0682585016, -0.0510892048, -0.0502863899, 0.1059997156, 0.0389539376, 0.0910252556, -0.0052946284, 0.0737803355, 0.0583444163, 0.0692170337, 0.1132144108, 0.0080667362, -0.1011667922, 0.0386996046, -0.0901727602, -0.0420380831, -0.1157485917, 0.0553608164, -0.0164958835, 0.0992125794, 0.1029102728, -0.0825676471, -0.0164477527, -0.1170562133, 0.0646052137, -0.0285048112, -0.1113512740, 0.0484682545, 0.0875840709, -0.0369655713, 0.0522678867, -0.0028187558, -0.1009292305, -0.0462719277, 0.0164138302, 0.0750425979, 0.0822816417, -0.0088729262, -0.0266578794, -0.0800065249, -0.0609188601, -0.0496440157, 0.0484120026, -0.1095442399, -0.0083440617, 0.1165119335, -0.0093408078, -0.0699126571, -0.0086453855, 0.0968906060, -0.0497090593, -0.0525534078, -0.0535786226, 0.0800779238, 0.0568351373, 0.0201304927, -0.0322012305, 0.0194838420, 0.0140215233, -0.1057445854, 0.0786654875, 0.0227745548, -0.0263547078, -0.0415005162, 0.1031381413, 0.1123089567, 0.0007391423, -0.0642282516, 0.0757153854, -0.0039542466, -0.0123090968, 0.0221518800, -0.0301844776, 0.0409517959, -0.0578634925, -0.0975967348, 0.0614440963, 0.0256356820, 0.0698375031, -0.0189211816, -0.0500560403, 0.0056674853, -0.0035460666, 0.0345964655, -0.0450311527, 0.1042342708, 0.0986530110, -0.1118818969, 0.0575778559, 0.0342919752, -0.0371120423, -0.0207220018, -0.0752241164, -0.0762795061, -0.0932193846, 0.0179968700, -0.0070449337, 0.0013611466, 0.0300215706, -0.1167895943, 0.0492485091, -0.0381121039, -0.0433439016, -0.0085949525, 0.1092638448, 0.0834059790, 0.1049110368, -0.0888235867, -0.0709871203, -0.0919381827, -0.0206338912, -0.0514016226, 0.0515488312, -0.0240073204, 0.0190970525, -0.0920628533, -0.0310064778, -0.0537279844, -0.0874887630, 0.0344970003, 0.0069844350, 0.0944784507, -0.0391837880, 0.0886352733, 0.0852894261, 0.0438081101, 0.0468726978, 0.0399939939, 0.0159495249, -0.1093068719, -0.0772203878, 0.0714013204, -0.0865483284, -0.0473155975, -0.0205819383, 0.0501893982, 0.0042450875, -0.1042119637, 0.0223752037, -0.0709196627, 0.0874300376, -0.0899096280, -0.1112970114, 0.1104699299, -0.0647306740, 0.1040020958, 0.0580039248, 0.0673908219, 0.1033368185, -0.0275860950, 0.0284136608, 0.0979480073, 0.0538287535, 0.1112634316, 0.0553218350, -0.0780963451, 0.1059201434, -0.1062207371, 0.0108531192, -0.0577062853, 0.0665147230, -0.0431443527, -0.0173761621, 0.0750272945, -0.0459151417, 0.1056273058, 0.0007118061, 0.0445152149, 0.0319309011, -0.0355655327, -0.0680170953, 0.1103340164, -0.0891653374, -0.0636043996, 0.0656734779, 0.0835706219, 0.1030989513, 0.0040024891, -0.1095060259, 0.0066504106, -0.1128789559, -0.0010450482, -0.0876367837, 0.0729230717, 0.0110709146, -0.0356400460, 0.0578866675, -0.1000242233, 0.0843502358, 0.0471375957, -0.0368944779, -0.0430778414, 0.1139839366, -0.0715899616, -0.0685715973, -0.0426417068, 0.1107793376, 0.1046845689, 0.0909024402, 0.0589728281, -0.0121700168, -0.0314385146, 0.0604187772, 0.0853105262, -0.0542502403, -0.0092931017, -0.0933088511, -0.0672021359, 0.1109471098, -0.1081864089, -0.0998434722, -0.0326501504, -0.1026799828, 0.0924990103, 0.0039002150, -0.0119033903, -0.1086071432, 0.0837980285, 0.0399157032, 0.0590932295, -0.0213759542, 0.0157498792, -0.0817404091, 0.0233165696, 0.0427741930, 0.0540648475, -0.1166795045, -0.0571214557, -0.0063903630, -0.0753088593, 0.0590635613, 0.0687765256, -0.1149520203, -0.0826860219, 0.0975560471, 0.1153790280, 0.0145086572, -0.0511877388, 0.0996465608, 0.0573997125, 0.0245931968, 0.1108237877, -0.0567781255, 0.0317910537, -0.0039223284, -0.0117489994, 0.0611862168, -0.1023603380, -0.0945272073, 0.0281969383, -0.0224432796, -0.0419831499, -0.0473362803, 0.0068502128, -0.1045261547, 0.0192854479, -0.0287253782, 0.0508953556, -0.0918528736, -0.1076259688, 0.0425326303, -0.1128241941, -0.0857580453, -0.0127466992, -0.0598620698, 0.0742781386, 0.0539388284, -0.0681038573, -0.0643489063, -0.0554662086, 0.0684008524, -0.0525865108, -0.1076895520, -0.0011128485, -0.0886555612, 0.0778882727, -0.0804102570, 0.0128450170, 0.1176617518, -0.0609919429, 0.0462291911, -0.0328911468, -0.0186738372, 0.0557304397, -0.0679512322, 0.0730083957, -0.0119367987, 0.1030519977, -0.0867031217, -0.0075499341, -0.0932456031, -0.1112118810, -0.0061394721, -0.0159153789, 0.0134927258, 0.0711162314, 0.0576006994, 0.0623617396, 0.0247648731, -0.0383801013, -0.0493244827, 0.0497437641, 0.0692816153, -0.0626980737, -0.1024186984, 0.0791602656, -0.0626621917, 0.0276285782, 0.0508991405, -0.0677793771, 0.0594489202, 0.0288645551, 0.0093024299, -0.0054490268, 0.1016577706, 0.0464529023, -0.0867734775, 0.0330943838, -0.0235475823, 0.0540921912, -0.0410657004, -0.0578246340, 0.0400803015, -0.0016947836, 0.0701470450, -0.0165925398, 0.1014587656, -0.0061459914, 0.0444733873, -0.0832091197, -0.0710967332, -0.1169747561, -0.1162124872, -0.0949238613, 0.0909050182, -0.0921661109, 0.0459799096, -0.0058720112, -0.0918781608, -0.0849060863, -0.0040331408, -0.0293220654, 0.0641678199, 0.0007920489, -0.0119613037, -0.0981618389, -0.0884528607, -0.1115376428, 0.0514804944, 0.0342407152, 0.0723851398, 0.1102376059, 0.0876238868, -0.0601425990, -0.1175639108, -0.0619479157, 0.0429604575, -0.0006258264, -0.0579352267, 0.0925430432, -0.0486507267, -0.0061967373, -0.0455046073, 0.0576493070, -0.0016779751, 0.0796543732, -0.0323486626, -0.0746365041, 0.0821143612, -0.1151959598, -0.0565895885, 0.0314512178, -0.0844336003, -0.0855420604, 0.0742337182, 0.0608939305, 0.1071834788, 0.0443789437, -0.0607520677, 0.0906326100, -0.0212626085, -0.1059526280, 0.0336315259, 0.0030535385, 0.1130712852, -0.0357808769, 0.0823255852, 0.0178280845, -0.0935787335, 0.0934091285, -0.0615901165, -0.0650045723, 0.0751762316, -0.0828668028, -0.1156021729, -0.0103139803, -0.0034813881, 0.0147694424, 0.0307776853, -0.0132161826, -0.0789409056, 0.0196522102, 0.0900678411, -0.0135364160, 0.0895646736, 0.1093439236, -0.0666158795, 0.0405127034, -0.0597548187, -0.0440867245, 0.0765369609, 0.0049328953, 0.0394963995, 0.0843515173, -0.0329944938, -0.0647626519, 0.0078114942, -0.0763776451, 0.0271330997, -0.0861034244, -0.0619318448, -0.1050625145, 0.0995587185, -0.0330423117, -0.0606861785, 0.0126475319, -0.1095642149, -0.0542108789, -0.0509208962, 0.1085201278, 0.0611963496, 0.0272346810, 0.0610765740, -0.0468353778, 0.0024776980, 0.0618444905, -0.0394769311, -0.0138159618, 0.0154636726, 0.0103053525, 0.0573756322, -0.0735785365, -0.0647353977, 0.0169154629, -0.0527155399, -0.0558453910, -0.0544654429, -0.0618913285, 0.0531789288, -0.0101964772, 0.0136319771, 0.0943964347, 0.0551796630, 0.0381386206, -0.1121151969, 0.0616120622, -0.1059693694, -0.0897426382, -0.0439016446, 0.0490662679, -0.0542532206, 0.0927347615, 0.1126232669, 0.0063817054, 0.0577489361, -0.0431080759, 0.0178346112, 0.0917728469, 0.0264813080, 0.0994175896, 0.0565918609, -0.0849523395, -0.1158452779, -0.0993801057, -0.0035306960, 0.1010425463, 0.0491547510, -0.0102243200, 0.1165689602, -0.0346365049, -0.0755634010, 0.0256279185, -0.0929270834, -0.0434577838, -0.0585709400, -0.1036011130, -0.0353164747, 0.0819279626, -0.0533684194, -0.0611915216, 0.0397793129, 0.0846784636, -0.0312786400, 0.0711674765, 0.0332696512, 0.0963374451, -0.0328867361, -0.0501063392, 0.0541398153, 0.0689842775, 0.0605866835, 0.0014941022, -0.0907912776, -0.1011127383, 0.0690234378, 0.0575118139, 0.1043780223, -0.0187088996, -0.0537698269, 0.0096147880, -0.1159826741, 0.0840323940, 0.0369505361, 0.0212127343, 0.0289482549, 0.0985996351, -0.0778853297, 0.1130313650, 0.0701669678, -0.0701290667, -0.0913814753, -0.0635684580, -0.0141092166, 0.1144761816, 0.0452290550, 0.0291368738, 0.0947643742, -0.1035372466, -0.0452797115, 0.0805073604, 0.0063744038, -0.0788701028, 0.1135006174, 0.0496898070, 0.0653418377, -0.0406470969, -0.0790620670, 0.0560103729, -0.0309203044, -0.0420556143, -0.0024236962, 0.0834755376, -0.1054756343, -0.0855996609, 0.0697043166, -0.1100561842, -0.0770561546, -0.0834316537, 0.0884334221, 0.0597764775, 0.0484910384, 0.1013234630, 0.0786326155, -0.0057929456, 0.0033275187, 0.0737693533, 0.0581466034, -0.0613247342, 0.0643120781, 0.0043347478, 0.0638250187, 0.0037895888, -0.0450228900, 0.0494536236, 0.0589153394, -0.0312020704, 0.1066784188, 0.0017712936, 0.0298607573, 0.0530238524, 0.0601269528, 0.0984832719, -0.1051638350, 0.0054700673, 0.0708376095, -0.0365454182, -0.0266407430, -0.1056895182, -0.0744981244, 0.0508274063, -0.0986061469, -0.0816272348, 0.0418736264, 0.0624840185, -0.0062506273, -0.0861077532, -0.1011994481, -0.0485759005, -0.0719695985, 0.0587957576, 0.0825954601, -0.0241255611, -0.0903290436, -0.0489331111, -0.0090986639, 0.0391119644, -0.1159449443, -0.0145819411, -0.0639870912, 0.0159917250, 0.0501055792, 0.0216805413, 0.1034892872, 0.0370948240, -0.0417407230, 0.0343974158, -0.0193592012, 0.0911276713, 0.0488682017, -0.1045704335, -0.0777778178, -0.0834072679, 0.0582750663, -0.0809375420, 0.0350272134, 0.0822705850, 0.0226287618, 0.0934024975, -0.1158321276, -0.0438611582, 0.1170871779, 0.0352259502, 0.0115153119, 0.0275054201, 0.1081771925, 0.0367910787, 0.0528734699, 0.1157248840, 0.0809825584, 0.0010596812, -0.0368142352, -0.0766594708, 0.1071787849, 0.1173956916, -0.0900969207, 0.0865404084, 0.0115203634, 0.0758555606, -0.0433684587, 0.0970560983, 0.0442952439, -0.0443797633, 0.0506422743, -0.0369365439, 0.0423256382, -0.1001370326, -0.1119567230, 0.0304603651, -0.0535791516, -0.0856973007, -0.1014470980, 0.1089657322, 0.0791954175, 0.0404764041, 0.0807172284, 0.0751284733, 0.0867384151, -0.0883044153, 0.0668522939, -0.0695602819, 0.0842002705, 0.0410151705, -0.0278823003, 0.1135586724, 0.0991617218, 0.0480874404, -0.0602950007, -0.0043257251, 0.0081761554, -0.0311060846, 0.0542794093, 0.0053999946, -0.1127476543, -0.0815218091, 0.0353773311, -0.0595689230, -0.0482833162, 0.0766267404, -0.0364677832, 0.0874377713, -0.0208158791, 0.1004047766, 0.0125036165, -0.0879229084, -0.0180984437, -0.0943949521, -0.1012965515, -0.0266259313, -0.0397263542, 0.0915517733, 0.0231444016, -0.0497936383, -0.0563986637, -0.0719975233, 0.0215926692, -0.0386685506, -0.0668241680, -0.0341567919, 0.0911209807, -0.0241954103, -0.0370679870, 0.1119048074, 0.1093086079, -0.0541791245, 0.0566190109, -0.0597540587, 0.0529468879, 0.0651625618, 0.0892850682, -0.0067635328, -0.0679469854, 0.1131262109, -0.1041266844, 0.0324839279, -0.0072307959, -0.1099217907, -0.0124967620, 0.0748729780, -0.0129440576, -0.0085528046, -0.0296612382, 0.0578058586, -0.1170953512, -0.0436799526, -0.0455350652, -0.0470144749, -0.0117966235, 0.0618782267, -0.0759900957, -0.0926319212, 0.0702690557, 0.0459200814, 0.0992244706, 0.0202891007, -0.0344665423, -0.0581064820, 0.1145102307, 0.0581732765, -0.0455155373, -0.0901547819, 0.0767178312, -0.0375530422, 0.0950397924, 0.1146527752, -0.0155741870, -0.0172856599, 0.0856999680, -0.0456276163, 0.0451199785, 0.0651726052, -0.0630189776, -0.0026865527, -0.1094984710, 0.0420869663, -0.0218875036, -0.0765402466, 0.0337347016, 0.1064447537, 0.0352976248, 0.0641906932, -0.0769380033, -0.0747320950, 0.0691821352, 0.0210914686, -0.1041355878, -0.0479848087, -0.0933390558, -0.0839576721, 0.0352837667, -0.0925664753, -0.0021670759, 0.0414355770, 0.1030623689, -0.1051130071, 0.0629862472, -0.0995918512, -0.0327676013, -0.0377516374, 0.0585917011, -0.0482514277, 0.0417478904, 0.0471104011, 0.0700971708, -0.0832154453, 0.0661805496, -0.0121919885, -0.0992572606, 0.0491133854, -0.0260863453, -0.0381713882, -0.1013926417, -0.0945362002, -0.0440860242, -0.0792672038, -0.1080643237, -0.0281869099, -0.1092087775, -0.0051605478, 0.1052653268, -0.0557421595, -0.0199663639, 0.0345499590, -0.0400402918, 0.0362788513, 0.1005377695, -0.0282993615, 0.0165123716, 0.0501518026, 0.0085755959, 0.0183268562, -0.0121569782, -0.0336825848, 0.0055499226, -0.0648438260, 0.0331409946, 0.0207267180, 0.0835671350, -0.0086338371, 0.0287202969, -0.0544595420, 0.0590925291, -0.0912304521, -0.1053609997, 0.0937639251, 0.0240113065, -0.0703949630, -0.0030361488, -0.0375400260, 0.0717090741, -0.0369192362, -0.0323900804, 0.0180391893, -0.0916023850, -0.0951802880, 0.1013853624, 0.0353994444, -0.0798566490, -0.1101971194, -0.0161464289, 0.1112043783, -0.0697169304, -0.0877780020, 0.0644969866, 0.0373959169, 0.0669886246, -0.0631576180, -0.0741281882, -0.0903905481, 0.0173126385, 0.0127477869, -0.1122139320, -0.0306438506, 0.0364382789, -0.0450362936, -0.1051743701, 0.0353140607, 0.0282102004, 0.0093365684, -0.0501091480, 0.1042623445, 0.0485500768, 0.0256805494, 0.1041934714, 0.0974136814, -0.0984018743, 0.0471982285, -0.1053100228, -0.0184022412, 0.0690520182, -0.1042877957, -0.1106863618, -0.0802688450, 0.0396677181, 0.1135025546, -0.0888163075, -0.1068044975, 0.0287737921, -0.0509548932, -0.0496658459, -0.0979370549, -0.0083541498, -0.0957096517, -0.0087247342, -0.0414034054, 0.1109043434, 0.1118220761, -0.0882849768, 0.0132638142, -0.0110830218, -0.0393145233, 0.1109961197, -0.0638192371, 0.0142288581, -0.0670996904, -0.0853732228, -0.0548561215, -0.0506733283, 0.0985197201, -0.0183946267, -0.1006739587, -0.0746202618, -0.0870387778, 0.1132891253, -0.1172820330, -0.0070095807, 0.0087337568, -0.0029631481, 0.0416615680, -0.0618438683, 0.0297547504, -0.1067168042, 0.1099585667, 0.0015649125, -0.0243406445, 0.0913608596, 0.0812339708, 0.0759695247, 0.0333446786, 0.1092728451, 0.0456288829, -0.1051833332, -0.0871157944, -0.1140798032, 0.0343273953, 0.0374392942, 0.0492327735, 0.1132131442, -0.1146913841, -0.0561029054, -0.0565311462, -0.1039573699, 0.0496538505, 0.1088414565, -0.0593352616, 0.0750479475, 0.1072951928, -0.0984477326, -0.0680968910, 0.0489344820, -0.0834752619, 0.0983284339, -0.0137245059, 0.0385637805, 0.0143151805, -0.1049248055, 0.0308519378, -0.0583886690, 0.0170863643, -0.0658318549, -0.0521453470, 0.0356129035, -0.0976487696, 0.0840484276, 0.0887977555, 0.0111814514, -0.0356335863, 0.0799451545, 0.0754050687, 0.0952093676, 0.0991710499, -0.1093085557, 0.1130169705, 0.0064459145, -0.1156126261, 0.1175348833, 0.0892340168, 0.0116290227, -0.1109935269, -0.0620128214, -0.0931673199, -0.0209436715, 0.0948613510, -0.0353209674, 0.0089427158, 0.0063235462, -0.0859363824, 0.1110877916, 0.1006466523, 0.0915040448, 0.0481623784, -0.0771683529, -0.0359443203, 0.0140804127, 0.0690992847, 0.0346392617, 0.0385996327, 0.0470606312, 0.0325637236, 0.0455517545, 0.0360542461, 0.0987792388, 0.0432847068, -0.1136206016, 0.0529736951, -0.0090316236, 0.0216352716, 0.1027639583, 0.0345858410, 0.1018876508, -0.0216609761, 0.0460008755, -0.0029900372, 0.0500562415, 0.0124071911, 0.0987928882, 0.0117805824, 0.0602583364, -0.1079639867, -0.1063843817, -0.0472007617, 0.0511531755, -0.0638228878, 0.0379423425, 0.0671404973, 0.0007222593, -0.1066087112, -0.0660563111, 0.0528012291, -0.0805752203, -0.0180565789, 0.0488029048, -0.0863332450, 0.0937720463, 0.0928276256, -0.0561599173, -0.0877108499, -0.0422027633, -0.0811382979, -0.0286515132, -0.0097355545, -0.0507684350, 0.1064134017, 0.0307207778, -0.0062939823, 0.0312925801, 0.0541461632, 0.1009891853, -0.0839696676, 0.0267952308, -0.0237855464, 0.0383505151, 0.0821616575, -0.0414737388, -0.0584474243, 0.0859327391, 0.0229817703, 0.0541962460, 0.0755394623, 0.1044076607, 0.0212061927, -0.0957682878, 0.0925308838, 0.0773485079, 0.0558945909, -0.0280434191, 0.0502887145, -0.0665454865, -0.1154727861, 0.0685224310, -0.0921922401, 0.0124201998, 0.0917893425, 0.0653729066, -0.1079288945, 0.0101784989, -0.0973849297, 0.0595408008, -0.0400196165, -0.0822066963, 0.0772389546, -0.0615097024, -0.0576434880, -0.1134180129, 0.0165735111, -0.0289229378, -0.0849170536, -0.0370206684, -0.1144921705, 0.0896992907, 0.0047284290, 0.0994955525, -0.0050003007, -0.0679586455, 0.0194514170, -0.0594952516, 0.0695612952, 0.0705970451, 0.0447192714, -0.0053723752, -0.0906578973, 0.0839802697, -0.0765806586, -0.0257693678, 0.0467027053, -0.0510848463, 0.0228142813, -0.0725172460, 0.0792532489, 0.1136922762, -0.1053673178, 0.1099099591, 0.0238009468, -0.0619007386, 0.0940612331, 0.1042547747, 0.0405876711, 0.0932049975, -0.1037633196, -0.0163834095, -0.0691155493, 0.0767795071, 0.0959423557, 0.0774281994, -0.0445012525, 0.0698768571, 0.0735897198, 0.0590747669, 0.0161679462, 0.1010984257, -0.0973326713, 0.0232874528, 0.0626073107, -0.1160367057, 0.1028305218, -0.1035146266, -0.0583453998, -0.0890401900, -0.0331155658, -0.0209205151, 0.0794297233, -0.0643117875, -0.0180282593, -0.0646272749, 0.0947457179, 0.0737767890, -0.0323269963, 0.0979531184, 0.0507158116, 0.0163964108, 0.0895534530, 0.1151038632, 0.1106575653, 0.0822912231, -0.0919217691, 0.0999360159, -0.0129950270, 0.0736835673, 0.1111246869, -0.0056019872, 0.0511791781, 0.0088286474, 0.1108497307, 0.0165457502, 0.0164147094, -0.0252413824, 0.0047214553, 0.1085841581, -0.0695019811, -0.0216442645, 0.0555921718, 0.0030009151, 0.0111209527, -0.0168063641, 0.0669040754, 0.0129349753, 0.0862745121, 0.0376905277, -0.0488444045, 0.0362498537, -0.0417612046, 0.0583470538, -0.0788956136, 0.0245396867, -0.0528107062, 0.0676035509, 0.1144426242, -0.0909697562, -0.0809539855, 0.0511603132, -0.0000414997, -0.0607889891, 0.0652348623, 0.0228405073, 0.1172792539, 0.0915329829, 0.0332935080, 0.0858776644, -0.0327117145, 0.1034294590, 0.0375456437, -0.0522570908, -0.0271344483, 0.0828829035, -0.0775097683, -0.0865239650, -0.0545448214, -0.0814020857, 0.0809724703, -0.0723885000, 0.0409996137, -0.0147526041, -0.0748116374, 0.0619181618, -0.0252814218, -0.0165520236, -0.0178918689, 0.1057871804, 0.0251107290, 0.0903277174, -0.0313032493, -0.0661499575, 0.0408928469, -0.1016803980, 0.0670817718, 0.0593480393, 0.0217085704, 0.0292682573, 0.0837083831, 0.0974871740, -0.0777176097, 0.1000170782, 0.1084832922, 0.0423961952, 0.0603777841, -0.0225855410, 0.1095501408, -0.0197941810, -0.0860684738, -0.0282832012, -0.0931380987, -0.0271516144, -0.0155300722, 0.0093968138, -0.0507920980, 0.0821571276, 0.0777367130, -0.0827634856, 0.0465167686, -0.0435486510, -0.0668163598, -0.0662767291, 0.0571013317, -0.0041556507, -0.0535102040, -0.0616935454, 0.0283455029, 0.1068582758, 0.0692630634, 0.1060352400, -0.1033640802, -0.0615875870, 0.0974874571, 0.1132221743, -0.0641561002, -0.0770335644, 0.0080344006, 0.0208526328, 0.1044728830, 0.1094104871, -0.1012930945, -0.1005051434, -0.0815363377, -0.0137653872, -0.0381308720, -0.0389316082, -0.0614267290, 0.0083987638, 0.0004707277, 0.0397886261, 0.0197538957, 0.0221913531, 0.0212620124, -0.0603245869, 0.1003458872, -0.0075855032, -0.0493603125, -0.0927743167, -0.0084283277, 0.0570591614, 0.0665269420, 0.0080002323, 0.0393360481, -0.0496970639, 0.0541585907, -0.0000382662, 0.0660472587, -0.1148842424, 0.0200402066, 0.0728739277, 0.1012741253, 0.0674134120, 0.1124206260, 0.0963331386, -0.0289290324, -0.0987923294, -0.0679331869, -0.0686831176, 0.0577202812, -0.0441099629, -0.0380647853, -0.1150331348, 0.0772785470, -0.0600997768, -0.0356865823, 0.0187646970, 0.0218701735, -0.0059779957, -0.0737164170, 0.0886318162, -0.0494296253, -0.0651007295, -0.0239350274, -0.0238343254, 0.0496571884, 0.0259219930, -0.0741977841, 0.0435628369, -0.0709408745, -0.0697437376, -0.0097924024, -0.0716677383, 0.1097145155, 0.0310484096, -0.0569249950, -0.0759354681, 0.0011554137, -0.0606491454, -0.0927715898, 0.0458609089, -0.0497935787, 0.0440304503, 0.0852816179, 0.0594339147, 0.0903574750, -0.0162655339, -0.1001795456, -0.0039839447, 0.0949248150, -0.0064609721, 0.0891674235, -0.0930258781, -0.0936783403, -0.0793940127, -0.0415296480, 0.1129464731, -0.0858018547, 0.0763180479, -0.0834364295, 0.1131214425, 0.0346681699, -0.0200969949, 0.0494621024, -0.0961480066, -0.0858288854, 0.0830277428, 0.1115408465, -0.0412251800, 0.0271693990, -0.0062609389, 0.0562359169, 0.0475201234, -0.0522620901, -0.1042094305, 0.0216755643, -0.0211644620, -0.0529380441, 0.0541790202, -0.0171531513, -0.0475489497, -0.0643504858, 0.0704561844, -0.0655550957, -0.0720096901, -0.0967667997, 0.0733697936, 0.0619990751, -0.0530994907, -0.0013878644, 0.0325518623, -0.0370401964, -0.0943376273, -0.1118977219, -0.0197855607, 0.0005799159, 0.0235699192, 0.1133800521, -0.0401351228, 0.0137066320, 0.0003118291, 0.0985719487, -0.0813677460, -0.0691166967, 0.0873243883, -0.0644401163, -0.0784918517, -0.0282486975, -0.0170766637, 0.0523154810, 0.0296380296, -0.0624190345, -0.0418594331, 0.0364774242, -0.0333196968, -0.0754513144, -0.0913149118, -0.0658469200, -0.0623866916, -0.0634614974, 0.0685198233, 0.1130547598, -0.0244936720, -0.0267913193, 0.0227873102, -0.0775517747, 0.0484531447, 0.0721092895, 0.0570573881, -0.0357609242, -0.0340480208, -0.0842027217, 0.0717915371, 0.1108347997, -0.0844465792, 0.0255012289, -0.0279806480, -0.1178026870, -0.0341764018, -0.0819197893, 0.0631811544, 0.0571255609, 0.0198291019, 0.0436943397, -0.0674355179, -0.0100454241, 0.0493937209, 0.1084226295, 0.0866482183, -0.0795390010, -0.0070486665, 0.0336942151, 0.1131815687, 0.0423520729, 0.0873433873, 0.0026716292, 0.1053819582, 0.1174714193, -0.0818125457, -0.0116600692, -0.0074705034, 0.0438498035, 0.0736813173, 0.0933645442, -0.0441286191, 0.0208848640, 0.0156200454, -0.0061248913, -0.0897314548, -0.0771756023, -0.0585799329, -0.0155025125, -0.0392579064, -0.0370017886, -0.0716898218, 0.0643771812, -0.0025980696, -0.1161505058, 0.0891566500, 0.0233608112, -0.0431406423, 0.1117475703, 0.0396028683, 0.0349592939, 0.0911957845, -0.0583861433, 0.1061740890, -0.0633113980, 0.0678441152, -0.1144435555, -0.0383705199, -0.0082257167, 0.0025713220, -0.0136753321, -0.0092891678, -0.1084695756, -0.0279130116, -0.0740445405, 0.0813847557, -0.1008760929, -0.1074587256, -0.1071203724, 0.0539230779, 0.0512339547, 0.0485829785, -0.0005619302, -0.0175705403, 0.0454849377, -0.0008609220, 0.0462803915, 0.0917931125, 0.0714005306, -0.1173901856, 0.0959922895, -0.1162467375, -0.0640885532, 0.1053337678, -0.0918656588, 0.0424042866, 0.0215102658, -0.0736759454, -0.0892727822, -0.0540850535, -0.1128579676, -0.0916172192, -0.0610925592, 0.1155097261, 0.0172495320, -0.0466155633, -0.1067304909, -0.0677013546, -0.0138742626, -0.0638327003, 0.0926865116, 0.0793908611, 0.1088811234, -0.1004510298, 0.0554624721, 0.1149524376, 0.0102538839, 0.0637194887, -0.0454561934, 0.0348878428, 0.0946434513, -0.0142747164, -0.1059549898, -0.0123802423, 0.1048193201, 0.0715738907, -0.0967279747, -0.0563700348, -0.0706769824, 0.0653828904, -0.0288002044, 0.0598480478, 0.0130679682, -0.0543548837, -0.0017943308, 0.0210709199, 0.1174537465, 0.0799197033, 0.0496311411, -0.1102559865, -0.0520333722, -0.0941893309, 0.0207329914, 0.0545721874, 0.1018524095, -0.1074608341, 0.0913285092, -0.0275597647, 0.0125674382, -0.0997252017, -0.0429541022, 0.0473173931, 0.0046326667, -0.0996375084, 0.0461583510, 0.0935383067, -0.0646734089, -0.1044096053, 0.0189792290, 0.0402038172, -0.1042781621, -0.0719661117, -0.0341607481, 0.1051263288, 0.0150343999, 0.0272689536, -0.0767769739, 0.0645208433, -0.0382686332, -0.0571840592, 0.0481221452, -0.0144115239, -0.0485537574, -0.0498625338, 0.0638989732, 0.0373849645, -0.0220982656, -0.0608728901, -0.0336512253, 0.1039208397, -0.0555285588, 0.1010473743, -0.0925486386, -0.0049606860, -0.0725658014, 0.0983547792, 0.0723293647, -0.0414474905, -0.0489329100, 0.0573474243, -0.0473769605, -0.0128243864, 0.0783537403, 0.0270997211, 0.0225838199, -0.1048194394, 0.0794807449, -0.0134854987, -0.0009802207, 0.0668583885, -0.0878435820, -0.0229971185, -0.0440331995, 0.0590518937, -0.0029671937, 0.0817235336, -0.0479005426, -0.0739826709, -0.1017120630, -0.1132236570, -0.0792644545, 0.0600776896, -0.0381432325, -0.0099175200, 0.0221001431, -0.0829066485, -0.0968194604, -0.1042105556, 0.0224544033, 0.1104158089, 0.0201184675, 0.1105175838, 0.0111886188, -0.0505127162, -0.0006286353, 0.0314638242, -0.0102547184, 0.0550086275, -0.0613847785, 0.0757958218, 0.0184104964, -0.0244445801, -0.1084312275, -0.0741479099, 0.0691125467, -0.0925499797, -0.1036448330, 0.0145540908, -0.0726800486, 0.1116536930, 0.1068183556, -0.1166667491, 0.0714520290, 0.0572729334, -0.0588424802, 0.0488878712, -0.0801834539, -0.1074445099, -0.0872160494, -0.0866746604, 0.0608273670, 0.1080124602, -0.0596080348, -0.0679871365, -0.0746294260, -0.0738043636, 0.1020392850, -0.0422351882, -0.0522891209, -0.0932339430, -0.0474597365, 0.0664837882, 0.0668467060, 0.0568813607, -0.0208719075, 0.0470921919, 0.0618671551, 0.1166977957, -0.0937553272, -0.0759869739, 0.0592335984, -0.0279919952, 0.0533454940, 0.1025033817, 0.0631176904, -0.0289539844, -0.0869298726, 0.0491304174, 0.0084497705, -0.0459789261, -0.0474285781, -0.0189230070, -0.0785317123, 0.0577378348, -0.0774680153, 0.0396785364, 0.0998492017, 0.0064897686, -0.0439410955, 0.1048118547, -0.0079898611, 0.0446204767, -0.0346707255, -0.0424264520, -0.0756940246, -0.0698213726, 0.0612893030, -0.0543648005, 0.1037005559, 0.0035295710, -0.0035916120, -0.0269220024, 0.0643085018, -0.0954218432, -0.0962807089, -0.0729938447, -0.0173707679, 0.0028500259, 0.0839286223, -0.0775286257, 0.0716728494, -0.0486272350, 0.0698301867, -0.0295174867, 0.1010457501, -0.0978056639, 0.0705877170, 0.0215908214, -0.0061612800, 0.0867257342, 0.0599251762, -0.0344439819, -0.0470785350, -0.0959707648, -0.0635521933, 0.0980028287, -0.0570579246, 0.0559929386, 0.1071422622, 0.0347916111, 0.0139393434, 0.0058821291, -0.0111980811, 0.0443301722, -0.0670327917, -0.0625551641, -0.0669965446, -0.0846322775, -0.0854139924, -0.0606143624, -0.0894859359, 0.0151500180, -0.0041035265, 0.0618006214, 0.0744966641, 0.0553521588, 0.0036372766, 0.1102377549, -0.1128568426, 0.0874145553, 0.0489638820, 0.0651570037, 0.0962071195, -0.0820454210, 0.1090891138, 0.0576697364, 0.0486097559, -0.0818075687, -0.0627804250, 0.0281740203, 0.0073010102, 0.0191493705, -0.0687487572, 0.0182647035, -0.0207046643, -0.0880844444, 0.0807737336, 0.0158221200, -0.0420207754, 0.0363568887, -0.0193509385, -0.0280321240, 0.0862824097, -0.0612469874, -0.0204822719, -0.0735556632, -0.0045157820, -0.0879832879, -0.1119677126, 0.0217744038, 0.1107592210, -0.0881878138, -0.1030155271, 0.0300813839, -0.0487755090, 0.1146121398, 0.0315701887, -0.0180538818, -0.0798462182, 0.0799486116, -0.0578197166, -0.0502130538, -0.0154976472, -0.0685723871, 0.0248184279, 0.0905346051, 0.0358630940, 0.0424528942, 0.0218941942, -0.0979729891, 0.0572226122, -0.0458620116, 0.1032650396, 0.1003248170, -0.0610262491, 0.0469458923, 0.0014243945, -0.0698948205, -0.0142282993, 0.0847340152, -0.0207837075, 0.0387577042, -0.0538643748, 0.0363428369, 0.0498693064, 0.0985122249, 0.0276977345, -0.1170890033, -0.0115325600, -0.0006698221, -0.0961555615, -0.0721490234, 0.0416031256, 0.0833580866, -0.0609664284, 0.0649012551, 0.0054357648, -0.0860299245, -0.0391417220, 0.0341018811, 0.0065511912, -0.0491884649, -0.0787776038, -0.0053284317, -0.0958816111, -0.0026521906, 0.0668257400, 0.0712583736, -0.1134701073, 0.0743332133, -0.0866223946, -0.0388034210, 0.0211822167, 0.0754203871, 0.0015048981, -0.0398617312, 0.0533621237, -0.0492182225, -0.0505881906, -0.0309348032, 0.0704110339, 0.0463787243, 0.0825516507, 0.0688663796, 0.0351414308, -0.0453189611, 0.0564607903, -0.0793372542, -0.0658752769, 0.0605010763, -0.0635794252, -0.0725056455, 0.0567800030, 0.0326800272, 0.0271456912, -0.1028675884, 0.0877028778, -0.0617524385, -0.0069546551, 0.0857669488, 0.0254497603, -0.0769916996, 0.0030826479, -0.1143043637, -0.0313486829, 0.0114001855, -0.1167537421, -0.0380753502, 0.0116107240, -0.0865965486, 0.0975906327, -0.1151046157, 0.0381615236, -0.1061449870, 0.0759966448, 0.0194157287, -0.0542442277, -0.0854579359, 0.0321944281, -0.0540079549, -0.0851988941, 0.0767105594, -0.0530863181, 0.0170329735, -0.0635630935, 0.0058303401, 0.0398735628, -0.0280411690, 0.0784931704, 0.0428379402, -0.1107663289, 0.0199074224, 0.1030720845, 0.0382899567, 0.0184047446, -0.0948861241, 0.0133741722, 0.1135341451, -0.1129438579, -0.1130645424, -0.0273357183, 0.0962849185, 0.0200806931, 0.0199790671, -0.0874190554, -0.0460489988, -0.0021961033, -0.0068670139, 0.0033417419, 0.0524025783, -0.0003905296, -0.1032155231, 0.0354795530, -0.0852270275, -0.1132395938, 0.0474144742, 0.0237833783, -0.0219379142, -0.0773950741, 0.1081374958, 0.0044796765, 0.0561715439, -0.0082064942, 0.0007431582, 0.0453481302, 0.0210519508, -0.1040059775, 0.0263298377, 0.0600272343, 0.0143421516, -0.0180776790, 0.0691349581, -0.0918056443, -0.0341654420, -0.0876354128, 0.1121649519, 0.1009805575, -0.0244067311, -0.1065299809, -0.0159363449, -0.0908164829, -0.0196290836, -0.0344497636, 0.0545689240, -0.0792256743, 0.0180705413, 0.0454162583, 0.0139608309, -0.0102423280, -0.0552065521, -0.0016023368, -0.1005224288, -0.0798092186, -0.0707286224, -0.0632727295, 0.0590269193, 0.0241165385, -0.0242373049, -0.0922241583, 0.0992116854, -0.0395278186, 0.0667647347, -0.0212451890, -0.0158753097, 0.1044225022, 0.0807469860, -0.0370663851, -0.1032183096, 0.0681618527, 0.0759704188, -0.0418295935, 0.1091852561, -0.0973727331, 0.0664004460, -0.0049116835, 0.0952587351, -0.1150851995, -0.0138665065, -0.0030109733, 0.0010414794, 0.0225887224, -0.0280637071, -0.1128595695, 0.1017055139, -0.0985332355, 0.0200209543, -0.1116109788, 0.0959033594, -0.0247350335, 0.1106635258, 0.1140801087, 0.0418388173, -0.0878956765, -0.0836957172, -0.0795943514, 0.0891960487, -0.0828076825, 0.0581175759, 0.0927208439, -0.0902474150, -0.0392007306, 0.0963577852, 0.0699528381, -0.0666140467, 0.0204847232, 0.0271058753, -0.1055576503, 0.0056569204, 0.0743224546, 0.0294357762, 0.0187281147, -0.1063641757, -0.0190981701, -0.0025151297, 0.1037513837, -0.0175104141, -0.0790270269, 0.0364214256, -0.0510461852, -0.1045251414, -0.0631806254, 0.0599825308, -0.0568960533, -0.1117130294, 0.0589329824, -0.0243366882, 0.0111624822, 0.0068090186, 0.0299116150, -0.0009910390, 0.0209782496, -0.0143319219, 0.0166582838, -0.0765152723, -0.0307798684, 0.1104361489, 0.0630924329, 0.0769515410, 0.0859081820, 0.0451144353, 0.0986841246, 0.0214634016, -0.0587953031, -0.0050709993, -0.0261679664, -0.1055881083, -0.0934346765, 0.1073128954, 0.0385492519, 0.0609869733, -0.0061273053, -0.0143630281, -0.0469998866, 0.1097002402, 0.0308021531, 0.0822079554, -0.0606696866, -0.0939050913, 0.0699393228, -0.1116287410, 0.1026815549, -0.0751387551, -0.0555497445, -0.0308320224, -0.0381627083, 0.0906413570, -0.1034416556, 0.0864374265, 0.0639506802, 0.0829835460, 0.0583891794, -0.0379433185, 0.0972661600, -0.0171312317, 0.0663272217, 0.0780034736, -0.0287982076, 0.0684670284, -0.0956005454, 0.0658074990, 0.0100080445, -0.0226362571, 0.0695990846, 0.0875141099, 0.0726489499, 0.0940398797, 0.0325114056, 0.0366080180, 0.1001565382, -0.0121703222, 0.0387696251, -0.0310618654, -0.0410847217, 0.0855261609, 0.0049794838, -0.1089643836, 0.1095482036, 0.0982890651, -0.0401104540, 0.0204810128, 0.0187571123, 0.0778910592, -0.0849608779, 0.0788589790, -0.0176483765, -0.0150963515, 0.0954690799, 0.0937920287, 0.0254793987, 0.0980612114, 0.0714398399, -0.1081542969, 0.0663810894, -0.0179577321, 0.0034928769, -0.0797413886, 0.0642063096, 0.0633865520, 0.0687344000, -0.0511725396, 0.0310440734, 0.0806396529, -0.0173671991, -0.0994209051, -0.0749550238, 0.0766968951, -0.1088294312, -0.0414952338, -0.0732593983, 0.0704055205, 0.1143512800, -0.0585128367, -0.0716852695, -0.0614997558, 0.0838033929, -0.0661643147, 0.0356851146, -0.1057654917, 0.1037432030, -0.1169058308, 0.0058632195, -0.0833708197, 0.1007035151, 0.0657405481, -0.0135019645, -0.1059651300, 0.0111188665, -0.0725373924, -0.1102284491, -0.0718986467, -0.0132173076, -0.0787582994, -0.0098218769, 0.0698654875, -0.0255809426, -0.0329103693, 0.0121586397, 0.0145835057, 0.0677961782, 0.0789216533, 0.0174411312, -0.0657127202, -0.0979228094, 0.1078059301, 0.0296297148, 0.0225281343, -0.0369259492, -0.0875544325, -0.1067615077, -0.0295902342, -0.0523803309, 0.1002901420, -0.0274703056, -0.0360148475, -0.0845241845, 0.1084424928, -0.0185822621, -0.1067947745, 0.0587145463, -0.0899704024, 0.0460600480, -0.0201990455, -0.0473697707, -0.0890841931, -0.0251239911, -0.0392964035, 0.0809792057, -0.0330275074, 0.0834993944, 0.0653540865, 0.0800840482, 0.0773616955, -0.0952629745, 0.0583152547, 0.0996457115, -0.0198459923, 0.1104069576, -0.0018674731, -0.0896644965, 0.1038146541, -0.0020219237, 0.0877079889, -0.0887758136, 0.0260098055, 0.0557780042, 0.0415337756, -0.0645319968, 0.0983250365, 0.0730100647, 0.1159221306, 0.0832198486, 0.0120956376, -0.0096237287, 0.0199326798, -0.0621436164, -0.0518082529, 0.0669476911, -0.0999987945, -0.0680166110, 0.0179198012, 0.0846613273, -0.0255781636, 0.1158093736, -0.1125588641, 0.1087366566, 0.0386523977, -0.0062037036, 0.1035990641, -0.0220107958, 0.0970717445, -0.0225374624, 0.0536077544, 0.0506195500, -0.0255358517, -0.0584079735, 0.1051296368, -0.0728845149, 0.0018811002, 0.0897716954, 0.0913963094, 0.0270870700, -0.1028464884, -0.0250317156, -0.0739181787, -0.0587267429, 0.0282499716, -0.0459686443, 0.1146480218, -0.0372765586, 0.0641426668, 0.0188111439, 0.1081073955, 0.0997235253, -0.0103670284, -0.0468467027, 0.0855509415, -0.1073485613, -0.0379320532, 0.0879771337, 0.0161522403, -0.0170789436, 0.0909475014, 0.0211174861, 0.0477956459, 0.0622596070, -0.0684128255, 0.0706590787, 0.0173801258, -0.1091496646, -0.1016455591, 0.0388992354, -0.1047499776, -0.0351319239, 0.0017981231, 0.0897298828, -0.1177569479, 0.0739761516, 0.0685627833, -0.0761243179, -0.0333074182, 0.1102749780, -0.0642234832, 0.1051558182, 0.1141419485, 0.0037093163, -0.0221782327, 0.0999314114, -0.0855957866, 0.0897502229, 0.0580296889, -0.0639293194, 0.0187477097, -0.1098529771, -0.0506629571, 0.0736033693, -0.0270187706, 0.0882774666, 0.0531537160, 0.0647342429, -0.0681725293, 0.0895738825, 0.0248935893, 0.0975371674, -0.0337924436, 0.0932416692, 0.0315132514, 0.0436506197, 0.1147481129, 0.0080221817, 0.0368188694, -0.0705273002, 0.1174912527, 0.0659515336, -0.0876298472, -0.0064409077, -0.0905804336, -0.0517919883, 0.0599648282, 0.0600355789, 0.0632937178, -0.0732790679, -0.0686327666, 0.0089959875, 0.0157761052, 0.0358256921, 0.0891098753, 0.0967492983, -0.0213857591, 0.0587337986, 0.0418362841, -0.0489853173, -0.0926022753, -0.1044023484, -0.0029712692, -0.0177659392, -0.0036791638, 0.0799479112, 0.0582231805, 0.1097557321, 0.0448333696, 0.1053708568, 0.1009288058, -0.0648717880, 0.0353904590, 0.1130638048, 0.0152494088, -0.0603198111, 0.0934499875, 0.0773844793, -0.0268626288, -0.0163412318, 0.0294267610, 0.0016420111, -0.0471258536, -0.0323608592, 0.1064217761, -0.0609466769, 0.0325592235, -0.0167220160, 0.0264274552, -0.0358093381, -0.0584546439, 0.0767894760, 0.0573326126, 0.0854539499, 0.0012796372, -0.0838397741, 0.0753113851, 0.0609959289, -0.1177430674, 0.0133044347, 0.1047054455, -0.0940881744, -0.0143513680, 0.0790700391, -0.0868850276, 0.0575558171, -0.0755022615, -0.0767217353, -0.0839784145, -0.0874169767, -0.0029982179, -0.0647465214, 0.1026532874, 0.0160796717, -0.0370839462, -0.1067402363, -0.0042122677, -0.0313669220, 0.0334706381, 0.0857852176, -0.0716608241, -0.0376246348, -0.0407250673, -0.0017925650, -0.1092930436, -0.0817145929, 0.0619789138, -0.0249148309, 0.0760614350, -0.1113023236, -0.0639141202, -0.0462223664, -0.0929518938, 0.0520726815, -0.0482802242, -0.0371609852, 0.0018145069, 0.1082345918, 0.0676619038, -0.0889232755, -0.1001517028, -0.0426981598, -0.1169670895, 0.0893497989, 0.0551424399, 0.0786931440, 0.0455733314, -0.0360874534, 0.0819566026, 0.0409844443, -0.0421469361, 0.0887810960, -0.0734561682, 0.0647574738, 0.0163562074, -0.0699085295, 0.0734419748, -0.0493172929, -0.0258340240, -0.0643453673, 0.1135499105, 0.0324869081, -0.0140077844, -0.0137995556, -0.0997946039, -0.0971547514, 0.0186874643, 0.0740789548, 0.0856546536, 0.0705066547, -0.0424558967, -0.0757718012, -0.0894622803, 0.1051304862, -0.0887469053, 0.0082343444, 0.0174931958, -0.0729548782, -0.0087817162, -0.1149458662, 0.0214357153, -0.0206960663, 0.0825205818, 0.0677640066, 0.0500885174, -0.0392133743, 0.1129626855, 0.1103539988, 0.0228688791, 0.0684797838, -0.0062945187, 0.0764013305, -0.0822664052, 0.0553306714, -0.0683849454, 0.0402370319, 0.0650188550, -0.1014177054, 0.0779963061, 0.0779086724, -0.0464685559, 0.1175948754, -0.0263669863, -0.0932279006, 0.0523419455, 0.0719095543, -0.0370494947, 0.1057193354, -0.0848225579, 0.1104498282, -0.0348809287, -0.0130764842, 0.0968846753, 0.0098112300, -0.1105434820, -0.0215667933, 0.1040124372, -0.0320131704, 0.0313288793, 0.0369377509, 0.1089399979, -0.0691681504, 0.1105089858, 0.0827253833, 0.0938146934, 0.0815041587, -0.0459011495, 0.0238737240, -0.0153714046, 0.0185139254, -0.0456950217, 0.0205135718, -0.0834210068, 0.1019413099, 0.0151414499, 0.0039871782, -0.0332436636, -0.0578372478, -0.0526036248, 0.1019104645, 0.0714009479, 0.0647960827, 0.0436251387, -0.0636883229, 0.0223166123, 0.0181138441, 0.0283072218, -0.1103739440, -0.0123372823, -0.0651607662, -0.0926377326, -0.0202406049, -0.0692420155, 0.0141659155, -0.0432410389, -0.0364469364, -0.0988984555, -0.0672352389, 0.0265112743, 0.0476084873, -0.0601442829, 0.0236187801, -0.1148345396, -0.1135961786, 0.0913747326, 0.0632792488, 0.0289837644, -0.1147223189, -0.1090483963, 0.0720575675, 0.0159884915, 0.1126441136, 0.0417911038, -0.1062662527, 0.0115083978, -0.0424996987, -0.0585008673, 0.0634436831, -0.1171171591, 0.0426130518, -0.0092685670, -0.0858049393, -0.0269272029, -0.1172530651, 0.0495809093, -0.1099399179, -0.1164127737, -0.0929598510, -0.0102575868, -0.1115055010, -0.1126964018, 0.0125813708, -0.0064214915, 0.0671134964, -0.0616830364, -0.0261629075, 0.0588135943, -0.0756594986, 0.0001278147, 0.0850400403, 0.0622196719, 0.1036460921, 0.0942768231, 0.0368138924, -0.1057400629, 0.1018981561, -0.1115654632, 0.0812220052, -0.0605107918, 0.0270165578, 0.0201786682, 0.0744631067, 0.0757656768, -0.0526295826, -0.0218088552, 0.0448867008, -0.0555347092, -0.0925529897, -0.0941732004, 0.1015190259, 0.0942467526, -0.0578279756, 0.0513820127, 0.0952109173, 0.0444778726, -0.0456444472, 0.1121600643, 0.0688785985, -0.0641125739, -0.0639213175, -0.1047342420, 0.0571885481, -0.0845608264, 0.0277205482, 0.0844417736, 0.1102504209, 0.0169139579, -0.1176411286, 0.0529235676, 0.0801640674, 0.1002499536, 0.0148900077, 0.0545139089, -0.0750440061, 0.0551034883, -0.0868007317, -0.1033731252, -0.0092936084, 0.0638333187, 0.0171430930, -0.0892171785, -0.0148519054, -0.0203015730, -0.0600816235, -0.0255354568, -0.0235958546, -0.0935222805, -0.0389230102, -0.0257203132, 0.0683220997, 0.0468641445, -0.0338342264, -0.0319913700, 0.0013210773, 0.0062459633, -0.0034027994, 0.0678306893, 0.0930176750, 0.0886460915, -0.0929957032, 0.0210254118, -0.0222020075, -0.0807568133, -0.0567006618, -0.1131555215, -0.1130727753, -0.0086827576, 0.0790259913, -0.0304864198, 0.1050349548, 0.0185772702, -0.1073184386, -0.0372371376, 0.0251404867, -0.0889987499, 0.0141467825, -0.0253416076, -0.0163290650, 0.1117967144, 0.0386232808, -0.0944369584, -0.0904419944, -0.0834533125, 0.1084828451, -0.0537718758, -0.0879898369, 0.0970264003, 0.0274746343, -0.0916371122, -0.1091550589, 0.1163793579, -0.0882629454, -0.1016964167, 0.0953009948, 0.0710236207, 0.0007359087, 0.1168330833, -0.0077309087, 0.0039573908, 0.0260588303, 0.0090384707, 0.0389782265, -0.0292524695, -0.1036416590, -0.0486459211, -0.1083569080, -0.0865705311, -0.0668609440, 0.0527581051, 0.0631982461, -0.0511067361, 0.0159781501, 0.0980676487, -0.0025666282, -0.0935797170, 0.0770426765, -0.0673585609, 0.0141933784, -0.0950478911, 0.0021224320, 0.0789250359, -0.0984056443, -0.0368592143, -0.0638167113, -0.0286558419, -0.0831514895, -0.0142844096, 0.0097268149, 0.0075433329, -0.0235767514, 0.0424203500, -0.0381819233, -0.0100374147, -0.0102763847, 0.0460191891, 0.0031057447, 0.1048970148, 0.0622216687, 0.0966140106, 0.0795926079, -0.0407108516, -0.0728488341, -0.0245162621, 0.0951194838, -0.0128655806, 0.0236396268, -0.0627201349, -0.0886743814, 0.0962116197, 0.1123783663, -0.0155896395, -0.0325301737, -0.0618742146, -0.0232631788, -0.0626672804, 0.0209173188, -0.0069214702, -0.0702821165, -0.0373707935, 0.0867044106, -0.0515703782, 0.0655733868, -0.1155660972, -0.0718853548, -0.0770265460, -0.0372819230, -0.1103487089, 0.0089070573, 0.0597984865, 0.0643860027, -0.0606428236, -0.0804578811, 0.0813645199, -0.0762586817, -0.0880848318, 0.0154393688, -0.0316518620, -0.0557628646, 0.0061432719, 0.0774822012, 0.0683097914, -0.0512525067, 0.0988255963, -0.0704197735, 0.0840773955, -0.0769954622, -0.0406570137, -0.0417923629, -0.0862118006, -0.1016042531, -0.0207170844, 0.0190843716, 0.1095477864, -0.0081916302, -0.0057303980, 0.0634680912, -0.0939750224, 0.0191635862, -0.0429499969, 0.0515084490, -0.0962750316, 0.0827071145, -0.0915307850, 0.0680394545, -0.0047015101, -0.0210005417, -0.1069116592, 0.0992710367, 0.0694579259, 0.0953801945, 0.0731914267, 0.0233351961, 0.0930948630, -0.0920252278, 0.1023120955, 0.1016336158, 0.1158290431, -0.0814179927, -0.0349355489, 0.0727059022, 0.0976602063, -0.1095014215, 0.0048208982, 0.0891699418, -0.0757529438, -0.1062617898, -0.0265184045, -0.0512289032, 0.0956587568, -0.1102355570, -0.0633543879, 0.0918449238, 0.0814793780, 0.0177474245, 0.0714715794, 0.0597614273, 0.1102809981, 0.0449797139, -0.0031292066, -0.0463150889, -0.0839853212, -0.0187768117, -0.0553976223, 0.0093025342, 0.0766614154, 0.1059277281, -0.0759552568, 0.0974176303, 0.0868626609, 0.0126776323, -0.1015940756, -0.0851944834, -0.0523947999, -0.0573679022, 0.0615034029, -0.0216997266, -0.1166252196, 0.0763391778, 0.0802558288, 0.1120685264, 0.0260859802, 0.0388653204, -0.0631539077, 0.0844019577, 0.0239244029, -0.0587637760, 0.0179673657, -0.0132690370, 0.0001695976, -0.0472172275, 0.1025320366, -0.0586604886, -0.0106441900, 0.0713261589, -0.0061496198, 0.0617325678, 0.0347886011, -0.0669218898, 0.1065126434, 0.0752954260, -0.0049731880, 0.0666359141, -0.0775509030, -0.0186581537, -0.0898974538, 0.0573111698, 0.0434642509, -0.0738018006, -0.0886993334, 0.0421015844, 0.0190495625, 0.0147874728, -0.0493114740, -0.0755433142, 0.0661001131, 0.0135988817, 0.0719236806, 0.0527856126, 0.0692210570, -0.0968262032, 0.0695902929, 0.0779570863, -0.0669960082, 0.0725872144, 0.0820164159, -0.0783426464, -0.0974511802, 0.0137874708, 0.0019502789, -0.0837673396, -0.0374865904, 0.0396053120, 0.0006191954, 0.0171616003, 0.0794393644, -0.0817527771, -0.0977527574, 0.0350306556, -0.0511120185, -0.1043725163, 0.1085454747, 0.0570619479, 0.0395929441, -0.0211695731, -0.0306647792, 0.0358999595, 0.0297330543, -0.0308969542, -0.0994957015, -0.0319812223, 0.0330515876, 0.0426637158, 0.0200410262, 0.0534740910, -0.0810808390, -0.0990351439, 0.0854683593, 0.0661779419, -0.0701762438, -0.0522282943, 0.0990436301, -0.0115479529, -0.0155514553, -0.1178454533, -0.0724206194, -0.0961450264, 0.0466015711, -0.0400501862, 0.0104376599, -0.0488034934, -0.0773703158, -0.0548407733, -0.0499846712, -0.0532424301, -0.0682150945, -0.1087587923, 0.0226296559, 0.0856227353, -0.0142773539, -0.0455909222, 0.1101200804, -0.1117259264, -0.1126796529, 0.0939632282, 0.0742388144, 0.0767616555, 0.0808356926, -0.0471334085, -0.0061251447, 0.0236727074, -0.0260806084, -0.0495444909, 0.1051976606, -0.0471229851, 0.0732155666, 0.0644178614, 0.0717051402, 0.0902177468, 0.0228772834, 0.1108931974, 0.1136493459, 0.1162704304, -0.0597904734, 0.0090060756, -0.0677867681, 0.0442060009, 0.0013413951, 0.0938770548, -0.0793095827, 0.1014284417, 0.0254661068, 0.0869150087, 0.0771292076, -0.0565767214, -0.1055538878, -0.0429456979, 0.1172887757, -0.0625719428, -0.0999110416, 0.0069869384, 0.0463610217, -0.0271518156, -0.0147937089, 0.1102916226, -0.0067584440, 0.0947135165, -0.1164884418, 0.0866840705, -0.0212651342, 0.0450899079, 0.1052865610, 0.0864490643, -0.0654789209, 0.0696345493, 0.1159347072, -0.0462481007, 0.0192002431, 0.0871360824, -0.0613943040, 0.0620457008, -0.0139192492, 0.0029090866, -0.0713547021, 0.0747793242, 0.0471035168, -0.0556190312, 0.0142592415, -0.0703821182, 0.0908112302, -0.1031153277, -0.0428525805, 0.0868964866, -0.1048050821, -0.0705792829, 0.0839927420, -0.0748113543, -0.0541322604, -0.0805867985, -0.0853116810, 0.0464986786, 0.1026105806, -0.0670527145, 0.0620774999, 0.0973934755, 0.0054702982, 0.0555725321, -0.0022159442, 0.0909342691, -0.0587522872, -0.1021362841, 0.0392584726, 0.0987286046, -0.0962847844, -0.0520024151, -0.0146638751, 0.0819511786, -0.1021418497, -0.1097087786, -0.0782269388, -0.0832204372, 0.0748787597, -0.0787798762, 0.0223957971, 0.0765051618, 0.0331035182, 0.1079881564, -0.0385860279, 0.0225772187, 0.1074116603, 0.1087698862, 0.0925475433, 0.0675955638, 0.0872097835, 0.0435640439, -0.0049904659, 0.0158020929, 0.0316270217, 0.0985307023, 0.0267237648, -0.1104470566, 0.0258584693, 0.0358854011, 0.0654230341, 0.0163129941, 0.1176722571, 0.1045058891, 0.0707313195, -0.0242716372, -0.0917778239, -0.0729075298, -0.0572331436, -0.0873367861, 0.1146267280, 0.1121296659, 0.1164915040, -0.0186858028, 0.0188507959, 0.0226748958, 0.0898521617, 0.0799987689, -0.0438978821, 0.0688520744, -0.1055817902, -0.0290333331, -0.0869344249, 0.1001152918, -0.1141609475, 0.1016391739, 0.0258862302, -0.0301393494, 0.0552992746, 0.1167695299, 0.0023441762, -0.0698507875, -0.0708086491, -0.0505099893, 0.1122681126, 0.0038707629, 0.0159416869, 0.1070071384, 0.1132360175, 0.0977430865, -0.1173628196, 0.0286410823, -0.1123307943, 0.0142489448, -0.0324471742, 0.1113184765, -0.1092238128, -0.1036677584, 0.0224602297, 0.0821898058, 0.1148437783, 0.0795308277, 0.0452050492, -0.0372257829, -0.1023966670, -0.0000743493, -0.0843448937, 0.1005106196, 0.0399981961, -0.0615285262, 0.0031921193, -0.1078467891, 0.0659458563, -0.0472078174, -0.0881056562, -0.0461488292, -0.0981092080, -0.0184047148, 0.0432534888, -0.0646598414, 0.0158636793, -0.0271150619, 0.0253006443, 0.1069117412, -0.0973309800, -0.0153613165, 0.0344420895, 0.0653051957, 0.0476482734, 0.0287393406, 0.0088785663, -0.0320423394, 0.1028717235, 0.0351771638, -0.0368092880, 0.0535089597, -0.0676074177, 0.0164902136, -0.0517630205, 0.0274820998, 0.0691133812, -0.0415924489, -0.0458261594, -0.0308965072, -0.0082374588, 0.0176833794, 0.0263299271, 0.1019912437, 0.1101664081, -0.0028257743, -0.0735028386, 0.0308469906, -0.0929777175, 0.0325460210, 0.0362105444, -0.0368383154, 0.1001041904, 0.0884694681, 0.0083324537, 0.0954663530, 0.0340645984, 0.0674544349, -0.1027976796, -0.0589162074, 0.1016137972, -0.0097391829, -0.0020000637, -0.0962973982, 0.1135006174, -0.0538461134, -0.0620902330, 0.0967530981, 0.0952447727, -0.0306324959, 0.1123297289, 0.0558801815, -0.0085373521, 0.1086624935, -0.0608288310, -0.0056096017, -0.1051831096, -0.0651828274, -0.1030149907, -0.0923543647, 0.0288824514, -0.0982528999, 0.0094835237, 0.0770274922, -0.0598052554, 0.1063315496, -0.1154401377, 0.1011694148, -0.0979033336, 0.0671469495, -0.0122797936, -0.0255471468, -0.0296074599, 0.0157140270, 0.0761515126, -0.0261084288, 0.1014759615, 0.0883834884, -0.0014135242, -0.0374814421, -0.0447505713, -0.1018323749, 0.1158278063, 0.0782657191, -0.0733727515, -0.0962930173, 0.0173381492, 0.0040670857, -0.0842239261, 0.0908732936, 0.0650033876, 0.1117762849, -0.0144894421, -0.0849938393, -0.0774550587, 0.0188300833, -0.0533167496, 0.1019639298, 0.0995799974, -0.0923077241, 0.1150979325, -0.0487455279, -0.0795739815, -0.0242411792, -0.0891046450, -0.0031305254, 0.1136302873, 0.0768001303, 0.0308504775, -0.0590290502, 0.0321410671, 0.0258410200, 0.0633073822, 0.0079698786, 0.0974976048, 0.1001755819, 0.0854179785, 0.0794450715, 0.0046232566, -0.0614055134, -0.0355828702, 0.0023955405, 0.0190202221, 0.0703977421, -0.0092106313, -0.0724217743, 0.0967306122, -0.0165372118, -0.0178723186, -0.0482997000, 0.0958450213, -0.0983932242, 0.0140986517, 0.0214052871, -0.0844848752, 0.0196896568, -0.0789376199, -0.0817804784, -0.0159149021, -0.1038100198, -0.1048655733, -0.0461481586, 0.0540141389, 0.0545482710, -0.0487518758, -0.0985434055, -0.1078338102, 0.0943669304, -0.0767458975, -0.0953476876, -0.0524919331, -0.0366890579, -0.0143881440, -0.0341839865, -0.0214777216, -0.0497883260, 0.0919176713, 0.0299033895, 0.1113825217, -0.0407710075, 0.0469373688, 0.0219685957, 0.0738088265, 0.1063165441, 0.0527670905, 0.0709130540, -0.0871967450, -0.0953008235, -0.0728341639, -0.0655410439, 0.0766710117, 0.0922574922, -0.0425616577, 0.1003149822, 0.1033560410, 0.0185803846, 0.0232186392, 0.0476238355, 0.0408854559, 0.1079793200, -0.0750844479, 0.0234847590, -0.0387987867, 0.1116679981, 0.0141509101, -0.0730885118, -0.0926557705, -0.0972682983, 0.0506582931, 0.0444115326, 0.0358361974, 0.0350955054, -0.1135384142, 0.0139880851, 0.0723888651, 0.0377289876, 0.0455733016, -0.0618732870, -0.0496714115, -0.0748225972, 0.0243175849, -0.0796868205, -0.0066869929, 0.0597780570, 0.0731075928, -0.1040941775, 0.0129737481, 0.0846922025, 0.0595841482, -0.0699650645, -0.0789630488, -0.1006316096, 0.0164612159, 0.0662575737, 0.0354269519, -0.0785857514, -0.0085243434, 0.0850317702, 0.0960801765, 0.0554555878, -0.0543485880, 0.0398948267, -0.0045050457, 0.0455517247, 0.0853712484, 0.0368514284, 0.1074229553, 0.0854069367, -0.0519073829, -0.0072654411, 0.0571093783, 0.1076657847, -0.0774140656, -0.0338695720, 0.0251139924, -0.0758633167, -0.0348976776, 0.0969136134, -0.0199305713, -0.0533889830, -0.1007637009, -0.0626679808, -0.1172300577, -0.0846162587, -0.0942337215, -0.0210642889, 0.0920692310, 0.0691445395, 0.0049196035, 0.0252396390, -0.1085870266, 0.1026905701, -0.0283764303, 0.0546247289, 0.0568151250, -0.0159332231, -0.0630273521, 0.0460151955, -0.1100560725, 0.1172003523, -0.0096515194, 0.1023812965, -0.0589939542, 0.0030663237, 0.1135765389, 0.0386460200, 0.0316428915, -0.1157952622, 0.0981207862, 0.0423517898, -0.1008883715, 0.0576309040, -0.0519834459, 0.1056158468, -0.0282497928, 0.0423939750, 0.1059250906, 0.1106596962, -0.1164134145, 0.0199643150, -0.0377335101, -0.0372101068, -0.0121272802, 0.0915044919, -0.0645783544, 0.0122313872, 0.0084516481, -0.0589193553, -0.0317165405, -0.0228092298, -0.0462912619, -0.0545629188, 0.0390723720, -0.0448204502, 0.0842657611, 0.1072136387, -0.0513851270, 0.0256764516, 0.0564333722, -0.0480791330, 0.0414131209, 0.0490218475, -0.0318910629, -0.0469126999, 0.0098513439, 0.0660869554, 0.0384096876, -0.0824356079, 0.0728586689, 0.0279170647, -0.0165020376, -0.0019959882, 0.1061298326, 0.0344339982, -0.0447224677, -0.0905134752, -0.0323554650, 0.0724617019, 0.0839118138, -0.0325392187, 0.0806519017, -0.1030625850, 0.0857727751, -0.0082350448, -0.0756016076, 0.0574501976, 0.0371057466, 0.0468047783, -0.0241183639, 0.0275805816, -0.0109609589, 0.0616180524, 0.0068805292, 0.0930572078, -0.0065747648, -0.0884217322, -0.0006987974, 0.0267774090, 0.0184829459, -0.0330287144, 0.0047937259, -0.0101436228, -0.0959954336, 0.0552270040, -0.0368745327, 0.0159470215, -0.0799947754, -0.0727148950, 0.1009127125, -0.0103310943, 0.0960799530, -0.0460210145, -0.0691740513, 0.0679097846, 0.0450625345, -0.0559474118, 0.0613145009, 0.0679187402, 0.0469067767, 0.0557535365, -0.0388099700, 0.1163026616, 0.0032503083, -0.0222437605, 0.0843447521, -0.1103788316, -0.0091620535, 0.1020222083, 0.0175367370, -0.0684170350, 0.0871234909, 0.1086500809, -0.0788381547, -0.0378833041, -0.0805080086, -0.0873593166, -0.0975799263, -0.0459208712, -0.0346352383, -0.0397100300, -0.0109490454, 0.0074308887, 0.0628441200, -0.0404382125, -0.0430641323, -0.0646169037, 0.1027390435, 0.0623184666, 0.1154436246, 0.0786401406, 0.0099053755, -0.1012766585, -0.0576895960, -0.0473064408, -0.0085806176, 0.1105052456, 0.0050271600, 0.0442128256, -0.0036718026, -0.0208809227, 0.0173299983, -0.1136373430, -0.0268687531, 0.0897038355, 0.0640253648, -0.0610404387, -0.0135160759, -0.0669698864, 0.0273837671, -0.1017340869, 0.0677619055, -0.0589325055, -0.1098443270, -0.0528955609, 0.0195416734, -0.0267331302, 0.0536881164, -0.0304710791, 0.0811859295, -0.0976064280, -0.0659944117, 0.0734209046, -0.0008689538, -0.0794476792, -0.1138290018, 0.1072210446, -0.0728266686, -0.0523463264, -0.0747357458, -0.0289959610, -0.0369626731, 0.0920288786, 0.0568494722, 0.0186549798, -0.0882283896, 0.0066325963, 0.0788819566, -0.0374209806, -0.0726796240, 0.0503206924, 0.1155364886, -0.0304217637, 0.0062731653, -0.0264739841, -0.0834441036, 0.0680614784, 0.0755275115, -0.0353418440, 0.0074611381, 0.0043952689, 0.0403465852, 0.0231241807, -0.0192173049, -0.0435023457, -0.0532413572, -0.1000734195, 0.0218491480, -0.0583532676, -0.0299912766, 0.0030271560, -0.0460315794, 0.0581364110, 0.0706085339, 0.0576022938, 0.0505207554, -0.0023202971, 0.0778522566, 0.0438591614, -0.1003224850, -0.0092416555, -0.0743766874, -0.0211154297, 0.0087969676, 0.0738671497, -0.1022849232, 0.0282838717, -0.0914048553, -0.0512114242, -0.1045902148, -0.0912742540, -0.0597989336, -0.0407161042, -0.0356801450, 0.0645002499, 0.0127313510, 0.0776862726, 0.0102206692, -0.0638650656, -0.0783158094, -0.1060463041, -0.0622913577, -0.0024219006, 0.1083559021, -0.1067609712, -0.0720223635, 0.1017569676, 0.0509010628, -0.0541555509, -0.0998863429, -0.1068833396, 0.0603181496, 0.0952558443, -0.0754115283, -0.0335322544, -0.0441453382, 0.0308884457, 0.0088364854, 0.0045668334, 0.0344910100, 0.0199081972, -0.0601497069, 0.0667520091, 0.1087998077, 0.1161198542, 0.0827197954, 0.0542791560, -0.0293795317, -0.0921860337, -0.0100556165, 0.1100355610, 0.0510634407, 0.0585185066, -0.1093170643, 0.1157418564, 0.0783768967, -0.0617544353, -0.0178436264, -0.0538158193, -0.1131409109, 0.0731729642, 0.1129966602, -0.0646497011, -0.1100256145, 0.0287135765, -0.1123322248, -0.0671849400, 0.0916829333, 0.0914764777, -0.0396090448, 0.0945043042, 0.0170822814, 0.0177675709, -0.0951365381, 0.0073711500, -0.0058862269, 0.0447679088, -0.0324213803, -0.0777817518, -0.0011471808, -0.0631541014, 0.0394368097, 0.0644306466, -0.0934625193, 0.0886216238, 0.1104428396, 0.0953411683, 0.0090311095, 0.0730273649, 0.0668425485, 0.0281875357, -0.0998902246, 0.1167248264, -0.0729622915, -0.0328071639, 0.0149292573, -0.0398095548, -0.0662801340, -0.0165063664, -0.0968823135, -0.0856034756, -0.0843880177, 0.1105059162, -0.0483403578, 0.0599115267, 0.0918945745, -0.0648466945, -0.0877855644, 0.0284228250, 0.1026367620, -0.0658798516, 0.0264766291, -0.0506334007, 0.0317684188, -0.0428684577, -0.0769574493, 0.0392417237, -0.0588070489, -0.0862271711, -0.0150317848, -0.0324878320, -0.0769393295, 0.0069407746, 0.0490079597, -0.0679081827, -0.0897189826, -0.1024871692, -0.0085457787, 0.1135432795, 0.0576080307, -0.0098067597, 0.0160547122, 0.0989412442, 0.0463274792, -0.0491324365, -0.1030834913, 0.0562846139, -0.0898280591, -0.0663018227, 0.0455950722, 0.0331532434, 0.0831985250, -0.1072192490, -0.0638758242, 0.0443207845, -0.0868115500, 0.1060394272, 0.0914573446, -0.0120919570, 0.0748309121, 0.0382471904, -0.0975657105, 0.0001234636, -0.1128504351, -0.0398783088, 0.0227263048, 0.0554463491, -0.0251398087, 0.0152416155, -0.0306720063, -0.0984840393, -0.1130102277, 0.1058652923, 0.0230806842, -0.0220948383, 0.0554665700, -0.0870226175, 0.0508309230, 0.0083207414, 0.0119493082, 0.0873024985, 0.1003711447, 0.0059546456, -0.0659036785, -0.0466145799, 0.0124035701, 0.0787866786, -0.0989550650, 0.0935804471, -0.0592278987, -0.0256858096, 0.0888578072, 0.0538061336, -0.0768902153, -0.0129891783, 0.0188578144, -0.0165813267, -0.0833352208, 0.0420196727, 0.0091945902, 0.0676729754, -0.0378825739, -0.0087301880, -0.0899734348, -0.0500790849, 0.0327364728, 0.0202658698, 0.0806810036, 0.0360821709, 0.0224760100, -0.0716039240, -0.0304704309, -0.0948898047, 0.0826661512, 0.0178949013, -0.0592165478, 0.0913716778, -0.0071597695, -0.0508721769, -0.0370501727, 0.0994355753, -0.0095609576, 0.0096995607, -0.0834899247, -0.0383235663, -0.0861053914, 0.0517623946, 0.0180137828, -0.0150087476, -0.1084434763, 0.0475275740, 0.0936071053, 0.0131472573, 0.0111715570, 0.0220953748, -0.1073318645, -0.0815694630, 0.0146627501, 0.0038589388, -0.1018630043, 0.0788579360, 0.0271701887, 0.0798520669, -0.0258217454, -0.0429511517, -0.0023309141, 0.0600094423, 0.0483702496, 0.0235839114, -0.0778408200, 0.0130455419, -0.0129534379, 0.1049611941, 0.0467743203, -0.0288653076, 0.1123045757, -0.0758035481, 0.1062255725, -0.0198873281, -0.1170867532, -0.1052470058, 0.0818439201, -0.0700056925, -0.0014022291, -0.1049516127, -0.0201332420, -0.0734117180, -0.0600847453, -0.0404999480, -0.0472812355, -0.0887840763, 0.0944958255, 0.0857162699, -0.0503199920, -0.0138307959, 0.0090472922, 0.0862604305, 0.0410316214, -0.0736526251, -0.0432420522, 0.0003341958, -0.1169226915, 0.0498200431, -0.0836012214, 0.0123868212, 0.0529944077, 0.0513625070, 0.0256174132, -0.0699358135, -0.0882129893, 0.0724655464, 0.0207109824, -0.0240403637, 0.0810732022, -0.0631054044, -0.0544250384, 0.0733001903, -0.0945244804, 0.0552706793, 0.0861260518, -0.0088789389, -0.0279904231, -0.0378165394, 0.0946556404, -0.0382984206, 0.0067249760, -0.1126737595, 0.0679772422, 0.1159760728, 0.0008308813, 0.0683130696, 0.1029233858, 0.0230610147, -0.0849129707, -0.0468829721, 0.1088289544, 0.0215739533, 0.0912309214, 0.0855617300, 0.0636897609, -0.0687074512, -0.0282665417, 0.0163648948, 0.0148461089, 0.0790123269, 0.0932522044, 0.0710642859, -0.0887416229, -0.0784377307, 0.1164109483, -0.1045382023, -0.0708644986, 0.1166122928, -0.0461046621, -0.0226138607, -0.0395183191, 0.0317802653, 0.0908632353, -0.0508025214, -0.0534707829, -0.0299926251, -0.0684844106, 0.0958074555, -0.1141514778, 0.0986393914, 0.0546237156, 0.1014402732, -0.0608901717, 0.0031254143, 0.0004481077, -0.0935007036, -0.0222996473, -0.0380256474, 0.0222146139, -0.0212196186, 0.0340890512, -0.0372670889, -0.1070251763, -0.0870764256, -0.1137757525, 0.0113141462, -0.0858894587, -0.1087754518, -0.0591638647, 0.0156695768, 0.0813074782, -0.0779637992, 0.0676559135, -0.0463055372, 0.0729924068, -0.1090812683, 0.0360188112, -0.0805415362, -0.0867581069, 0.0040577576, 0.1082685664, -0.1024955735, -0.0776737779, 0.0616474971, -0.0380707160, -0.1072299257, -0.0042476431, -0.0131604373, 0.0774556026, 0.0698403642, 0.0078044757, 0.0594034269, -0.0049117059, 0.0443903580, 0.0035274103, -0.0666231811, 0.0414530858, 0.1021710113, -0.0227688253, -0.0854902193, -0.0562598631, 0.1171482876, 0.0405570939, 0.0443521366, -0.0147930980, -0.0895207822, 0.0511521474, -0.0919656903, -0.0861410499, -0.0361364856, 0.0533172563, 0.0896820351, -0.0003450438, -0.1098592728, -0.0222752541, -0.0741923302, -0.0095891356, 0.1013138816, -0.0205045268, 0.0450196341, -0.0131710842, -0.1024719179, -0.0825902671, 0.1104005203, 0.0234977081, 0.0515627936, 0.0633413717, -0.0474728048, 0.0446454808, 0.0850363001, 0.0023263916, -0.0792064592, 0.0733051673, 0.0568405911, 0.0752703920, 0.1013608053, 0.0600121990, 0.0483314767, -0.0808789283, -0.0965617746, 0.0588117465, 0.0244855210, 0.0852367207, 0.0916829631, 0.0854431018, 0.0302892253, -0.0239879638, -0.0552897006, 0.0024575815, -0.0866515860, 0.1140738204, -0.0335919634, 0.0754014924, -0.0148758739, 0.0653004423, -0.1132015213, 0.1046542451, 0.0844391957, 0.0120361075, -0.0274787620, 0.0137555227, -0.1165044531, 0.0549212173, -0.0435474142, -0.0707211792, -0.0403604433, 0.0791547671, -0.0097830668, -0.0215008482, 0.0019391775, -0.0783935338, 0.0243439600, -0.0150276273, -0.0435373560, -0.0549969152, 0.0186003670, 0.0301906243, 0.0613796636, 0.1040791646, -0.0354542360, -0.0569750108, 0.0977722630, 0.0862517878, -0.0431978777, -0.0852697343, 0.0842124149, -0.1123280078, -0.0242161751, 0.0748292282, -0.0366455913, 0.1086481437, -0.1038951576, -0.0593758337, -0.0211090818, -0.0803263634, 0.0292707607, -0.0365259498, -0.0462530479, 0.0655092970, 0.0428116992, 0.0967736021, -0.0494907424, 0.0890937969, -0.0705688596, 0.0604614243, 0.0856010988, -0.0619293712, -0.0556265637, 0.1073777303, -0.0602109879, -0.0114412084, -0.0332355425, -0.0893474966, 0.0118482038, -0.1078538671, -0.0811054558, -0.0907001868, 0.0348254070, -0.0514244959, 0.0980636701, 0.0036641061, -0.1130452082, -0.0540199503, 0.1162355319, -0.1162859648, 0.0925942883, -0.0460665077, 0.0806885734, 0.0054225847, -0.0734655261, -0.0894062221, -0.0037375540, -0.0160922259, -0.0899469405, 0.0671510622, -0.0289007649, -0.0988527685, 0.0294442102, -0.1029589102, -0.0061072782, -0.0301822275, -0.0052688867, 0.0831503645, 0.0569471344, -0.0376382023, -0.0674235821, 0.0211753026, -0.0484287515, 0.0339678004, 0.0599818751, -0.0221688524, 0.0292298719, -0.1117853001, 0.0456128046, -0.0419733152, -0.1152228266, 0.0492949262, 0.0190648511, 0.0021692738, -0.1166232228, 0.0800223723, 0.1048146859, 0.1104243472, -0.0229564086, 0.0920562819, 0.0810987130, 0.0933506861, 0.0395628586, 0.1176643893, -0.0148104280, -0.0633197427, -0.0461658314, -0.0643929094, -0.0592659153, 0.0657125041, 0.0606976226, 0.0811036304, -0.1157099605, -0.0408893004, -0.0678291991, 0.0754964426, 0.0442038402, -0.1169487089, -0.1150851473, -0.0860583335, -0.0866634995, 0.0804410800, -0.0155528337, -0.0456855819, -0.0105553120, 0.0287713483, 0.0500338152, -0.0654798746, -0.0556877591, -0.0731967986, 0.1140475497, 0.0099141225, -0.0327008963, 0.0451869294, -0.0270934552, 0.0157942846, -0.0761047006, 0.0867600814, 0.0593733266, 0.0926287994, -0.0395120233, -0.0978838354, 0.0455840304, -0.1016373485, 0.0387352332, -0.0751799196, 0.1006816849, 0.0151583180, 0.0435455069, -0.0050340444, -0.0603417009, -0.0590569526, -0.0249191821, 0.0005450174, 0.0259625986, 0.0998119190, -0.0281832069, 0.0488964990, -0.0159146786, 0.0011900887, -0.0283563733, 0.0202807263, -0.0736187100, 0.0287349597, 0.0308368877, 0.0526757464, -0.0048286244, -0.0222555622, -0.0471541211, 0.0101328865, -0.0071812645, -0.0624936894, -0.0603683628, -0.0204068050, -0.0503553376, -0.0038568601, 0.0904977098, 0.0943863764, -0.0487843305, 0.0342630818, -0.0894649476, 0.0195114389, 0.0851867273, 0.0314792916, -0.0308027118, 0.1110435203, -0.0726102814, -0.0534835383, -0.0103691071, -0.0560876764, -0.0909963995, -0.1140685901, -0.0908888057, 0.1082028225, 0.0706148222, 0.0530519560, -0.0148129314, -0.0787715614, 0.0898756608, 0.0687709078, 0.0841124728, 0.0543945804, 0.0555707291}};

#endif
