//Numpy array shape [25088, 10]
//Min -0.015461522155
//Max 0.015461458825
//Number of zeros 0

#ifndef W7_H_
#define W7_H_

[[intel::fpga_register]] static constexpr w7_t w7 = {{0.0123524601, 0.0127756195, 0.0028487416, -0.0084664281, 0.0129340449, 0.0062105944, 0.0133864181, -0.0005826531, -0.0051730061, 0.0016142251, -0.0063571632, 0.0102206534, 0.0104228398, 0.0116315475, -0.0037937481, -0.0006310698, 0.0118264882, -0.0025007110, 0.0080252616, -0.0066101467, 0.0141930832, -0.0043431139, -0.0082068648, -0.0107521918, 0.0133137377, 0.0044643125, 0.0126216700, 0.0067698872, 0.0117673827, 0.0142216152, 0.0131419590, -0.0119848549, -0.0026463615, 0.0134961205, 0.0063669393, -0.0098699015, 0.0086097391, -0.0134545937, -0.0082125459, -0.0008877348, -0.0099286325, -0.0027712034, 0.0009028977, -0.0087426025, 0.0061962986, -0.0061308555, 0.0050974721, -0.0052180458, -0.0154237552, -0.0092087444, 0.0069202641, 0.0148770334, -0.0075376537, -0.0122684008, -0.0087088570, 0.0030050511, -0.0026525250, -0.0002992498, -0.0144341737, -0.0121168923, 0.0070842365, 0.0123026324, 0.0134666665, -0.0062193088, 0.0001711985, 0.0153453695, -0.0124966074, -0.0075182077, 0.0077507282, 0.0058347164, 0.0152635900, 0.0018927073, -0.0105458265, -0.0130464416, -0.0053149452, 0.0011412269, -0.0053387405, 0.0095164729, -0.0104555804, -0.0016545802, 0.0090491557, 0.0136743626, -0.0070242779, -0.0108167399, -0.0036145216, -0.0000628410, -0.0090158787, -0.0075772339, -0.0112647563, 0.0057741022, 0.0139501048, -0.0085943891, 0.0052815350, -0.0075132940, 0.0135973589, -0.0006365841, 0.0076751905, -0.0149228321, -0.0015992252, 0.0151140178, -0.0058418158, 0.0036880979, 0.0090500517, -0.0147363767, 0.0026471661, -0.0106627941, 0.0121596949, -0.0079002753, 0.0135760261, 0.0066668270, -0.0096766520, 0.0087389862, 0.0101779839, -0.0033382745, -0.0079204952, -0.0019887695, -0.0028995583, 0.0042187916, 0.0058780937, -0.0095007811, -0.0044414653, 0.0042908443, -0.0087598283, 0.0107228635, -0.0023630289, 0.0072931191, -0.0024173884, 0.0029397951, 0.0131157702, -0.0119297728, 0.0154252117, -0.0052400203, -0.0112151485, -0.0046088146, 0.0051369285, -0.0116960844, -0.0057057822, 0.0046954108, -0.0009553535, 0.0013367170, 0.0092733586, 0.0154585661, 0.0112761920, -0.0102946609, -0.0089937933, 0.0142586036, -0.0005175406, -0.0115282964, 0.0087988479, 0.0041523343, -0.0056608086, -0.0096673667, -0.0090900175, -0.0106174406, -0.0001151245, 0.0120181208, -0.0141825071, -0.0002311487, 0.0057815993, -0.0152912866, 0.0078802472, -0.0015730411, 0.0145034743, 0.0110805007, -0.0030532833, -0.0087100007, -0.0120058889, -0.0145148020, 0.0026660869, 0.0007540053, -0.0128600597, 0.0092330957, 0.0140826246, 0.0024212627, 0.0127168270, -0.0085433703, -0.0020945566, -0.0005883817, -0.0047229547, -0.0063613700, 0.0076150401, 0.0038655391, 0.0086616864, -0.0042410828, 0.0084586916, 0.0026618810, -0.0004999796, -0.0009449283, 0.0121298013, 0.0066789268, -0.0088411458, 0.0043051774, 0.0145686632, -0.0028139027, 0.0067985812, -0.0065753069, -0.0023345118, -0.0088788643, -0.0034151645, 0.0001299912, 0.0146163339, -0.0015391270, -0.0044378079, 0.0053609880, 0.0132556902, -0.0108093936, 0.0076498957, 0.0046005277, 0.0013155350, 0.0046816310, -0.0066727884, 0.0006866967, 0.0052758334, -0.0068215067, -0.0007984405, 0.0151345534, 0.0082745953, 0.0043349555, -0.0060389247, -0.0124036493, -0.0150897615, -0.0035924809, -0.0104013961, -0.0076525677, -0.0122981975, 0.0114751579, -0.0152426083, 0.0060603125, 0.0087054027, -0.0109504983, 0.0147248311, 0.0131614627, -0.0117867906, 0.0026728371, -0.0000831196, 0.0060820812, -0.0089084655, 0.0040713036, 0.0035849577, 0.0010841256, -0.0116025843, -0.0088361464, 0.0121906744, -0.0097096227, 0.0055627739, -0.0081924107, 0.0055769188, 0.0092369160, -0.0136936903, 0.0119429445, -0.0027085468, -0.0013995878, 0.0124496846, -0.0111830262, -0.0118537536, 0.0112113776, -0.0144610144, -0.0060132276, 0.0014009858, 0.0032510189, -0.0088616749, -0.0098362081, 0.0055354731, 0.0056312634, -0.0035360837, -0.0127249109, -0.0058169886, -0.0027243691, -0.0103915716, 0.0020323759, -0.0082813930, -0.0108789066, -0.0033260249, -0.0006659012, -0.0098512229, 0.0142173683, 0.0032450752, 0.0130273206, -0.0146406088, 0.0146419173, 0.0082429172, -0.0125656202, -0.0038809013, -0.0105694998, -0.0069528334, 0.0004740274, -0.0088818129, 0.0048235068, 0.0039061187, -0.0092511773, -0.0090299044, -0.0076306826, 0.0049534915, -0.0059669232, 0.0000723079, -0.0148403868, 0.0125745414, 0.0072081750, 0.0105061615, -0.0033349898, -0.0044109831, -0.0105118677, -0.0130024999, -0.0033201743, 0.0092279715, -0.0126330070, -0.0138166593, 0.0151503319, -0.0054787444, 0.0020138687, -0.0133752525, -0.0145544037, -0.0013256622, -0.0150283175, 0.0083120326, 0.0141762337, -0.0091142897, -0.0047026798, -0.0108227227, 0.0004974762, -0.0051259017, -0.0100380545, 0.0002686949, 0.0150052411, -0.0147651779, 0.0095810397, -0.0079905139, 0.0120206410, 0.0059973216, 0.0033435235, 0.0013856506, 0.0153592071, 0.0102735711, 0.0033184895, -0.0070345337, 0.0154420761, 0.0038135769, -0.0117951771, 0.0010480145, 0.0052935602, -0.0137349330, -0.0051935427, 0.0144958692, 0.0144593148, 0.0016294578, -0.0148380939, -0.0073677311, 0.0114445062, 0.0028553819, 0.0124502713, -0.0141095985, 0.0043307161, -0.0096494434, -0.0006562434, 0.0074690031, -0.0126291802, 0.0086965738, -0.0030130092, 0.0010073530, -0.0062339036, 0.0139439413, -0.0110917185, -0.0076932725, -0.0072637210, 0.0046938034, 0.0002222834, 0.0102974074, 0.0049310410, -0.0021335250, -0.0083291754, 0.0107734958, 0.0023004012, -0.0053098286, 0.0129824197, 0.0024180291, -0.0015209643, -0.0021001268, -0.0077795144, 0.0112104164, -0.0045866892, -0.0102210669, -0.0087975953, -0.0023594126, 0.0031088023, 0.0109295538, -0.0076265205, -0.0024477486, 0.0147790397, 0.0076235412, -0.0146707268, -0.0011099447, -0.0087249335, 0.0097942287, 0.0085642124, 0.0129362894, -0.0149961459, 0.0137265949, 0.0076424005, -0.0071887625, -0.0147820693, -0.0113473712, -0.0130606592, -0.0147387069, 0.0056055291, -0.0146740079, -0.0125202229, -0.0081554633, -0.0071725138, 0.0107852248, -0.0050287554, -0.0154153723, -0.0131582590, -0.0070186863, -0.0036930665, -0.0134716425, -0.0150333382, 0.0042589838, -0.0131976958, 0.0030244337, -0.0024168016, -0.0076887347, -0.0104200859, 0.0091499845, 0.0029950710, 0.0018628472, -0.0094081648, -0.0053544519, 0.0131098172, -0.0102240639, -0.0118052885, -0.0030162577, -0.0053581670, -0.0104263257, -0.0049008504, -0.0130915549, 0.0051864749, -0.0068242168, 0.0106917424, -0.0058045546, -0.0010954197, 0.0025062962, -0.0031857817, 0.0130256647, -0.0029681986, -0.0044692121, 0.0036802599, -0.0011659358, 0.0046128249, 0.0044027185, -0.0059815180, 0.0068756891, -0.0079760412, 0.0082866130, -0.0101012345, 0.0067083919, 0.0066541145, 0.0111716138, -0.0132373199, 0.0107009737, -0.0031528212, 0.0025042715, 0.0019279672, 0.0064629437, -0.0022402294, 0.0049620764, -0.0046966011, -0.0060267784, -0.0115712285, -0.0006749704, 0.0053619025, 0.0048651854, -0.0122227715, -0.0064450540, -0.0004980620, 0.0072993124, 0.0108990045, 0.0150573729, -0.0028095525, -0.0018573655, -0.0136031974, 0.0072552720, 0.0141840922, -0.0125680640, -0.0138707012, 0.0154322041, -0.0084145358, -0.0036951164, -0.0153891444, 0.0052708602, -0.0150848990, -0.0140503887, -0.0014070785, 0.0044195680, 0.0057987189, -0.0107902270, -0.0150588360, -0.0107067982, -0.0119065493, -0.0134940632, 0.0117831668, 0.0095852045, -0.0016072951, -0.0106145218, 0.0083848061, -0.0153669193, -0.0098333042, -0.0100856889, -0.0153638702, -0.0123061603, -0.0024177786, -0.0003497712, 0.0104419338, 0.0008433620, 0.0068942280, -0.0117927520, -0.0084469356, -0.0140014812, 0.0069526015, -0.0147321522, -0.0076549347, 0.0112821227, -0.0100567145, -0.0097627435, -0.0032877829, 0.0039992807, 0.0002262192, -0.0130917653, -0.0090276785, 0.0084346188, 0.0063895406, -0.0098277554, -0.0018782634, 0.0114264945, -0.0053199101, -0.0134243872, -0.0110080428, -0.0034510987, 0.0095211482, 0.0083981799, -0.0034670020, 0.0128905168, 0.0119572999, 0.0108710146, 0.0086359782, 0.0096981591, -0.0000151582, 0.0104920687, 0.0136402408, 0.0001229653, -0.0147891175, -0.0107010696, 0.0108866068, -0.0109923836, 0.0114590963, 0.0011129482, 0.0136337793, -0.0146454535, 0.0083507439, -0.0100413794, 0.0035116905, 0.0028604055, -0.0061356509, -0.0100317653, -0.0016310569, 0.0013481779, -0.0116438856, -0.0090463832, 0.0089136707, 0.0017303163, -0.0055433027, -0.0008831490, 0.0050267344, -0.0076944963, 0.0051327841, 0.0039370405, 0.0060988953, 0.0104962075, 0.0030007185, -0.0072728815, -0.0071508819, 0.0074554691, 0.0054393960, -0.0017128466, -0.0080171954, 0.0124481255, -0.0112115918, -0.0117761958, 0.0035019377, 0.0078884913, 0.0084692603, 0.0047279717, -0.0144258318, 0.0009643892, -0.0077528623, 0.0151972631, 0.0035375031, -0.0015351605, -0.0118934959, -0.0027149385, -0.0152839581, -0.0099717481, 0.0088986149, -0.0031971056, -0.0014989311, -0.0086951517, 0.0128518166, 0.0037724013, 0.0084303068, -0.0111488355, 0.0129452357, 0.0120850457, 0.0045458553, 0.0132998405, 0.0013678959, 0.0114007713, 0.0078388685, -0.0060466481, 0.0015573343, -0.0109334532, 0.0048637697, -0.0140810627, 0.0034965435, -0.0123415422, -0.0080890683, -0.0124907503, 0.0144713810, 0.0002114335, 0.0127245458, -0.0067380443, 0.0093939574, -0.0044317003, 0.0080276066, 0.0042265961, -0.0083589274, -0.0087963268, -0.0120119527, -0.0079495180, 0.0056316024, -0.0145782772, 0.0062500751, 0.0128821442, 0.0071214726, 0.0146866729, -0.0088516846, -0.0026853336, 0.0038817013, 0.0120827863, 0.0022479640, -0.0001500640, 0.0144214490, 0.0130224107, -0.0068736281, -0.0073598502, -0.0085042948, 0.0122235501, 0.0088461144, 0.0080809956, 0.0074957060, -0.0152249653, -0.0019112490, -0.0048274919, -0.0062366500, 0.0078264968, -0.0087015694, 0.0114104217, -0.0082861846, -0.0080555044, -0.0061720060, 0.0085251881, 0.0051374556, 0.0071110772, -0.0061452910, -0.0073086759, 0.0061274925, 0.0139840962, -0.0120610958, -0.0107005835, 0.0102047762, 0.0130980937, -0.0129297283, -0.0092531024, -0.0022227494, 0.0072256858, -0.0134303775, 0.0023709843, -0.0035890453, 0.0044886535, -0.0108741764, 0.0005574422, 0.0030026073, -0.0105359145, -0.0087717175, 0.0098523246, 0.0149166724, -0.0004434967, -0.0092971902, 0.0148100192, -0.0043111304, -0.0076036872, 0.0018082494, -0.0014544185, -0.0029356554, 0.0003107963, -0.0042452337, -0.0071800668, -0.0036362680, 0.0146446908, -0.0120314239, -0.0152741075, -0.0130194500, -0.0136092212, 0.0018493803, -0.0064901412, -0.0077880668, -0.0083020944, -0.0048913797, -0.0065377429, 0.0100153359, 0.0027448582, -0.0152031416, 0.0022023665, -0.0019531334, -0.0118603781, 0.0067183143, -0.0008109007, 0.0076117301, 0.0088625597, -0.0075070607, 0.0124374414, 0.0085789254, -0.0050851163, -0.0040305993, 0.0025464362, -0.0154537251, -0.0037335837, 0.0043880688, -0.0118324831, 0.0107732257, -0.0119704744, 0.0057493551, -0.0127065526, 0.0128535209, 0.0146279605, 0.0135304620, 0.0056228181, -0.0077659376, -0.0107657351, -0.0023691189, 0.0140001802, -0.0089026596, 0.0124161756, 0.0146707678, -0.0040869415, 0.0113163134, 0.0083045689, 0.0079583144, 0.0052730637, 0.0050624749, -0.0128543237, -0.0094724437, 0.0010192385, -0.0110530900, -0.0152278999, -0.0084978696, -0.0042743487, -0.0003678091, 0.0043770755, -0.0000965968, 0.0089405989, 0.0045176549, -0.0068301624, 0.0049837260, 0.0003340496, -0.0033529494, -0.0083128475, -0.0137999160, -0.0046256939, 0.0000269143, -0.0127101466, -0.0076905815, -0.0061203456, 0.0079353554, 0.0049854415, 0.0011020629, -0.0065237936, -0.0127393249, -0.0104707573, -0.0150874089, 0.0150718754, -0.0040055513, -0.0062432187, -0.0047444981, -0.0041959211, -0.0136236418, -0.0149434134, -0.0023513287, -0.0100833923, 0.0130940201, -0.0022976669, -0.0099070128, -0.0005436623, 0.0088483626, 0.0085325437, 0.0082431911, 0.0034188768, -0.0011491673, -0.0132546872, 0.0056573665, -0.0082595982, 0.0088922577, 0.0067562284, -0.0141344815, -0.0006755898, -0.0124356877, 0.0029371073, -0.0087120645, -0.0116530396, -0.0034495797, -0.0150607536, -0.0108281048, 0.0131685631, 0.0012825830, -0.0029932689, 0.0083740605, 0.0026841806, -0.0007820288, 0.0055171149, -0.0058001932, 0.0145154903, -0.0149821527, 0.0139889112, 0.0054392787, -0.0044428436, -0.0065708356, -0.0136601925, -0.0020414768, -0.0069873044, -0.0096458644, 0.0052251080, 0.0054217381, 0.0062884754, 0.0100558968, -0.0001887185, -0.0074193254, -0.0040226039, 0.0050719967, 0.0116444165, -0.0078574959, 0.0046497369, -0.0029124944, -0.0024113273, 0.0082029467, -0.0033628661, -0.0108920923, 0.0072918339, 0.0154059427, 0.0129666282, -0.0079121273, 0.0076258862, 0.0046020942, -0.0032821428, -0.0035440577, -0.0063557224, 0.0147701139, -0.0036225468, 0.0025070505, 0.0102786990, 0.0118115665, -0.0131285209, -0.0068707382, -0.0114199556, 0.0059425784, 0.0028925398, 0.0056347353, -0.0066688405, -0.0024048472, 0.0072944881, 0.0042840140, 0.0117353341, 0.0028205970, -0.0033066748, -0.0092094820, 0.0000484018, -0.0153966602, 0.0061570061, 0.0028665913, -0.0130351689, 0.0031419499, -0.0037630340, 0.0105659878, 0.0137360310, -0.0066729914, -0.0154283997, -0.0093564158, 0.0057536578, 0.0042205276, -0.0128685571, -0.0065090964, 0.0082796859, 0.0117379474, -0.0044601476, -0.0141457245, -0.0061458442, 0.0104070986, -0.0034423145, 0.0149483485, 0.0104965689, 0.0094644437, 0.0111391628, -0.0112054832, -0.0012897644, -0.0076641762, -0.0048497356, 0.0104004005, 0.0066039125, 0.0115226572, -0.0130111557, -0.0103968792, 0.0068752179, -0.0032190988, -0.0107087558, 0.0062459176, 0.0139152249, -0.0016582366, -0.0072997697, -0.0067046313, -0.0139222546, 0.0033535911, -0.0104155289, -0.0060611870, 0.0113262339, -0.0107625835, 0.0036264574, -0.0080159716, -0.0094070258, 0.0055895662, 0.0136232106, 0.0153086344, 0.0124633750, 0.0015066238, 0.0016363105, -0.0122656291, -0.0146843549, 0.0051489631, -0.0032707443, -0.0099516865, -0.0009167939, -0.0132232495, 0.0008795066, 0.0006094044, 0.0008212486, -0.0061100824, -0.0056016510, 0.0150828892, -0.0072828643, -0.0118209850, 0.0153250126, 0.0049467115, 0.0080021517, 0.0104889022, 0.0075385598, 0.0103379833, 0.0091952560, 0.0139090875, -0.0090502873, 0.0118715139, -0.0050037550, -0.0105093755, 0.0102718165, -0.0122759799, 0.0139415013, -0.0021501947, 0.0032866811, -0.0048458613, -0.0041329805, -0.0125548262, 0.0057649659, -0.0108367307, -0.0048949961, -0.0079914536, -0.0039233528, -0.0123160137, 0.0060023861, 0.0014279215, 0.0056991400, 0.0020763976, -0.0002462771, -0.0154484687, 0.0124917449, -0.0070597371, -0.0074343951, -0.0024886047, -0.0148643376, 0.0134851048, 0.0129665947, 0.0010525929, 0.0082174679, -0.0069240760, 0.0134372162, -0.0018950552, 0.0131525388, -0.0146687254, -0.0143657885, -0.0138395289, 0.0131650893, 0.0138067724, -0.0056626704, -0.0106385527, -0.0066662673, 0.0015541492, -0.0094031617, 0.0073032761, 0.0066775372, 0.0045358827, -0.0073336586, 0.0027904501, -0.0022415165, -0.0081884712, 0.0066657336, 0.0109407557, 0.0129296249, -0.0052839499, 0.0122003248, -0.0009142430, -0.0059002703, 0.0080532366, -0.0132888556, 0.0023164125, 0.0137566524, 0.0075793350, -0.0151456939, -0.0065482454, -0.0141873620, 0.0073844930, -0.0068051545, -0.0057255561, -0.0116807166, 0.0091076614, 0.0148475645, 0.0131651303, 0.0108891735, 0.0101067228, -0.0125436094, -0.0027047535, -0.0140742240, 0.0052347677, -0.0020854808, -0.0026269536, -0.0099942163, 0.0127860671, -0.0074207000, 0.0120505495, -0.0152716748, -0.0120316669, -0.0126159163, -0.0107673649, -0.0024179081, 0.0065253945, 0.0105178775, -0.0023711985, -0.0057180803, 0.0054727690, -0.0116738966, -0.0008487003, -0.0051487163, -0.0132417772, 0.0113256695, -0.0000837976, 0.0063081877, 0.0070708068, -0.0127766374, -0.0020117536, -0.0097587984, -0.0009901598, 0.0122243194, 0.0060507553, 0.0149744144, 0.0105298394, -0.0049926108, -0.0125523936, -0.0105341338, 0.0131875286, 0.0142826838, -0.0153956283, 0.0025865948, 0.0077368086, -0.0061868504, -0.0077564712, 0.0034892643, 0.0093364241, 0.0040424401, 0.0128625249, -0.0103285201, -0.0138312057, -0.0106796920, 0.0117321080, 0.0077562360, -0.0113871908, 0.0151861077, -0.0011795936, 0.0036373110, -0.0067072045, -0.0100176837, -0.0126205571, -0.0024912478, 0.0072550466, -0.0139975185, 0.0061691711, 0.0015661074, -0.0119740684, -0.0138970399, 0.0060739862, -0.0082301702, 0.0093811257, 0.0099778930, -0.0087653250, 0.0122883106, -0.0025568865, 0.0100708706, 0.0081100436, 0.0059230672, -0.0070447670, -0.0071776444, -0.0107840160, 0.0046143802, -0.0046701403, 0.0063445596, 0.0011949437, -0.0031440370, 0.0058787828, -0.0056395316, -0.0107033029, 0.0039154058, 0.0143491710, -0.0022852728, 0.0073284274, 0.0024573328, -0.0010017352, 0.0146865593, -0.0078595821, -0.0120768659, -0.0120087201, 0.0068195788, 0.0080297543, 0.0154083343, 0.0026305253, 0.0052031456, -0.0042834058, 0.0145667130, -0.0139592877, 0.0100980578, -0.0126500931, -0.0138222221, -0.0124448221, -0.0144123025, -0.0086839963, 0.0114144152, 0.0136266546, 0.0005100174, 0.0092779407, -0.0036863759, -0.0063485261, -0.0030270694, 0.0138771078, -0.0117855594, 0.0009022327, -0.0071336664, -0.0064483676, 0.0118721956, -0.0034763720, 0.0025097309, 0.0108896932, 0.0073937746, 0.0129254768, 0.0115528544, -0.0127226729, -0.0097388485, 0.0046871742, -0.0039920444, 0.0099371774, 0.0143067176, -0.0018180953, 0.0126009947, 0.0084834853, 0.0151105197, 0.0034125661, -0.0101333540, 0.0124690933, 0.0087981699, -0.0151415030, -0.0101888403, -0.0127151422, -0.0038179895, 0.0037859073, 0.0039170934, -0.0049004965, 0.0072535099, 0.0045514880, 0.0071852906, -0.0052272873, 0.0108467983, -0.0107628386, -0.0016888259, 0.0125972228, -0.0025383886, -0.0067522405, 0.0064745331, 0.0136327324, 0.0099860551, -0.0010265810, 0.0068009039, 0.0133989183, 0.0076821772, 0.0063662464, -0.0025190981, -0.0024793185, -0.0021898299, -0.0149133140, 0.0017105648, 0.0109724617, 0.0133550698, 0.0132225929, -0.0152584668, -0.0053721936, 0.0102080693, 0.0040018270, 0.0151092028, -0.0081318449, -0.0029146243, -0.0100102704, -0.0045283744, -0.0046465546, -0.0082861334, -0.0003502434, 0.0001224494, -0.0130265905, 0.0022405954, 0.0135104572, 0.0049862145, -0.0130843297, -0.0003721807, 0.0141280154, 0.0142841870, 0.0003775069, -0.0140696382, -0.0154520478, 0.0048075086, -0.0077959928, -0.0152496006, 0.0119835464, -0.0107260477, 0.0002466207, -0.0027628839, -0.0071552685, -0.0129638780, 0.0108266408, -0.0097976755, 0.0060049007, 0.0036479095, -0.0041171480, 0.0015334161, 0.0094053810, 0.0015470153, -0.0137409670, -0.0066819340, -0.0012352988, 0.0019080164, -0.0152433934, 0.0051276004, -0.0011487501, -0.0116736311, -0.0048479736, -0.0022765994, 0.0014572563, -0.0082829371, 0.0093440814, 0.0063635921, 0.0010982370, -0.0020083329, -0.0021833600, -0.0066267056, 0.0044732383, 0.0110446038, 0.0074938266, 0.0042095678, 0.0065603396, 0.0152405100, -0.0120823067, 0.0082031572, -0.0081945341, -0.0039849263, 0.0022576181, -0.0068922108, -0.0050150054, 0.0129396813, 0.0115394695, 0.0109719792, -0.0077663581, 0.0056827692, -0.0040359451, 0.0004155254, -0.0023892689, 0.0039180992, 0.0089346906, -0.0038194675, -0.0085220337, 0.0102199679, -0.0023613628, 0.0136116026, 0.0110662179, -0.0101418067, -0.0064183753, 0.0085757477, -0.0141117517, 0.0020625805, 0.0066169659, -0.0096454620, 0.0024691587, 0.0151810283, -0.0064968541, -0.0053127483, 0.0109586818, 0.0018242551, -0.0095233852, 0.0042629568, 0.0038306704, -0.0011996441, 0.0128063159, -0.0071495920, -0.0137825720, 0.0006927280, 0.0116232457, -0.0116832601, 0.0079048844, 0.0119000794, 0.0153889814, 0.0109647429, -0.0135753732, -0.0091887750, 0.0010171803, -0.0128000053, -0.0073571187, -0.0113427481, -0.0142399659, 0.0002180142, -0.0029947655, 0.0105802575, 0.0141655570, -0.0151963448, 0.0024803290, 0.0142890206, 0.0093257828, -0.0049266769, -0.0064293314, -0.0148946205, 0.0127263339, -0.0100521324, -0.0088428259, 0.0087333200, -0.0129314903, -0.0110763069, -0.0076454794, -0.0038649319, 0.0025506532, 0.0019269632, -0.0056474973, 0.0067160362, -0.0063547790, 0.0149017898, 0.0064135203, 0.0090675382, -0.0143511798, 0.0111856805, 0.0139417695, 0.0134023586, 0.0120063676, 0.0141240386, 0.0048156912, 0.0038999217, -0.0143357487, 0.0092419395, 0.0051766736, 0.0022184728, -0.0070424667, -0.0146304825, -0.0142870219, -0.0105872024, -0.0127871763, 0.0040383367, 0.0113505563, 0.0055617718, 0.0100050727, 0.0034471946, -0.0089728292, 0.0062832711, -0.0147435907, 0.0145257646, 0.0004243730, 0.0090531847, 0.0146219460, 0.0101711573, -0.0134462956, 0.0146781402, -0.0032657087, -0.0121569922, 0.0034472244, -0.0037405249, -0.0120835267, -0.0101551106, 0.0006266227, 0.0087393774, -0.0147415744, 0.0137052508, -0.0017671641, 0.0041001393, 0.0034099119, -0.0031535514, -0.0040270500, -0.0102964081, -0.0033864072, 0.0115331402, 0.0152314892, -0.0028273026, 0.0110069299, 0.0152915744, -0.0086840373, 0.0035672104, 0.0115313930, 0.0015978506, 0.0018682769, -0.0070725614, -0.0150218103, -0.0000864007, 0.0124540860, 0.0050587254, 0.0036383355, -0.0090900036, 0.0082329428, -0.0041801287, -0.0101855863, -0.0121631268, 0.0022301963, 0.0054392563, -0.0066592041, 0.0106883077, 0.0106939664, -0.0128871175, -0.0115010589, 0.0006582895, 0.0109941559, -0.0091104228, -0.0150899785, -0.0107630081, 0.0084594870, 0.0026141694, 0.0119477371, 0.0102211619, 0.0001802398, -0.0025050826, 0.0114077674, 0.0108300215, 0.0066000270, -0.0098879319, 0.0028969264, -0.0034969971, -0.0125294980, 0.0137505895, -0.0088863699, -0.0096077472, 0.0016688528, 0.0003769556, 0.0104666436, 0.0058514336, 0.0043259198, -0.0042110682, -0.0115472777, -0.0093930876, 0.0146494647, 0.0098622413, 0.0073030060, 0.0144714685, 0.0117223458, 0.0004192041, 0.0009061443, 0.0137543520, 0.0065477779, 0.0069855275, -0.0052134013, -0.0043740198, -0.0076134996, 0.0066662570, 0.0095648123, 0.0037177065, 0.0041226288, -0.0063058278, 0.0133459819, 0.0046287617, -0.0070617385, -0.0076334728, 0.0106786648, -0.0017482126, -0.0113053760, -0.0002318379, -0.0087631308, 0.0103685604, 0.0033889683, -0.0088631865, -0.0082760360, 0.0125046475, -0.0113369748, 0.0101104537, -0.0149450647, -0.0055624386, -0.0074702520, -0.0139032844, -0.0151367988, -0.0109347729, -0.0067289351, -0.0000152877, 0.0060087414, 0.0149241043, 0.0135598099, -0.0097593591, -0.0073319664, 0.0025981078, -0.0078572966, -0.0001802770, 0.0022208439, -0.0052282568, 0.0114868069, -0.0012430102, 0.0100742718, 0.0090354262, -0.0081291087, 0.0084937299, 0.0125924451, 0.0138800601, -0.0141251991, 0.0028850129, -0.0087094661, 0.0099026104, 0.0147136943, -0.0076394668, -0.0088458713, -0.0024246611, 0.0102052046, -0.0107335467, -0.0135247596, -0.0118052922, 0.0107503375, 0.0027472908, 0.0076057808, 0.0093766907, 0.0029481379, -0.0012528421, 0.0091308402, 0.0038728984, -0.0035935501, -0.0110473763, -0.0098648844, -0.0053821104, 0.0012257295, -0.0145409713, -0.0109100528, 0.0046120146, -0.0032995716, -0.0119396597, -0.0075868806, 0.0067038490, -0.0060789548, 0.0053200098, 0.0121068256, -0.0152894063, -0.0018245429, 0.0118753770, -0.0104796868, 0.0026125060, 0.0043473998, -0.0005708048, -0.0145848757, 0.0022713905, -0.0076824347, -0.0040355539, 0.0067595942, 0.0148241529, -0.0086768707, 0.0151460515, -0.0067325812, 0.0081064561, -0.0116807092, -0.0026229685, -0.0026175603, 0.0105698472, -0.0013541607, 0.0070884796, 0.0007410729, 0.0135447653, -0.0101370737, -0.0073350742, -0.0060046492, 0.0093686515, 0.0010426538, -0.0068303840, 0.0053683454, -0.0001733135, 0.0045111673, -0.0107526015, 0.0069215661, -0.0068471897, -0.0064677801, 0.0117004672, -0.0128958980, -0.0045872601, -0.0110718608, -0.0132842772, 0.0017994391, -0.0015412131, -0.0003025867, 0.0014204783, -0.0056734309, 0.0127035594, -0.0002966067, 0.0096856756, -0.0048580114, 0.0152090183, -0.0073699616, -0.0070344964, 0.0113426419, -0.0153246000, -0.0053677810, -0.0056312596, 0.0143359667, -0.0037628710, 0.0007542754, 0.0095044011, -0.0002600132, -0.0107243825, 0.0040742503, 0.0066911103, -0.0101906061, 0.0019808253, 0.0113380076, -0.0144532733, 0.0020254562, -0.0128117464, 0.0029260376, 0.0071198577, 0.0085250707, -0.0074940920, 0.0046418691, -0.0012668390, -0.0114999600, -0.0031331582, 0.0062505146, -0.0032163598, -0.0100936405, 0.0077596186, -0.0092927311, -0.0017954791, 0.0088301161, 0.0119556440, 0.0148794213, 0.0057981079, 0.0092725875, -0.0113697946, 0.0153302392, -0.0087214094, 0.0016411832, 0.0125757242, 0.0124365864, 0.0094974851, 0.0068044765, 0.0051683607, -0.0127459373, 0.0002752272, -0.0004629428, 0.0011291942, 0.0021115979, -0.0030552847, 0.0090482933, -0.0140657015, 0.0053373920, -0.0100683197, 0.0097762840, -0.0125109032, 0.0021607885, -0.0109608434, 0.0060577029, -0.0017123446, -0.0022120140, 0.0137933576, 0.0046028094, 0.0010286672, -0.0007738490, -0.0012031281, -0.0053755231, -0.0066496087, -0.0064225774, -0.0098489523, -0.0026466604, -0.0066293748, 0.0135963159, -0.0029441966, 0.0085026836, -0.0001492193, 0.0023049256, 0.0137048522, -0.0064858058, -0.0149449501, 0.0072048875, 0.0013608737, 0.0148860021, -0.0090199960, 0.0104139661, 0.0141450977, 0.0010102401, -0.0117849698, -0.0113212895, 0.0001733610, -0.0061303684, -0.0043648705, -0.0144376503, 0.0092199212, -0.0059111267, -0.0081091989, 0.0046807388, -0.0129521517, -0.0015830649, -0.0061593326, 0.0082227839, 0.0078696487, 0.0139072733, 0.0023874519, -0.0055854861, 0.0108982744, 0.0046537695, 0.0147193344, 0.0061724735, -0.0123980427, 0.0133233564, 0.0096737621, -0.0151798632, 0.0061826548, -0.0038418407, 0.0083804047, -0.0120797371, -0.0149621693, 0.0122041190, -0.0045481222, 0.0118242437, -0.0109926118, -0.0125012491, 0.0113158124, 0.0149899414, 0.0124263195, -0.0026395498, -0.0054447781, 0.0090868110, 0.0102015408, -0.0096576717, 0.0006014938, 0.0154212518, 0.0134131340, 0.0072017470, 0.0029714098, -0.0012245970, 0.0009451313, 0.0108790351, 0.0076806685, 0.0150935398, -0.0052582491, 0.0109662572, -0.0130308224, 0.0033980003, -0.0120297614, 0.0028040828, -0.0119091477, -0.0104150055, -0.0134589104, -0.0082166931, 0.0056137228, 0.0081769684, -0.0104396194, -0.0004177298, -0.0050946856, -0.0153965205, 0.0123882154, 0.0118083628, 0.0018688040, 0.0133415563, -0.0127886990, 0.0085232751, -0.0114121735, 0.0007706238, 0.0056523634, -0.0149127468, -0.0022495231, -0.0032504285, 0.0150496727, -0.0020362232, 0.0013558669, 0.0007985225, 0.0132272346, -0.0131618315, -0.0000532344, 0.0013293633, -0.0129732825, 0.0059167603, -0.0097018592, 0.0008987905, 0.0109254541, 0.0045361714, 0.0049735969, -0.0037348000, -0.0025964668, 0.0051953224, -0.0021164790, 0.0108193206, -0.0122991158, -0.0121603655, -0.0128307343, -0.0027740756, 0.0074420637, 0.0137758320, 0.0018907944, 0.0142433057, 0.0129655404, -0.0058564618, -0.0138861723, -0.0095641445, -0.0125335567, -0.0021622004, 0.0023497948, -0.0017974293, -0.0046279244, 0.0015452644, 0.0029019983, 0.0114114108, -0.0090286843, 0.0150135094, -0.0015606042, -0.0039498359, -0.0079923905, -0.0015697312, -0.0005376386, 0.0009790575, -0.0135279074, 0.0099922484, -0.0148394024, 0.0023346068, -0.0088265520, 0.0032809405, -0.0102861784, 0.0094465809, 0.0018333746, 0.0057801111, -0.0111206528, -0.0083486382, 0.0041154074, -0.0013107359, -0.0057008909, 0.0073237708, 0.0063964603, -0.0044830544, -0.0075258128, -0.0127626481, -0.0105446689, 0.0099513298, -0.0013616076, -0.0021717120, -0.0149718570, -0.0019370494, -0.0142673403, -0.0134039065, -0.0109172594, 0.0060330974, -0.0116012860, 0.0058495356, -0.0106160734, 0.0137843965, -0.0065710088, 0.0136318738, 0.0105212713, 0.0021348810, 0.0075086271, -0.0049048606, -0.0057807295, 0.0109757865, 0.0113369832, 0.0019121012, -0.0028473232, 0.0091896122, 0.0028573507, -0.0014224099, -0.0108680613, 0.0100085018, -0.0068708556, -0.0044299308, 0.0018586414, -0.0094664786, -0.0020413548, 0.0105407434, 0.0106263114, 0.0093138674, -0.0151481749, -0.0046102479, -0.0032556858, 0.0033162599, 0.0031536920, 0.0003565131, 0.0154071515, -0.0142035447, 0.0116136866, -0.0141313812, 0.0135787865, -0.0112339864, 0.0138555234, 0.0025732806, 0.0059114629, 0.0139894346, 0.0006732298, 0.0009497395, -0.0142032681, -0.0075296611, -0.0066263704, -0.0016674530, 0.0061273640, -0.0111187026, 0.0049181180, -0.0009719934, -0.0001103878, -0.0143761216, -0.0073083481, -0.0113280583, 0.0076642493, 0.0037801312, 0.0139825260, 0.0102011682, 0.0070048282, 0.0012081927, 0.0103896176, 0.0042729555, -0.0087255929, -0.0122149419, -0.0039684847, 0.0077133635, 0.0144084720, 0.0094568944, 0.0099469582, 0.0013665473, 0.0053203935, 0.0003763689, 0.0052922806, 0.0049976753, -0.0148701910, 0.0150342816, -0.0006945590, -0.0152111705, -0.0073506152, -0.0040052449, -0.0122966971, -0.0127410870, -0.0120679671, 0.0048599755, 0.0107517270, 0.0072469106, -0.0002610851, -0.0086753629, 0.0147046344, -0.0068145394, -0.0100766178, 0.0010893932, 0.0088357339, 0.0060390988, -0.0138586722, 0.0047723362, -0.0056596482, -0.0012914492, -0.0141520025, 0.0024665045, -0.0052713063, -0.0098311324, -0.0135002937, 0.0151365297, -0.0088649932, 0.0130086811, -0.0137509024, 0.0108390870, -0.0041934401, -0.0107734511, -0.0051063756, -0.0098698642, 0.0119539304, -0.0029154168, -0.0001666602, 0.0050175386, -0.0122639742, 0.0141845820, 0.0149879893, -0.0016802698, -0.0070633423, -0.0027812636, -0.0091759842, 0.0113184368, -0.0134119578, -0.0003980845, -0.0146975452, -0.0123847676, 0.0128944935, 0.0125752790, 0.0149558214, 0.0047502266, -0.0039080400, 0.0100110779, 0.0108481580, -0.0029323520, 0.0058609368, 0.0119217327, -0.0003773049, 0.0027858829, 0.0057792412, 0.0091663664, -0.0136280218, -0.0006351685, -0.0123898443, -0.0081765009, -0.0151945530, 0.0114624361, 0.0080677057, 0.0131040076, -0.0088899825, -0.0123972725, -0.0072463881, 0.0051628528, -0.0143411160, 0.0015197927, 0.0045426404, 0.0037834821, 0.0074651474, 0.0069032228, 0.0054101786, 0.0088265697, 0.0012540510, -0.0082910173, -0.0138537176, -0.0113136377, 0.0053518275, 0.0070173191, -0.0122152548, -0.0002549142, 0.0076480405, 0.0022847606, 0.0019747065, -0.0094247200, 0.0056947498, 0.0088312579, 0.0133604845, -0.0033206679, -0.0154011911, 0.0047859838, 0.0080365939, -0.0072785839, 0.0032894788, 0.0089461850, -0.0046652341, 0.0139937503, 0.0143265473, -0.0085438713, 0.0139298933, 0.0116856480, -0.0120959757, 0.0107637746, 0.0148444278, 0.0146396765, 0.0115045896, -0.0114984633, 0.0122715971, 0.0126825059, -0.0065531302, 0.0056644296, 0.0035379278, 0.0004404513, 0.0110081090, 0.0051730024, -0.0071921982, 0.0127870617, 0.0045902980, -0.0063980119, -0.0082644131, 0.0080850692, 0.0016557118, -0.0035204757, 0.0145867290, 0.0048903255, -0.0062054265, 0.0045125233, -0.0067979218, -0.0056109000, 0.0073290756, -0.0084268628, 0.0026529422, -0.0014213370, 0.0143055683, -0.0041726418, 0.0138235716, -0.0127004189, -0.0119221862, -0.0106872385, 0.0093615213, 0.0100612817, 0.0026534246, 0.0103134876, 0.0036737090, -0.0010478143, -0.0020438619, 0.0087638060, -0.0119617265, 0.0096997796, 0.0085069118, -0.0036899624, -0.0048352703, 0.0015585320, 0.0093037123, -0.0151528455, 0.0019280585, -0.0030731671, -0.0153541239, -0.0115446057, 0.0115501611, 0.0098941801, -0.0091221370, 0.0020204457, 0.0076053208, 0.0092286179, -0.0086212736, 0.0119755017, 0.0093178796, -0.0109851807, -0.0102070924, -0.0069315815, -0.0096807778, 0.0010204511, 0.0080580069, -0.0040971497, -0.0119039537, 0.0123779522, 0.0004410343, 0.0080866320, -0.0031761713, 0.0151403816, -0.0026427312, 0.0041803764, 0.0049730660, 0.0023083715, 0.0034434060, -0.0146308476, 0.0136979176, -0.0086415671, -0.0073300535, -0.0120109869, 0.0112473378, 0.0009326460, 0.0077670207, 0.0060471455, 0.0018374892, -0.0001004124, -0.0138496449, 0.0088606616, 0.0087475525, -0.0054591550, 0.0119537795, 0.0137974573, 0.0001883162, 0.0038407641, 0.0016079331, 0.0144537659, 0.0022986988, -0.0021654041, 0.0013262341, 0.0126465494, 0.0064146081, 0.0102998959, 0.0140800895, -0.0026006810, -0.0151631124, -0.0111684725, -0.0149186114, -0.0092324987, 0.0050699459, -0.0143844783, 0.0124785779, 0.0123810107, 0.0078301327, 0.0146455569, 0.0093268221, 0.0109248133, 0.0109372502, -0.0141948638, 0.0101936953, -0.0146912970, -0.0062747439, -0.0031604888, -0.0001564156, 0.0027631866, 0.0088450266, -0.0036396664, 0.0052852808, -0.0018253494, -0.0109645184, -0.0027077319, 0.0106852176, -0.0041226074, -0.0032553794, -0.0128825204, 0.0080710677, -0.0143939778, 0.0004696855, 0.0117461337, -0.0053621409, -0.0083798654, -0.0055947537, 0.0146655245, 0.0129951751, -0.0041041756, 0.0024651410, 0.0077196406, -0.0029373616, 0.0031616064, 0.0142906671, 0.0129262665, -0.0097588804, 0.0114505561, 0.0106513342, -0.0149219846, 0.0047064582, 0.0064858207, -0.0041838223, 0.0035724053, -0.0053666169, -0.0069687581, -0.0071755657, 0.0153342718, 0.0075453175, -0.0033683842, 0.0034945244, 0.0142490892, 0.0020523397, 0.0151211424, -0.0145190479, -0.0045409594, -0.0104826652, 0.0113386447, -0.0024712235, 0.0129017374, 0.0020295409, -0.0015234193, 0.0046700770, -0.0138459029, -0.0113355378, 0.0041656820, -0.0127028152, 0.0109092901, -0.0054497030, -0.0054351678, -0.0000168020, -0.0154057769, -0.0140387360, -0.0141219990, 0.0104400245, -0.0022917166, 0.0052616848, -0.0109304413, 0.0134949004, -0.0121378936, 0.0098084128, -0.0042476114, -0.0098914076, -0.0044050515, -0.0149962939, -0.0146529507, 0.0028904164, -0.0067486754, 0.0129451742, 0.0085250931, 0.0065586707, -0.0148099307, 0.0029069232, 0.0022937031, -0.0124135287, 0.0013328576, 0.0090357186, 0.0032149227, 0.0099806795, -0.0015452793, 0.0108634243, -0.0104786428, -0.0128727630, 0.0008370290, 0.0017042635, 0.0063347844, -0.0000306228, 0.0125770876, -0.0097701345, -0.0008024545, -0.0039178636, 0.0050122188, -0.0138169760, -0.0044866158, -0.0007958487, 0.0118404636, 0.0007709665, -0.0000515906, -0.0120843304, -0.0107484646, 0.0031352481, 0.0053104768, -0.0094515309, -0.0100247134, -0.0000104802, -0.0031088358, -0.0139935231, 0.0139616178, 0.0121454941, -0.0067237411, -0.0005378267, 0.0130227963, -0.0064473534, -0.0148578491, -0.0038894238, 0.0103041576, -0.0121188425, 0.0130953258, -0.0070232386, 0.0076958267, -0.0109532122, -0.0091796368, 0.0074758185, -0.0079275584, -0.0098453835, 0.0099196965, 0.0118859159, 0.0012660092, 0.0009402325, -0.0027978634, 0.0092345187, 0.0007922659, -0.0071195373, 0.0008644769, -0.0118277017, 0.0038451245, -0.0087860199, -0.0016847784, -0.0083264951, -0.0014383132, 0.0085582780, 0.0037659826, 0.0068508210, 0.0051119970, -0.0016542226, 0.0007500676, -0.0145557532, -0.0051406026, 0.0066795340, -0.0146995615, -0.0111285169, 0.0130425701, -0.0147932274, -0.0130513515, 0.0116048558, -0.0040768748, 0.0067641800, 0.0119582536, 0.0049937284, -0.0048488099, -0.0052660936, -0.0036622817, 0.0023552394, 0.0023304122, 0.0035188505, -0.0143882530, -0.0074672736, -0.0087738810, -0.0097730169, 0.0047310824, -0.0032845903, -0.0043391101, -0.0096034268, -0.0084102638, 0.0072763870, -0.0044584703, 0.0099276034, -0.0102911070, 0.0008248454, 0.0122723235, -0.0078977030, -0.0146826375, -0.0054655392, -0.0005829697, 0.0077376040, -0.0050578294, -0.0021298276, -0.0118306652, 0.0106989285, 0.0056095356, -0.0117022041, 0.0061899731, -0.0123812621, 0.0004012519, 0.0062236218, -0.0032810364, 0.0046719210, -0.0000904407, -0.0016844757, 0.0043828515, 0.0002982812, -0.0052818265, 0.0144547140, 0.0017506676, -0.0086136572, 0.0054451292, -0.0142204873, 0.0109504545, 0.0133407703, 0.0030363882, -0.0046880525, -0.0005693268, -0.0124390936, 0.0099001331, 0.0026729805, -0.0124081168, -0.0067140758, -0.0072142985, -0.0063191978, -0.0015121205, -0.0078074238, 0.0123889158, 0.0091060465, 0.0053719571, -0.0044742040, 0.0061980831, 0.0071393037, -0.0113467295, -0.0037757261, 0.0093602901, -0.0110391006, 0.0064073866, -0.0027566794, -0.0030499687, -0.0043159602, 0.0012487834, -0.0078752823, 0.0099122031, -0.0109272487, -0.0089871287, -0.0049689515, -0.0035672300, -0.0057681706, 0.0052588983, -0.0104801171, -0.0067225024, 0.0014473042, -0.0137973055, -0.0023819879, -0.0078571821, -0.0039958889, 0.0142145967, 0.0059158495, -0.0125988778, 0.0147333173, -0.0131512443, 0.0018273918, 0.0018103579, 0.0126251737, 0.0148082869, -0.0010553859, 0.0039350418, 0.0061859367, -0.0081165098, 0.0120852748, -0.0139097096, -0.0001332760, 0.0018255385, -0.0054348912, 0.0095177488, -0.0016180519, -0.0062085520, -0.0012499401, -0.0148388091, 0.0052328529, -0.0015763883, 0.0045065554, -0.0072063431, 0.0019914238, 0.0038742991, 0.0033142129, 0.0144013586, -0.0007804073, -0.0098083653, 0.0046864888, 0.0126206158, 0.0037111780, 0.0004197126, -0.0031099683, -0.0135518983, -0.0069416594, -0.0084143477, 0.0076608742, 0.0055534029, -0.0101607833, 0.0031855861, 0.0127667254, 0.0126081379, 0.0151219694, -0.0021601329, 0.0118067628, 0.0071585560, -0.0139179565, 0.0009705899, -0.0056345258, 0.0111099547, -0.0100073433, -0.0035282867, -0.0000124415, -0.0042684097, -0.0121255880, 0.0008555232, 0.0033527697, 0.0002774606, -0.0005662525, -0.0096230637, -0.0136063239, -0.0067718262, -0.0058009932, 0.0096636945, 0.0112862485, -0.0116783455, 0.0038120849, 0.0080411313, -0.0058980398, 0.0039226590, 0.0064313663, 0.0087093627, -0.0079081794, 0.0080611324, 0.0105938883, 0.0150156869, 0.0121399863, -0.0118506160, 0.0138854617, 0.0150228282, -0.0020434745, -0.0019441089, -0.0042898385, -0.0074926913, 0.0070249820, -0.0040369770, -0.0031670844, -0.0070925308, 0.0085659185, 0.0139559479, 0.0146254292, -0.0044718152, 0.0139774391, -0.0152006317, 0.0096272444, 0.0081179542, -0.0078167617, 0.0037110122, 0.0026395610, -0.0114660859, 0.0106738685, -0.0030510491, 0.0063363919, -0.0126047097, 0.0090142461, 0.0057436163, -0.0022859443, -0.0015383232, 0.0046749366, -0.0111475233, 0.0121959830, -0.0106840860, -0.0082543902, 0.0126297446, -0.0009408407, 0.0084674871, -0.0070051681, 0.0048341500, -0.0015286356, -0.0099709257, 0.0153978849, -0.0038948795, 0.0077751903, -0.0091437576, 0.0053461352, 0.0084357476, -0.0142039359, 0.0043023946, -0.0007654363, -0.0128275426, 0.0144236675, -0.0048241224, 0.0055143768, 0.0071764691, 0.0000839783, 0.0086423000, 0.0133049274, -0.0152059691, -0.0066566095, 0.0143137490, 0.0148852793, -0.0033695269, -0.0147482837, 0.0011542542, 0.0048832214, 0.0048042899, -0.0034545716, 0.0061306162, 0.0055334540, -0.0136839803, 0.0143717686, -0.0133767780, -0.0001198249, -0.0100227594, 0.0087333573, 0.0024898062, 0.0104804384, -0.0002610264, 0.0039782571, 0.0130878827, 0.0146163413, 0.0109641748, 0.0018122373, 0.0105968127, 0.0033607287, 0.0057592420, 0.0012041489, 0.0153270429, 0.0150973098, -0.0071447296, 0.0070436904, 0.0134868389, 0.0020105327, 0.0085891513, -0.0120024234, 0.0039268220, -0.0097107477, -0.0129369898, 0.0042324169, 0.0154569810, 0.0049148807, -0.0037945146, -0.0147820432, -0.0021289792, 0.0099301627, 0.0057971748, 0.0008551432, -0.0122167226, 0.0064550294, -0.0093325209, 0.0092408555, -0.0127694011, -0.0129506774, 0.0027157133, 0.0021040114, 0.0139720673, 0.0048316875, 0.0127263637, -0.0138894422, 0.0050229123, 0.0140268104, -0.0141461156, 0.0131213767, 0.0002684658, -0.0022722604, 0.0007455228, -0.0134699736, -0.0062258262, -0.0043520490, -0.0019896319, -0.0080988929, -0.0007872228, -0.0059096375, 0.0055961395, 0.0138785122, -0.0013300227, -0.0122606009, 0.0153068015, 0.0117943259, -0.0132988384, -0.0020772489, 0.0041020485, -0.0040045781, -0.0124981049, -0.0044056969, -0.0049063796, -0.0007532788, 0.0087351771, 0.0154255992, -0.0050819572, -0.0030503003, -0.0032642707, -0.0113301743, -0.0099522211, -0.0041838223, -0.0076199258, -0.0018108590, 0.0009491863, 0.0053225504, 0.0047860825, -0.0106412433, 0.0072629722, 0.0044496348, 0.0114470245, -0.0145617733, -0.0151461773, -0.0117418952, 0.0100696618, -0.0046218680, -0.0051106112, -0.0048968503, 0.0056418506, 0.0054816892, -0.0011041975, -0.0044630934, 0.0056898063, -0.0024168128, -0.0150491260, -0.0071199723, -0.0049822414, 0.0137756774, -0.0106050475, 0.0077494336, -0.0133894775, 0.0141230011, 0.0032127434, -0.0151258763, -0.0013756668, 0.0057196179, 0.0045081591, -0.0143647268, 0.0091517763, -0.0012754537, -0.0106866453, -0.0135689657, -0.0124774314, 0.0013136631, 0.0118989618, 0.0029819412, -0.0080998326, 0.0075008674, -0.0072989296, -0.0102282036, 0.0020630779, -0.0118179554, 0.0057071904, -0.0137626398, 0.0133438921, 0.0037932610, 0.0134037631, 0.0093116676, -0.0095894039, 0.0112533504, -0.0024018763, 0.0146472147, -0.0012429031, 0.0031214105, -0.0009582471, 0.0024025058, 0.0100322263, -0.0134559246, -0.0009936914, 0.0039426619, -0.0146663692, 0.0138215581, -0.0120829670, 0.0110452855, -0.0031099822, -0.0029305127, 0.0014808280, 0.0132725881, 0.0007263767, -0.0109253619, -0.0008441880, -0.0066979071, 0.0148110474, 0.0020727916, 0.0025642226, 0.0150247337, 0.0099752722, -0.0048864400, -0.0107588274, -0.0130545367, -0.0131502077, 0.0154238334, -0.0148029411, 0.0102818357, -0.0121157123, -0.0146101564, 0.0118235843, 0.0056124413, 0.0108299656, -0.0065036183, -0.0019163107, -0.0150845638, -0.0135191381, -0.0088354349, 0.0091400528, 0.0129722198, -0.0123370001, 0.0074203862, -0.0048554568, -0.0102244280, -0.0114979986, -0.0108654769, -0.0012222305, -0.0068064816, -0.0000068750, 0.0097353505, 0.0008704467, -0.0048294049, 0.0032030260, -0.0137703922, 0.0007325141, 0.0097176218, -0.0097648483, 0.0048575765, -0.0100118145, 0.0056346217, 0.0127060926, 0.0124106640, -0.0060967673, 0.0143375723, 0.0042540180, -0.0041313879, -0.0053052828, 0.0046107909, 0.0129895872, 0.0123610729, -0.0085637700, -0.0039443905, 0.0075367512, -0.0103267394, 0.0023708371, 0.0007155603, -0.0052488046, 0.0060442956, 0.0049068229, -0.0143573247, 0.0056803459, 0.0086051421, 0.0055599092, -0.0041455803, -0.0131136365, 0.0002430184, -0.0129986955, 0.0114462906, -0.0083555058, 0.0089832684, -0.0121505335, -0.0141526144, -0.0079177003, 0.0037108092, -0.0137886535, -0.0007793233, -0.0126511799, -0.0094619486, 0.0136411628, -0.0032441253, -0.0010606432, -0.0091800541, -0.0114191733, -0.0009433804, -0.0086044455, 0.0087062726, -0.0134237427, -0.0030792570, -0.0147701073, -0.0154555645, 0.0010222429, 0.0005725818, -0.0087412056, 0.0075537888, 0.0007118927, -0.0095460825, 0.0026016580, -0.0115450844, 0.0026067151, 0.0048180250, 0.0011190856, 0.0105705140, 0.0118617387, 0.0062651532, -0.0019473825, 0.0059671151, 0.0151305282, 0.0144308088, -0.0147304861, 0.0037992848, 0.0074645123, 0.0001444975, 0.0003495654, -0.0098799653, -0.0086191613, -0.0095957853, -0.0003907345, 0.0098836487, 0.0051347530, -0.0122557674, -0.0126705850, 0.0054502962, 0.0111235576, 0.0097117433, 0.0095871547, 0.0020849640, -0.0147104766, 0.0114009110, 0.0015697712, -0.0021019327, -0.0152623337, -0.0031114686, 0.0109912707, 0.0021159453, -0.0022924803, -0.0113673583, 0.0015872559, 0.0023753969, 0.0058161104, 0.0101982923, 0.0096363155, -0.0114850923, -0.0012072930, -0.0136206048, 0.0051610628, 0.0032002730, -0.0062330626, -0.0058227172, -0.0075549604, 0.0005416898, 0.0050280923, -0.0135086244, -0.0006859992, 0.0100041023, -0.0110592935, 0.0066917697, -0.0047740070, -0.0144900149, 0.0137302773, -0.0069713052, 0.0126506491, 0.0007739747, 0.0073813600, 0.0020304872, -0.0026711859, -0.0036422247, -0.0042008171, -0.0143829854, 0.0062466646, -0.0118220104, -0.0013775248, 0.0051741237, 0.0099843917, 0.0151882051, -0.0038446533, -0.0048543764, -0.0089058187, -0.0114350766, -0.0080783153, 0.0021290267, 0.0065086605, 0.0125229498, 0.0044850381, -0.0032034023, 0.0084908167, 0.0121033518, 0.0000015004, 0.0111115584, 0.0036746385, 0.0105119264, 0.0135994265, -0.0093603153, -0.0087071620, 0.0059876377, 0.0096018305, -0.0072597954, 0.0131803406, 0.0075582536, 0.0089579849, -0.0133831855, -0.0033399770, 0.0068483660, -0.0047712419, -0.0046898657, 0.0086254468, -0.0070988378, 0.0090577817, -0.0148954242, 0.0033908421, 0.0054306267, -0.0007281825, -0.0102940528, 0.0017025201, -0.0078064324, -0.0003945939, 0.0045030853, -0.0004028436, -0.0087866019, -0.0111869667, 0.0039994093, 0.0119505683, -0.0049164919, 0.0022501303, -0.0143999280, -0.0110792965, -0.0140549960, -0.0136750815, -0.0153174410, 0.0035216929, -0.0059654852, -0.0042691873, -0.0077902051, 0.0016661482, 0.0112387715, -0.0052183960, -0.0141085107, 0.0021791914, -0.0090851188, 0.0008937335, -0.0078456588, 0.0111421561, 0.0056131044, 0.0025734929, -0.0134571884, 0.0150281405, -0.0142377615, -0.0083636679, -0.0034740502, -0.0138389245, -0.0061649829, 0.0144783175, 0.0086541297, -0.0063343709, 0.0143000158, 0.0015258966, 0.0095201554, 0.0011219168, 0.0004876489, -0.0081569124, 0.0134935947, 0.0140541559, 0.0089794053, -0.0012197495, 0.0143319881, 0.0135571146, 0.0084869536, 0.0007758839, -0.0072017349, -0.0101415999, -0.0040520029, -0.0083979871, 0.0084661627, -0.0081458492, 0.0137629053, -0.0103692282, 0.0023305444, 0.0150473686, -0.0063135279, -0.0121679548, 0.0003161924, -0.0147244036, 0.0051147649, 0.0057480643, -0.0035955263, -0.0135333156, -0.0113280546, -0.0105282832, -0.0149513790, 0.0078371400, -0.0137500428, 0.0009369263, -0.0146244960, -0.0050732205, 0.0001045084, 0.0040935585, 0.0078445012, -0.0045901798, 0.0085714413, -0.0131607251, -0.0056856405, 0.0014279755, -0.0081542172, -0.0010664156, -0.0048936876, 0.0126022836, -0.0125604812, 0.0002060672, -0.0095972596, -0.0083664432, 0.0147516197, 0.0118023185, -0.0036504380, 0.0059992792, 0.0065360395, 0.0066230884, 0.0154600134, -0.0140874283, -0.0119753517, -0.0080435639, -0.0021056673, -0.0134459641, -0.0116095515, -0.0071815373, -0.0153789110, -0.0138259893, -0.0033959616, 0.0135042528, -0.0018232670, -0.0081548877, -0.0026977602, 0.0079150544, 0.0150580397, -0.0103597436, -0.0030736569, -0.0147975590, 0.0006876579, -0.0047224350, 0.0144448085, 0.0114552481, -0.0107203312, 0.0018954342, 0.0105573898, 0.0145700267, 0.0087961359, -0.0119737145, -0.0058725309, 0.0099567333, 0.0089700492, -0.0148733761, 0.0112011926, -0.0011370536, -0.0149105936, 0.0108282557, 0.0091324067, 0.0099477014, 0.0100304158, -0.0106285298, 0.0145216035, 0.0011449931, 0.0020093350, 0.0107733952, -0.0004688920, 0.0007560616, -0.0012882529, -0.0136385243, 0.0147034796, -0.0085250307, -0.0068964064, 0.0046793418, -0.0021245964, 0.0013413327, -0.0005011735, -0.0060830982, 0.0135885840, 0.0027413731, 0.0014553471, -0.0139479153, -0.0140174767, -0.0050156908, -0.0086513497, 0.0123208826, -0.0075300047, 0.0071580810, -0.0136479391, 0.0091279773, -0.0133047588, -0.0116120577, 0.0083751259, 0.0032047471, -0.0103644989, 0.0111736739, 0.0008827886, -0.0128364749, 0.0049659209, -0.0002774643, -0.0041416213, -0.0092716962, 0.0110284360, 0.0023681903, -0.0119558247, -0.0102298260, -0.0055889403, 0.0148634603, 0.0119629866, -0.0145248612, -0.0130933207, 0.0089282421, -0.0053922180, -0.0010004854, -0.0060239509, -0.0044552302, -0.0050167013, -0.0128834639, -0.0057655564, 0.0037571760, -0.0049258545, 0.0128715867, -0.0123711545, -0.0082691759, -0.0091937929, -0.0029288391, -0.0064545237, 0.0000876356, -0.0104425168, -0.0026194993, 0.0051877843, -0.0003721807, 0.0039940467, 0.0114791179, 0.0153941205, -0.0023293579, 0.0066530230, -0.0065691732, 0.0041580731, 0.0031470964, -0.0122091100, 0.0115035502, 0.0025903033, -0.0100363214, -0.0015700813, -0.0074832765, 0.0098285517, -0.0078986138, 0.0019898200, -0.0113536855, 0.0063094357, -0.0086440956, -0.0002254713, 0.0074766511, -0.0078558959, 0.0137845362, -0.0034640748, 0.0122049740, -0.0031684963, 0.0008425480, 0.0110368365, -0.0025678314, 0.0089467736, 0.0015336266, -0.0052887537, -0.0017851284, 0.0053381240, 0.0135304360, 0.0117622511, 0.0100281490, 0.0049420940, -0.0006331895, 0.0023911996, -0.0016602417, 0.0010569571, 0.0050574159, 0.0074419631, 0.0040677646, -0.0135369720, -0.0028756894, 0.0104647903, 0.0024390491, 0.0115720900, -0.0029240577, 0.0060875146, -0.0064279418, -0.0103930868, 0.0146405241, -0.0069129728, 0.0119579742, -0.0092317583, 0.0054156417, 0.0080870735, 0.0090904525, -0.0019253157, -0.0101496149, 0.0000546724, 0.0032328712, 0.0043992167, -0.0036671404, -0.0087775709, 0.0153422384, -0.0133293942, 0.0130528258, -0.0069896895, -0.0042016311, 0.0066599278, -0.0110018123, -0.0064744744, -0.0074354643, 0.0035568485, 0.0035621310, -0.0003511654, -0.0063607320, 0.0150535023, -0.0011299169, -0.0152288983, -0.0018769326, 0.0153672183, -0.0003780574, 0.0053224461, -0.0006769570, -0.0073892558, 0.0146887349, -0.0114836954, -0.0082839318, 0.0014768103, 0.0142590022, -0.0055658892, 0.0035180645, 0.0016588671, -0.0027137045, 0.0094761821, -0.0065728445, -0.0086316057, -0.0143852821, 0.0057140356, -0.0004390627, -0.0077490509, -0.0085971393, -0.0121023674, 0.0141620887, 0.0050317822, 0.0029698601, -0.0012225248, 0.0003338838, -0.0121667096, 0.0046447637, -0.0034172656, 0.0075124865, -0.0073378235, 0.0150410281, -0.0096273404, 0.0053554652, -0.0106041115, 0.0145922741, -0.0116834883, 0.0015028054, -0.0059511829, -0.0049830666, 0.0021597045, -0.0025424771, 0.0110955900, -0.0010318896, -0.0068969736, 0.0124096172, 0.0031601982, 0.0114011774, 0.0087757604, -0.0017555896, 0.0098428400, 0.0070018126, -0.0141166244, 0.0053686844, -0.0045125270, 0.0135156466, 0.0084329667, -0.0028048381, -0.0019363128, 0.0006329892, -0.0054388950, -0.0026310785, -0.0045772558, -0.0060127517, -0.0134837488, 0.0064528203, 0.0004095240, 0.0083272131, -0.0129150562, -0.0027017379, -0.0101802889, 0.0078192754, 0.0074840290, 0.0097378818, -0.0092356252, 0.0095228469, -0.0094984844, 0.0053560948, -0.0077370591, -0.0068076281, -0.0033472879, 0.0054493351, 0.0126975654, -0.0147914765, 0.0041567320, 0.0056468779, 0.0127861602, 0.0128475698, 0.0134774903, 0.0033899276, -0.0088351890, 0.0054314779, 0.0058707101, -0.0151612433, 0.0134496400, -0.0114188939, 0.0109649645, -0.0058542909, 0.0064039910, -0.0036463831, 0.0039872518, 0.0079723066, -0.0118766529, -0.0112627465, -0.0015368080, -0.0103792259, -0.0118859643, 0.0125728818, 0.0106061986, 0.0100234961, -0.0100354329, 0.0150334341, 0.0027547805, -0.0130218090, 0.0046381531, -0.0075099356, -0.0034861928, -0.0013929522, -0.0000617830, -0.0035407981, -0.0108265411, 0.0133421002, 0.0058776615, -0.0119989589, 0.0103458492, -0.0032153567, 0.0001327861, 0.0027726078, -0.0029744832, 0.0122359758, 0.0026984466, 0.0061261738, -0.0109776631, 0.0045951894, 0.0037383875, -0.0056243809, 0.0109816594, 0.0050333673, -0.0042109909, -0.0017375741, -0.0146354185, -0.0016350867, 0.0115221841, 0.0061564380, -0.0139787365, -0.0113889966, 0.0138940280, -0.0148430010, -0.0016274117, 0.0105840685, -0.0073940698, 0.0149753215, 0.0081940079, -0.0054756915, 0.0055873999, 0.0051271329, 0.0101861199, 0.0079869078, 0.0106030488, -0.0002232967, 0.0100117410, -0.0140389204, -0.0084641986, -0.0103522670, 0.0138911242, -0.0004751962, 0.0134150358, -0.0062892465, -0.0089748017, -0.0117428461, -0.0064453818, -0.0034252871, 0.0013547288, 0.0034988364, -0.0028050663, 0.0133401798, -0.0148288561, 0.0010103388, -0.0064807376, 0.0154501973, -0.0080215894, -0.0000883099, 0.0111911027, 0.0094172033, -0.0018418385, 0.0060883993, -0.0108420830, -0.0120581100, 0.0021263333, -0.0015621334, -0.0104968054, -0.0105309747, -0.0039778333, 0.0029285820, -0.0038049659, -0.0040601091, 0.0094654402, -0.0154254399, -0.0100057144, -0.0127076292, 0.0028472496, -0.0118858060, 0.0074738571, -0.0062523754, -0.0078408588, -0.0021985667, 0.0084423712, -0.0034290580, -0.0047733141, -0.0105820857, 0.0096563669, -0.0081289066, 0.0117803505, -0.0118787214, -0.0055472292, -0.0026572179, 0.0048884051, -0.0095603373, 0.0014632037, -0.0120786866, 0.0018318603, 0.0069987653, -0.0060230186, 0.0052093687, -0.0057210475, 0.0058206609, 0.0111853378, 0.0108433580, 0.0068169767, 0.0135097532, -0.0051587988, 0.0118364273, 0.0125401216, 0.0117563019, 0.0051508369, 0.0118107265, -0.0116396686, -0.0141405119, 0.0007180786, 0.0123126926, -0.0009587193, 0.0002834173, -0.0112350881, 0.0028159088, 0.0010728957, -0.0007449258, 0.0090254778, 0.0037064375, 0.0086207027, -0.0064689415, 0.0116292322, -0.0128204906, 0.0132226637, 0.0108649051, -0.0105739161, 0.0087363506, -0.0069964863, 0.0087189535, 0.0091666160, 0.0154604940, 0.0132801076, -0.0070255576, -0.0081001753, 0.0038012723, 0.0038210647, -0.0067770351, -0.0146603491, 0.0132574076, -0.0096948482, 0.0029055635, -0.0050938856, 0.0091553358, 0.0081586698, 0.0045345901, 0.0093353959, 0.0018996736, 0.0036077974, 0.0032534031, 0.0048907613, -0.0056878040, -0.0084716342, -0.0003826171, 0.0094572781, 0.0151884956, 0.0061556688, -0.0078555271, 0.0041684909, -0.0122803114, 0.0122702988, -0.0121372333, -0.0039542811, -0.0018613581, -0.0097467592, 0.0143068815, -0.0151977120, 0.0115702404, 0.0017134072, -0.0005252529, 0.0137573602, 0.0044741957, 0.0135789337, 0.0050804345, 0.0092437165, 0.0046492023, -0.0144095747, 0.0106558083, -0.0081837261, 0.0010796683, -0.0140441321, 0.0013789656, -0.0008953139, -0.0082459664, -0.0083411662, 0.0077919262, 0.0027284613, 0.0090174200, -0.0110694682, -0.0068788771, 0.0085736392, -0.0052288948, -0.0053783394, 0.0091669494, 0.0127565572, 0.0011182604, -0.0139363213, 0.0014440296, 0.0103303371, 0.0033677937, 0.0087059336, 0.0066792360, 0.0070529534, -0.0011539925, -0.0074325781, -0.0012654532, 0.0062218709, -0.0006892877, 0.0142893111, 0.0026776893, -0.0098902546, 0.0117078470, -0.0063700220, -0.0096205315, 0.0009086626, -0.0027707461, 0.0005267682, 0.0056325207, -0.0117619932, -0.0049823700, 0.0085420208, 0.0062424326, -0.0095835133, -0.0136083215, 0.0034826649, -0.0071533667, 0.0071536181, 0.0144937644, -0.0130217765, 0.0140263168, 0.0068188636, 0.0017710207, 0.0024345657, 0.0042309603, 0.0037935646, 0.0033684941, -0.0139683634, 0.0031815609, -0.0069822166, -0.0057715466, -0.0091371369, -0.0151981069, 0.0056689596, 0.0066084405, 0.0149361761, 0.0052828556, -0.0024785008, -0.0084458627, 0.0077334465, 0.0073562441, -0.0146637997, 0.0015934864, 0.0019783145, -0.0145825157, 0.0125851715, -0.0064946348, -0.0033360701, 0.0050457465, -0.0154053345, 0.0152029032, -0.0030658497, 0.0057185376, 0.0107156383, -0.0105702337, -0.0010620067, 0.0085874284, 0.0041467631, 0.0033898978, 0.0123060467, 0.0090690693, 0.0024078032, -0.0000929181, -0.0050623119, 0.0136338165, -0.0011099884, -0.0142833209, -0.0053388365, 0.0053697350, 0.0019271960, 0.0018490711, 0.0097234501, 0.0024828063, -0.0065437704, -0.0027998872, 0.0021757660, -0.0138508575, -0.0073512942, -0.0142434537, -0.0135007836, -0.0005663736, -0.0138562061, 0.0061562909, -0.0148189291, -0.0027488573, -0.0019098744, 0.0107074799, -0.0069184545, 0.0005206047, -0.0018149177, 0.0024927342, 0.0145554440, -0.0125923278, 0.0040061707, 0.0043923995, 0.0020342926, 0.0061038444, -0.0114039779, 0.0098502869, -0.0002333606, 0.0127283791, -0.0124707632, -0.0026587145, -0.0145635130, 0.0034949081, 0.0015782574, -0.0007184176, 0.0106629310, -0.0018082084, 0.0098068165, -0.0063885711, -0.0138919931, -0.0086914282, -0.0003355015, -0.0131298853, 0.0077824378, -0.0094048101, 0.0007823342, -0.0006732335, 0.0082376907, 0.0065751923, -0.0124185719, 0.0150554189, -0.0136963660, -0.0049978420, 0.0154170198, -0.0133460127, 0.0092121167, -0.0151483892, -0.0003950698, -0.0112719927, -0.0123304129, -0.0071791671, -0.0008885534, 0.0020529712, -0.0069716256, 0.0148708252, -0.0091804918, -0.0126579441, -0.0040387614, 0.0101059275, 0.0037473338, 0.0010349127, 0.0042227609, 0.0084037641, 0.0146950306, 0.0135807367, 0.0077224942, -0.0124223167, -0.0094145201, -0.0116770295, 0.0115413470, 0.0059953341, 0.0047691045, 0.0022245003, -0.0002382416, 0.0016399333, -0.0094354469, -0.0018903883, -0.0048388168, -0.0095082009, -0.0142179178, -0.0060062679, -0.0134249739, -0.0011968091, 0.0133248670, 0.0019138558, 0.0040865848, 0.0013382835, -0.0152586065, -0.0070750210, -0.0135714654, 0.0123463897, -0.0113856792, 0.0028229272, 0.0071232868, 0.0128902541, -0.0137115242, -0.0006634286, -0.0100388657, -0.0125871114, -0.0065758489, -0.0008330261, -0.0013735881, 0.0001292434, -0.0077699963, 0.0093511855, 0.0064942809, -0.0130939027, -0.0082914885, 0.0084029613, 0.0046860324, -0.0104297698, -0.0089673400, 0.0143426647, -0.0025471766, -0.0071430076, 0.0014992515, -0.0130030271, 0.0127757890, 0.0135386093, -0.0117792413, -0.0120427012, 0.0107043507, 0.0008107601, -0.0041242922, -0.0119406627, -0.0113626253, -0.0093808752, -0.0059744399, -0.0030316068, -0.0040550586, 0.0152755501, 0.0064434754, -0.0128591936, -0.0028053243, 0.0067311181, 0.0145767732, -0.0038005793, -0.0152281616, -0.0135532478, -0.0115114767, 0.0057561090, 0.0146319726, -0.0005457047, 0.0116213588, 0.0118934596, 0.0113248555, -0.0117055550, -0.0023466358, 0.0026421146, 0.0138849234, 0.0043175751, -0.0014980240, -0.0080115106, -0.0086056329, 0.0086556962, -0.0084636826, -0.0145170465, -0.0032522576, 0.0142354248, 0.0079983724, -0.0060194023, -0.0008974187, -0.0057781525, -0.0116614774, 0.0010281326, 0.0095530720, -0.0111160744, -0.0022145547, 0.0061862981, 0.0117742056, -0.0001995489, -0.0030394476, -0.0074455608, -0.0052094636, -0.0131715741, 0.0089830616, 0.0033090198, 0.0058252821, 0.0149157764, 0.0053877467, 0.0098982500, -0.0055758459, 0.0058897389, -0.0067174081, -0.0112260347, -0.0096541140, -0.0007923394, 0.0138287982, 0.0106849568, 0.0011141384, 0.0142377028, -0.0090666991, 0.0013732789, 0.0084883580, 0.0053992411, -0.0118741868, 0.0006172890, 0.0138585204, 0.0108024227, -0.0013561808, 0.0068544773, 0.0016586939, 0.0101413270, -0.0028500622, -0.0106381811, -0.0024691075, 0.0113333734, 0.0120860739, -0.0082117794, 0.0033856472, 0.0037152106, 0.0022788411, -0.0069242455, -0.0061414829, 0.0065525798, 0.0153636942, -0.0088604325, -0.0150253680, 0.0145564387, 0.0058495803, -0.0151113337, 0.0031441851, 0.0060279360, 0.0013281731, 0.0124238608, 0.0147290109, -0.0101390239, 0.0141607942, -0.0068647666, 0.0056092599, -0.0034073126, 0.0140409032, -0.0092574228, 0.0037816605, -0.0150836892, -0.0139719499, -0.0107260738, -0.0083549386, -0.0131964646, -0.0107520632, -0.0009469232, 0.0125238867, -0.0120546408, 0.0153190931, 0.0141672818, -0.0038429536, 0.0084360195, 0.0100296279, -0.0142317750, 0.0066688815, -0.0104998210, -0.0150286043, 0.0111385686, 0.0140835950, -0.0078887483, -0.0115666203, 0.0075414469, -0.0047102142, -0.0018953569, 0.0061696274, -0.0009689676, -0.0036843708, -0.0085664690, -0.0123985624, 0.0119409310, 0.0138025181, -0.0104784146, -0.0069845282, -0.0070149889, -0.0099989306, 0.0056559062, 0.0109934071, 0.0144368643, 0.0079271374, -0.0045609474, -0.0016599027, -0.0152015388, 0.0086831087, 0.0120663820, 0.0089511974, 0.0039987238, 0.0099051101, -0.0120956842, -0.0119448612, 0.0037712427, -0.0088064577, -0.0038679503, -0.0117480289, 0.0124765830, 0.0053120842, 0.0033744229, -0.0044645602, -0.0146263763, 0.0095147742, -0.0110340901, 0.0067187725, -0.0040697893, 0.0153355068, 0.0132364361, -0.0034233956, -0.0096232928, 0.0127999866, 0.0024082242, 0.0123187853, 0.0059594223, 0.0080584390, 0.0017969096, 0.0027486617, -0.0110085290, 0.0133225331, -0.0085953921, 0.0051833158, -0.0031296201, -0.0094488245, 0.0044071423, -0.0068122065, -0.0128219277, 0.0059291935, -0.0018955786, 0.0001987936, -0.0062742764, 0.0121687362, 0.0124201560, 0.0032336963, -0.0058507146, -0.0102173658, -0.0116124302, 0.0037010042, 0.0139788510, -0.0023525124, -0.0100850994, 0.0047964277, -0.0130622815, -0.0109432442, 0.0066050822, 0.0135987150, -0.0147593394, 0.0037891781, -0.0150444591, 0.0096883932, -0.0094554089, 0.0024725245, 0.0113306968, -0.0129308850, 0.0126112504, -0.0130254477, -0.0073546041, -0.0092469379, 0.0014609871, -0.0066572474, 0.0115323523, -0.0064936578, 0.0053829877, 0.0022521438, 0.0012561632, 0.0012974134, -0.0082298089, 0.0040841186, 0.0048394250, -0.0002488028, -0.0149172619, -0.0039306963, -0.0142491451, 0.0088164872, 0.0107960561, 0.0013228962, -0.0072737364, 0.0152466195, -0.0072794436, -0.0086009065, -0.0058445074, 0.0107381726, -0.0031072581, -0.0059674317, -0.0120991571, 0.0119000422, 0.0054823486, -0.0049526142, -0.0105903130, -0.0081926994, -0.0028350102, -0.0152118783, 0.0045701442, -0.0058975350, 0.0094407732, -0.0148782898, -0.0131718842, -0.0111641632, -0.0062205400, -0.0112702418, -0.0082031786, 0.0045653814, 0.0087728752, 0.0094397226, 0.0034328261, -0.0094674304, -0.0049758637, 0.0111958506, -0.0074474998, 0.0041264305, 0.0055057863, -0.0019193590, -0.0079223532, 0.0085010687, -0.0121700494, -0.0034305882, 0.0017630691, -0.0033641411, 0.0051446287, -0.0087711755, 0.0132788913, 0.0065305801, -0.0131341545, 0.0026447875, 0.0098110558, 0.0124186566, -0.0007125046, 0.0105896639, 0.0055438532, 0.0008717133, 0.0128289619, -0.0010408256, -0.0116376262, -0.0015094038, -0.0145937484, -0.0123587018, 0.0114383874, 0.0098073082, 0.0080077061, 0.0056378217, -0.0015050210, 0.0035933657, 0.0033268733, 0.0002595847, 0.0027429657, -0.0084959893, 0.0049475497, -0.0097968495, -0.0010360256, -0.0096911546, -0.0151750045, -0.0115781436, 0.0047783935, 0.0142378090, 0.0124653401, 0.0004636394, -0.0025542993, 0.0003025541, 0.0103259692, -0.0046677142, -0.0107897371, -0.0015763110, -0.0046010660, 0.0077892905, -0.0019853516, -0.0078847045, 0.0135358730, 0.0135834096, 0.0150395269, -0.0033121789, -0.0001610899, -0.0107296761, -0.0052763931, -0.0090864319, 0.0149971703, -0.0118461810, -0.0046401154, -0.0091179311, 0.0107752690, 0.0028320318, -0.0135910176, -0.0143932551, 0.0011381889, 0.0107820770, 0.0081936913, -0.0012894953, -0.0088813417, -0.0000906726, 0.0086748591, 0.0063157482, 0.0040336670, -0.0109603927, -0.0014644973, -0.0121311033, -0.0015295902, 0.0106257284, -0.0142704444, -0.0078983037, -0.0006928081, -0.0106841642, -0.0135436775, -0.0030147675, 0.0024426440, 0.0067392765, -0.0026583830, 0.0022605127, -0.0132763516, -0.0018545128, 0.0132222613, 0.0107734883, 0.0126261273, 0.0046614474, 0.0080285342, 0.0128463870, 0.0018107807, -0.0134515269, -0.0027891267, -0.0106013576, 0.0057030478, -0.0013528559, 0.0092096915, 0.0106270472, -0.0002407366, -0.0091029014, 0.0128238900, 0.0100263236, 0.0107070701, 0.0075642793, 0.0114014009, -0.0083543193, -0.0131402994, 0.0090537993, 0.0154576665, -0.0135788489, 0.0080988044, 0.0099616656, 0.0012801094, -0.0076811998, -0.0122505631, 0.0020507770, -0.0030972725, 0.0051820492, -0.0092804469, 0.0017007990, -0.0146053713, 0.0136745656, -0.0016011754, 0.0003414666, -0.0054980898, 0.0140284142, -0.0044591120, -0.0144681511, 0.0109842876, -0.0078318901, -0.0140820285, -0.0129345125, 0.0050836271, 0.0009133043, -0.0021173451, -0.0088708941, -0.0067548798, -0.0000623288, -0.0140491575, 0.0100329267, -0.0031870715, -0.0120796049, -0.0063199243, 0.0126726972, -0.0141937500, 0.0028295917, 0.0131743131, -0.0140826218, 0.0132287266, 0.0106164897, 0.0142990695, 0.0031557744, -0.0113258576, 0.0083442153, -0.0133435316, 0.0040606512, -0.0102386363, -0.0130656660, -0.0126709687, -0.0091119371, 0.0063134367, 0.0016209865, 0.0075581009, 0.0154604083, 0.0113509679, 0.0019250503, 0.0070337662, 0.0011347746, 0.0099619022, -0.0123731708, -0.0125505095, 0.0006485311, 0.0090847472, 0.0053061200, -0.0150828008, 0.0123137655, -0.0153158745, -0.0074824803, -0.0075902352, -0.0069781728, -0.0138559369, 0.0072126025, 0.0064187879, -0.0091763604, 0.0133348638, 0.0153920604, -0.0028377352, -0.0132662319, -0.0083272178, -0.0086911153, -0.0093817003, -0.0100308256, 0.0053306045, 0.0110368812, -0.0141298212, 0.0056450693, 0.0085365279, 0.0065731583, -0.0091072666, 0.0016241344, 0.0006887494, -0.0057443194, 0.0016133925, 0.0154207507, -0.0004541026, 0.0014953734, 0.0151658943, 0.0100187669, 0.0005310150, 0.0066458406, -0.0042980220, -0.0150805898, 0.0105682211, -0.0075817825, -0.0093155233, -0.0081467777, 0.0086934259, 0.0120970821, 0.0032237833, 0.0112859672, -0.0122569399, 0.0141677624, 0.0117080649, 0.0024874257, -0.0127568236, 0.0060583418, -0.0005515106, 0.0080511281, -0.0023993729, 0.0002572807, 0.0146392277, 0.0015305383, -0.0054689199, -0.0022751950, 0.0040634749, -0.0029314086, 0.0126970233, -0.0013687704, 0.0093691749, -0.0056586014, -0.0053015379, -0.0115944035, 0.0020989059, -0.0029499913, -0.0127348676, 0.0145325223, 0.0010121381, 0.0072574513, 0.0018943073, 0.0115840165, 0.0069208806, 0.0133807184, 0.0045635356, 0.0122265527, -0.0066462765, 0.0062464597, 0.0041642366, -0.0112805888, -0.0022397581, 0.0024501150, -0.0114609990, -0.0153422942, -0.0052387994, 0.0040631751, -0.0073934253, 0.0046800608, 0.0124527114, -0.0038199173, -0.0008895416, 0.0011279406, -0.0136536639, -0.0144116944, -0.0046913000, 0.0084752319, 0.0083122281, -0.0138079925, 0.0098531703, -0.0140544912, -0.0063317353, -0.0138295535, 0.0019546701, 0.0055836057, -0.0109260771, -0.0154203530, -0.0023285216, 0.0003930489, -0.0089464681, -0.0106083984, 0.0003229128, 0.0048539238, 0.0022122180, -0.0019591535, -0.0065800110, -0.0070815934, -0.0045408672, -0.0142363682, 0.0087412344, -0.0028588837, -0.0018029260, 0.0077643814, -0.0126257408, 0.0036779130, -0.0002417583, 0.0069095632, 0.0080905324, 0.0110548893, 0.0106036207, 0.0085965386, -0.0142630609, 0.0000017146, -0.0004753908, -0.0085072257, -0.0028031236, 0.0061427811, 0.0000155894, 0.0152789084, 0.0001317533, 0.0105562294, -0.0089172907, 0.0085971979, -0.0074057924, 0.0056824079, -0.0088174492, 0.0025338354, -0.0049012741, 0.0003128899, -0.0105937636, 0.0138599193, -0.0118354103, 0.0013428768, -0.0112324301, -0.0141417542, 0.0067995144, -0.0153065920, 0.0097772861, -0.0119383475, 0.0017872369, 0.0058204355, 0.0119349482, -0.0052186465, -0.0040734718, -0.0051845293, -0.0140074715, 0.0115531655, -0.0014337348, -0.0013018372, 0.0086560724, -0.0081158783, -0.0060801497, -0.0060993182, 0.0018397933, 0.0049187737, -0.0099586835, -0.0040429672, -0.0089989845, 0.0097711412, 0.0097229155, -0.0110067409, -0.0008307546, 0.0096045872, -0.0099513587, -0.0048698373, 0.0052914070, -0.0150402021, -0.0035273284, -0.0060025146, -0.0049868897, -0.0152586512, -0.0130197443, 0.0073213419, -0.0147858625, 0.0142681962, -0.0088471808, -0.0020095790, 0.0028555812, 0.0041424474, -0.0097991163, 0.0023065759, 0.0114392797, 0.0088210506, 0.0079723401, -0.0051172096, 0.0004117461, -0.0019813338, -0.0040506460, -0.0038631177, -0.0081987474, -0.0147440517, -0.0010000542, 0.0128625473, 0.0099134734, -0.0095773898, -0.0105888387, 0.0005652541, 0.0102881463, -0.0115332734, 0.0116381394, -0.0076885172, -0.0107226605, -0.0119778030, 0.0105232885, -0.0069370922, 0.0085016107, 0.0070217205, -0.0110712415, -0.0037130797, 0.0150493504, 0.0122055272, 0.0136541212, -0.0024496177, -0.0023155678, 0.0043102531, 0.0104915714, -0.0017445264, -0.0054520480, -0.0070249047, 0.0066122590, -0.0131967701, -0.0113790883, -0.0007468536, 0.0105632478, -0.0043348931, 0.0076603899, 0.0070431186, 0.0009236140, 0.0088843601, 0.0113367578, -0.0025071949, -0.0083861724, -0.0053381724, -0.0083870646, -0.0000900868, 0.0055091335, -0.0092430711, -0.0006949017, -0.0044619869, -0.0032715332, -0.0117286202, -0.0002589216, -0.0107805468, -0.0032577831, 0.0090130912, 0.0147258779, 0.0146324476, 0.0095720151, 0.0012964373, -0.0143561084, 0.0014576698, 0.0127335479, 0.0019442858, -0.0007100198, 0.0105576711, -0.0134076402, -0.0019943025, 0.0072980048, 0.0006664870, 0.0006956505, 0.0114264758, 0.0080272490, 0.0027998062, 0.0016881106, 0.0134049607, -0.0074686557, 0.0021586316, 0.0039441409, -0.0072998954, 0.0005659936, 0.0139274197, 0.0131961321, 0.0030132299, 0.0086388877, -0.0140317278, 0.0011262754, -0.0124189807, 0.0134121897, 0.0071702795, 0.0140422313, 0.0020881118, -0.0149622355, -0.0093768090, -0.0107071009, -0.0003449982, -0.0093397610, -0.0093501415, 0.0069506587, 0.0097837048, 0.0003973776, -0.0109159425, 0.0025282884, -0.0027222820, 0.0140406927, 0.0154286129, 0.0020971699, -0.0065224851, 0.0128071057, -0.0040768851, -0.0055034244, -0.0110827796, 0.0125088496, 0.0042717243, -0.0078728050, 0.0122206444, -0.0118157985, 0.0087508960, -0.0139855016, -0.0019439878, -0.0015957421, -0.0022328533, 0.0107291890, 0.0084601128, -0.0072714295, -0.0104094688, -0.0069584912, -0.0064238682, 0.0091348486, 0.0152330892, -0.0029698797, -0.0011549247, 0.0112287598, -0.0125165880, 0.0048927506, 0.0106413430, 0.0007605376, -0.0055783605, -0.0089957621, -0.0018227547, -0.0150633156, 0.0021947445, 0.0126214614, 0.0017691730, -0.0060511008, 0.0103033679, -0.0148871113, -0.0060763927, 0.0107862903, -0.0067776283, -0.0079608355, -0.0136476625, 0.0099062091, 0.0125818988, 0.0048649041, -0.0060368236, -0.0050206967, -0.0050385650, -0.0049967030, 0.0107325176, -0.0002923645, -0.0138593912, 0.0037390208, -0.0129269669, -0.0055781761, 0.0060892133, -0.0096042231, -0.0081164725, 0.0060058078, -0.0130221965, 0.0112298494, 0.0022820989, -0.0079408810, 0.0001397086, 0.0110604065, -0.0017236508, 0.0040810024, -0.0019627139, -0.0083309151, 0.0152547183, 0.0058123982, -0.0151816504, -0.0150971636, 0.0062776385, -0.0024345741, -0.0008236812, -0.0026320666, 0.0119823990, 0.0152981682, 0.0031942902, 0.0089281695, 0.0152393943, 0.0047806306, 0.0038251122, 0.0003691437, -0.0013760617, 0.0096466606, -0.0023237290, -0.0004046243, -0.0094297333, 0.0005524131, 0.0122513147, 0.0039624432, -0.0064496286, 0.0107835671, -0.0082991235, -0.0116824564, -0.0036818348, -0.0049438253, -0.0143983606, 0.0074194698, 0.0031040357, 0.0120723350, 0.0087517658, -0.0092020612, -0.0006140750, 0.0087895887, -0.0137279108, -0.0145161916, 0.0149320336, -0.0007847566, 0.0019601295, -0.0010794252, 0.0095617818, 0.0078429049, -0.0032944400, 0.0093566598, 0.0140245659, -0.0074983500, -0.0106106065, 0.0097730504, 0.0049325759, -0.0109753013, -0.0030360967, -0.0133272633, 0.0119863776, 0.0000302689, 0.0000181515, 0.0034635430, 0.0034687640, 0.0134855406, 0.0004162332, -0.0104053356, 0.0079746703, -0.0054714447, -0.0116435615, -0.0029395698, 0.0011999691, 0.0040392326, 0.0130614443, 0.0078134993, 0.0103126867, -0.0060761794, -0.0150864990, 0.0138886059, -0.0051823026, 0.0091597056, -0.0075155022, 0.0139978053, -0.0147182103, -0.0101241153, 0.0034921383, -0.0072899861, 0.0096041048, 0.0151679264, 0.0145366946, -0.0137486383, 0.0075764889, 0.0081116883, 0.0099840825, 0.0098072262, 0.0076607550, -0.0049362285, -0.0149820829, 0.0086454088, 0.0063404171, -0.0017207870, -0.0134142982, -0.0118966438, -0.0056067454, -0.0140095362, 0.0019197678, 0.0137475664, -0.0126860756, 0.0120080495, -0.0132153388, -0.0049759969, 0.0030898927, -0.0125459684, 0.0071558962, 0.0028440459, -0.0094173141, 0.0140322251, 0.0135953268, -0.0127624599, -0.0042012036, -0.0051297983, 0.0056232112, -0.0060514547, 0.0139536066, 0.0096641732, -0.0023738192, -0.0089582615, 0.0146157714, 0.0034265844, 0.0022722567, 0.0075638751, 0.0123404255, 0.0001794947, 0.0048746290, 0.0090512345, -0.0135469846, 0.0090469094, 0.0054122312, -0.0050117504, -0.0140181435, 0.0116370851, 0.0000154125, 0.0008230610, 0.0069171200, -0.0144447833, 0.0062945364, -0.0028224438, -0.0019565839, -0.0012158053, -0.0028189644, -0.0092910128, 0.0103717139, 0.0017550541, 0.0082286512, 0.0008486556, 0.0016722931, 0.0031120135, 0.0105553074, -0.0089454139, -0.0007775761, -0.0043767216, 0.0034884894, 0.0021942528, -0.0046534268, 0.0133471703, 0.0021846322, -0.0015076715, 0.0093405684, -0.0083404072, -0.0026231566, 0.0092601916, 0.0030307407, -0.0047275992, 0.0031405604, 0.0044046948, 0.0123949675, 0.0143830040, -0.0130133638, -0.0040553240, -0.0052173641, 0.0051766066, -0.0023275707, 0.0046563903, -0.0057773013, 0.0001177751, 0.0054635601, -0.0140066538, 0.0130147683, 0.0037020901, 0.0091693448, 0.0127254231, 0.0128084244, 0.0038822396, 0.0154595869, -0.0123653626, -0.0105920937, 0.0071516270, -0.0020487458, -0.0043364931, -0.0080921277, 0.0024050763, 0.0067986632, 0.0021717930, 0.0065393494, -0.0024854895, -0.0091750138, -0.0054232460, -0.0069829430, 0.0013739942, -0.0065198056, 0.0001247609, 0.0114947064, -0.0085851215, 0.0086024096, -0.0005052583, 0.0065712882, -0.0058904756, -0.0005500652, 0.0062912805, 0.0148825338, 0.0045594582, 0.0138052246, -0.0081826979, 0.0037318366, -0.0059821811, -0.0103150355, 0.0015975004, 0.0009739185, -0.0098958090, 0.0080001680, -0.0075436877, 0.0034540994, -0.0106996614, 0.0146003021, -0.0146540720, 0.0084505333, -0.0102934558, 0.0096082715, -0.0133778285, 0.0145639116, -0.0119309202, 0.0040169759, -0.0034387866, 0.0053102383, -0.0020928942, 0.0131262699, 0.0086358683, -0.0037703253, 0.0056620734, -0.0017220508, 0.0096250800, -0.0100080548, 0.0088408990, -0.0136967497, -0.0053026807, -0.0006577550, 0.0109757511, -0.0128191896, -0.0090874787, -0.0122832609, 0.0057839816, -0.0111857951, 0.0037764562, -0.0115229413, 0.0018265592, 0.0073663974, -0.0036197528, 0.0000501415, -0.0026952503, -0.0149993571, -0.0085869608, 0.0111037707, -0.0094141178, 0.0026304005, -0.0113722980, 0.0020403815, 0.0121136112, 0.0110776955, -0.0118400473, 0.0106709013, -0.0121408645, 0.0071581146, 0.0071698623, -0.0024091937, -0.0094047505, -0.0097641367, -0.0134751042, 0.0127872834, 0.0103189973, 0.0018061670, 0.0033753878, -0.0101437941, -0.0144235129, -0.0146578206, 0.0050712517, 0.0064551057, 0.0030567450, -0.0051372116, -0.0017648712, 0.0054297084, -0.0140940454, 0.0153362295, 0.0057831993, 0.0116558997, 0.0064779976, 0.0042704297, -0.0016846601, 0.0011897748, -0.0100716958, 0.0141283991, 0.0087280190, -0.0022555357, -0.0022521550, -0.0143776368, 0.0108630108, 0.0072268909, -0.0011685686, -0.0066815400, 0.0084458804, 0.0127702979, -0.0145750586, 0.0040907012, 0.0144938668, -0.0148492893, 0.0137902861, 0.0148229869, -0.0146807870, 0.0074978815, 0.0039846012, -0.0108695580, 0.0022648508, 0.0045101484, -0.0152841350, -0.0052337274, 0.0013266383, -0.0010598172, -0.0041337730, 0.0136333527, 0.0068505658, 0.0065567391, -0.0077521768, -0.0008306075, 0.0091227265, -0.0097300708, -0.0135253826, 0.0034046648, -0.0032806564, -0.0013535637, 0.0067924736, 0.0151385544, 0.0020701298, 0.0007095998, -0.0056643700, -0.0116551556, -0.0057888543, 0.0028698025, 0.0081906794, 0.0081242649, -0.0036519384, 0.0139756734, -0.0082044881, 0.0036208658, -0.0089558866, 0.0128596807, 0.0144024128, 0.0039159292, -0.0145011954, 0.0030735759, -0.0016863672, -0.0066803750, 0.0101665491, -0.0017334716, -0.0068255654, 0.0013965769, 0.0049347049, -0.0108757839, -0.0140506718, 0.0082688397, -0.0088934107, 0.0114390841, -0.0102856886, -0.0002664747, -0.0022940505, 0.0069766203, 0.0123216761, -0.0045243492, 0.0059021795, 0.0065195141, -0.0092102084, -0.0102832522, -0.0065485220, -0.0032027531, -0.0055378322, -0.0062198620, 0.0005403897, -0.0013507698, -0.0096840216, 0.0149908056, -0.0151915997, 0.0127168121, -0.0054920111, -0.0021155132, -0.0087981848, 0.0021975236, -0.0066071125, -0.0017949706, 0.0107636536, 0.0073874304, 0.0030780109, -0.0058654938, 0.0015476728, 0.0052585220, -0.0069093788, -0.0121763600, 0.0153418584, -0.0035408651, -0.0101955496, 0.0068882192, 0.0025762403, 0.0031520659, 0.0144296763, 0.0075742742, -0.0074172132, 0.0073018493, 0.0085370662, -0.0142853893, 0.0117283026, 0.0041003497, 0.0152037842, -0.0024972567, -0.0064335633, 0.0062500788, 0.0112354280, -0.0040975921, 0.0032894639, -0.0054613296, -0.0061222324, 0.0019353097, 0.0067304978, -0.0141333416, -0.0107735097, -0.0011247378, 0.0130868023, -0.0016461750, -0.0007814867, -0.0042745620, -0.0027788235, -0.0119754141, -0.0045681130, -0.0153257502, 0.0043935971, -0.0070673311, 0.0153643014, 0.0105622346, 0.0057721594, 0.0152217215, -0.0117716324, 0.0028663417, -0.0044707088, -0.0145649398, -0.0151180867, 0.0023795227, -0.0076359753, 0.0117591033, -0.0031271828, -0.0068127448, 0.0038632983, -0.0030234084, -0.0091657285, -0.0103678647, 0.0106241843, 0.0022645714, 0.0016116304, 0.0105192410, 0.0134747652, 0.0100000734, -0.0149601717, -0.0146360975, -0.0123357764, 0.0067855800, -0.0014761090, 0.0140129970, 0.0013538515, -0.0077743572, 0.0145880533, 0.0071547525, -0.0115238624, -0.0115179457, -0.0080615822, -0.0088198502, 0.0002654726, -0.0075171646, 0.0039996719, 0.0034423592, 0.0028200252, 0.0147285732, -0.0079999249, -0.0065535428, -0.0070490204, 0.0149070593, -0.0064561274, 0.0022708373, 0.0027265577, -0.0042924294, 0.0017082160, -0.0076039676, -0.0044285813, 0.0123783750, -0.0030438239, -0.0006051911, 0.0141090779, -0.0007715523, -0.0134268319, 0.0023533525, -0.0109503251, -0.0068392083, 0.0113275060, 0.0078133820, -0.0094454596, -0.0082283784, -0.0133422595, -0.0140175503, 0.0091849165, -0.0110398447, -0.0098666027, 0.0060292082, 0.0081934398, -0.0089478986, -0.0135513265, -0.0134570301, 0.0123173269, 0.0086612040, 0.0092877978, 0.0151928971, 0.0066555468, 0.0143554965, 0.0006940840, 0.0110336700, -0.0146243926, 0.0143287620, 0.0001494708, 0.0047705425, 0.0145726474, 0.0134089896, 0.0139303049, 0.0139262071, 0.0001555048, -0.0093925307, -0.0053603128, -0.0008819588, 0.0126175908, 0.0052379733, -0.0023986464, 0.0069503589, 0.0050814291, -0.0089097004, 0.0017520944, -0.0099226050, -0.0063601639, 0.0107998410, -0.0110814385, -0.0039832564, -0.0026371051, -0.0140255531, 0.0010891827, -0.0022387551, 0.0039420938, -0.0048302086, 0.0123821506, 0.0100176940, 0.0028694151, -0.0028383583, -0.0128342183, 0.0067622485, 0.0106625846, 0.0029896563, -0.0151043255, 0.0008746563, -0.0064597549, -0.0084395949, -0.0065520722, 0.0047276104, 0.0097342776, -0.0080264444, -0.0119527765, 0.0104428297, -0.0145054273, -0.0063894596, -0.0052871648, 0.0152006531, 0.0075165043, 0.0137975821, -0.0127009675, -0.0008058390, -0.0141650923, -0.0024739811, -0.0091459844, -0.0067132423, -0.0030992292, 0.0090032378, -0.0063821385, -0.0005678302, -0.0078648496, -0.0122516425, 0.0097299134, 0.0008946108, 0.0023885565, -0.0076245554, -0.0091965795, -0.0105907228, 0.0091710249, 0.0115945404, -0.0137906075, 0.0132666854, 0.0001251297, -0.0135401245, -0.0046081068, 0.0062004896, -0.0031802775, -0.0113275833, 0.0015395554, 0.0085140849, -0.0044095153, -0.0029880898, 0.0085682599, -0.0067406688, 0.0030369638, -0.0107847750, -0.0130297383, 0.0056678755, -0.0144441342, 0.0056890203, 0.0099752424, 0.0129189091, 0.0084046787, 0.0028972058, 0.0014892733, -0.0082274610, 0.0035490124, -0.0149247563, 0.0138187306, -0.0083134752, -0.0042749969, 0.0075234463, 0.0063411603, -0.0011261646, 0.0094820103, -0.0072653983, -0.0001726057, 0.0142313810, -0.0079956194, 0.0021280209, -0.0072980411, 0.0042214459, 0.0051544523, -0.0117521174, -0.0044342140, 0.0009139078, -0.0119147878, -0.0114129400, 0.0148148043, -0.0153506659, 0.0066850604, -0.0097420225, 0.0133065423, 0.0153439650, 0.0045424709, 0.0087449392, -0.0055552982, 0.0071212659, 0.0036469353, -0.0145322531, -0.0099458219, -0.0041494397, -0.0042753695, -0.0088382037, -0.0089314245, 0.0149310781, 0.0142505234, -0.0121742515, 0.0114570251, -0.0030220710, 0.0040571643, -0.0060778009, 0.0036919946, -0.0143104633, 0.0148328962, 0.0020497786, -0.0044318000, -0.0104882941, 0.0148112243, 0.0024997825, 0.0036227712, -0.0055056503, -0.0078129573, -0.0091688288, 0.0072175497, 0.0036156056, 0.0115702441, 0.0152752874, -0.0064276354, 0.0026134541, -0.0085218828, 0.0131191546, 0.0074424269, 0.0032750601, -0.0130800204, -0.0037831357, 0.0150895612, -0.0014558565, 0.0072023654, -0.0118157025, -0.0077725844, -0.0010248963, 0.0072094956, 0.0058575971, -0.0060570026, -0.0000289306, 0.0095758783, 0.0131134400, 0.0083983978, -0.0019012662, 0.0038953470, 0.0134726083, -0.0143150054, 0.0114400061, 0.0133389672, -0.0025770878, -0.0058406768, 0.0048691994, 0.0078755179, -0.0100626387, -0.0071022594, 0.0032503875, 0.0029640617, -0.0137486309, -0.0038025072, -0.0099992231, -0.0153445797, -0.0092890766, -0.0065773455, -0.0138418777, 0.0002557924, 0.0011348492, 0.0061624991, 0.0025148774, -0.0056678578, -0.0052433154, -0.0067926357, -0.0085391970, -0.0048771910, 0.0119824326, 0.0154243605, -0.0124924164, -0.0076410919, 0.0020967713, -0.0031458540, -0.0106508099, -0.0082359910, -0.0000176318, 0.0150356675, 0.0108455373, -0.0104236538, 0.0048225699, -0.0137761384, 0.0120320795, 0.0003169747, -0.0143259317, 0.0113572804, 0.0101117818, -0.0021180129, 0.0138270101, 0.0003632633, 0.0051966058, 0.0047304565, 0.0089533431, 0.0081957961, -0.0025464287, 0.0019640075, 0.0049268650, 0.0153750209, -0.0035760766, -0.0141395871, -0.0072133914, -0.0052362820, 0.0064709606, 0.0080348207, -0.0127599640, -0.0128192920, -0.0066969860, 0.0099714966, 0.0111555411, 0.0002929056, -0.0069217347, -0.0080968281, -0.0046963468, 0.0141504938, 0.0051315790, 0.0123053463, -0.0041510360, -0.0036099106, -0.0063169347, 0.0012034969, 0.0102322688, 0.0006560562, -0.0002555894, -0.0097711114, -0.0054762112, -0.0007072221, -0.0047228513, -0.0096808476, 0.0111051602, -0.0088740457, -0.0119539257, -0.0023091640, -0.0034714583, -0.0082739424, -0.0028122291, -0.0133537129, -0.0121790366, -0.0140648428, -0.0009618485, -0.0133460490, -0.0129928784, -0.0087686051, 0.0047130613, -0.0028712694, 0.0010743598, 0.0120336870, -0.0075768279, -0.0023714267, -0.0153309330, 0.0142653761, -0.0147056654, 0.0075628972, 0.0122435549, 0.0040226588, 0.0068636900, -0.0153398793, -0.0141480025, 0.0023303786, 0.0100001143, -0.0072193705, -0.0142130004, -0.0012371046, 0.0132863158, 0.0046349252, 0.0009400109, -0.0126305036, -0.0057292534, 0.0111819310, -0.0034268536, -0.0136882486, 0.0110933734, 0.0007213438, 0.0064564189, 0.0113382908, -0.0005069170, 0.0027922457, -0.0080468934, -0.0008471450, 0.0046125641, 0.0097072450, 0.0128338942, 0.0099326028, -0.0100006852, -0.0091509577, 0.0142153492, -0.0009159800, 0.0073882164, -0.0007416559, 0.0141566629, -0.0033045551, -0.0041406043, -0.0086140931, -0.0112546263, 0.0148694953, 0.0005930411, -0.0116718318, 0.0050289659, -0.0143237421, -0.0034302780, 0.0030516246, 0.0087184710, 0.0142883854, -0.0072631314, -0.0046379697, 0.0040446231, 0.0147448769, -0.0041481908, 0.0015223911, -0.0118018277, 0.0021144664, -0.0115269441, -0.0148685547, -0.0045097843, 0.0033886665, 0.0036081290, 0.0093578314, 0.0096449172, 0.0009794263, -0.0083731161, -0.0057656858, -0.0048797242, 0.0134413121, -0.0017904881, -0.0086646434, -0.0113533102, 0.0072460594, -0.0116839567, -0.0150979487, 0.0003577238, 0.0041224519, -0.0051234541, 0.0144506441, -0.0133314552, 0.0017154822, 0.0121030984, -0.0059478497, -0.0063026827, -0.0141604003, -0.0097066369, 0.0067863101, 0.0103516998, -0.0143510103, 0.0091268001, 0.0096386420, 0.0111397346, 0.0069578914, -0.0016100779, 0.0132822013, -0.0037312796, -0.0048062811, -0.0129129328, -0.0044532102, -0.0030616103, 0.0133095132, 0.0152930217, 0.0099021969, -0.0037394008, -0.0082911244, -0.0144937746, 0.0019920422, 0.0150146773, 0.0123990187, -0.0023627784, -0.0134454882, -0.0069818702, -0.0058725011, 0.0147740701, 0.0130719105, 0.0085669113, -0.0002051191, -0.0118971597, -0.0146807274, 0.0150841167, 0.0034065926, 0.0129392417, -0.0151187396, 0.0044635357, 0.0146692777, -0.0033695158, -0.0114208106, -0.0044964142, 0.0075778859, -0.0001453049, 0.0062854672, -0.0007857671, -0.0060053095, 0.0017217742, 0.0144632487, -0.0000637369, 0.0040330188, -0.0095359003, -0.0068449518, -0.0116555830, 0.0042525688, -0.0100069083, -0.0041065793, -0.0123728281, 0.0136745172, 0.0034127673, 0.0064174281, 0.0035463842, -0.0026171915, -0.0124363657, 0.0112545853, -0.0075486647, 0.0058075702, -0.0120225176, -0.0006997827, -0.0024433620, 0.0026613129, 0.0017882353, 0.0094936555, 0.0088760229, -0.0108680241, 0.0054026181, -0.0129543599, -0.0132071767, -0.0153122135, 0.0099055199, -0.0119261611, -0.0117810257, -0.0029801344, -0.0103912139, -0.0088666473, 0.0057637384, -0.0149905244, -0.0122546656, 0.0151533661, 0.0132306414, 0.0032808809, -0.0007194756, -0.0032289708, 0.0084713651, -0.0151084652, 0.0009764647, 0.0122681288, 0.0078883981, -0.0075086718, -0.0060774144, -0.0068760682, 0.0040897885, -0.0126158241, -0.0076246103, 0.0051285671, -0.0051783072, 0.0096438518, -0.0130660823, -0.0104757976, -0.0032872409, -0.0032442613, -0.0103833284, -0.0132020162, -0.0100275073, -0.0120097157, 0.0008222396, 0.0027033826, -0.0018762508, 0.0095425090, -0.0020395527, -0.0089619989, 0.0149806002, -0.0003298726, -0.0012161070, -0.0099593066, 0.0004765922, -0.0149969868, 0.0135025932, -0.0127194989, 0.0036646044, 0.0110191973, -0.0071856445, -0.0126111284, -0.0067198342, -0.0078846533, -0.0040205838, -0.0136679960, -0.0153115615, 0.0038285209, 0.0102048805, -0.0139188077, -0.0018266588, 0.0033655567, -0.0011470439, 0.0036860621, -0.0056829378, 0.0131556531, 0.0113687711, 0.0115865702, -0.0108358283, 0.0061216438, 0.0110593596, -0.0061400412, 0.0111485524, 0.0108247651, -0.0078242011, -0.0018539447, -0.0110698845, -0.0004191305, 0.0051926458, 0.0064990697, 0.0082829660, 0.0033065984, -0.0013596797, -0.0068894830, -0.0048370138, 0.0096251471, 0.0025321702, 0.0136483954, 0.0106843626, 0.0144578321, 0.0040334938, 0.0140254842, 0.0048250435, -0.0115689393, -0.0126039982, -0.0032041539, -0.0081369691, -0.0000472078, 0.0131907621, -0.0014277482, 0.0100493273, 0.0053396700, 0.0152547685, -0.0109086037, -0.0022359127, 0.0018323651, 0.0034575174, 0.0075725010, 0.0028253896, -0.0103527904, -0.0017414633, -0.0043821670, 0.0146902231, -0.0042614238, 0.0102214804, -0.0031785266, 0.0042310199, -0.0154103367, -0.0077748881, -0.0080584753, -0.0133129088, 0.0089356052, 0.0152098620, -0.0009081280, 0.0039545754, -0.0094081126, 0.0096959649, -0.0050149430, 0.0103427311, -0.0101446230, -0.0059045944, 0.0004340643, -0.0020927498, -0.0037114359, 0.0138975522, 0.0076696249, -0.0134541662, -0.0027605137, -0.0129503747, -0.0135921501, 0.0100639770, 0.0126260789, 0.0119040860, 0.0093295937, -0.0128002483, 0.0084969522, -0.0067744656, 0.0148543613, 0.0020148242, 0.0011814041, 0.0026855366, 0.0073483856, -0.0081990948, -0.0011611367, 0.0133173512, 0.0044900691, 0.0116271460, 0.0115680536, 0.0122199813, -0.0021515992, 0.0054728901, 0.0152690979, 0.0032201568, -0.0049655968, -0.0067558754, 0.0091436664, 0.0044169994, -0.0068643093, -0.0109339170, 0.0054192683, 0.0098135294, 0.0001311526, -0.0112745324, 0.0070253545, -0.0080753472, 0.0050076554, 0.0006527742, 0.0151819484, 0.0111072762, 0.0096061109, 0.0034827711, 0.0104236985, -0.0080952607, 0.0154308109, -0.0145963691, -0.0078744348, -0.0139753046, -0.0119000655, 0.0145846428, -0.0084112175, -0.0118781496, 0.0099863717, 0.0076065222, 0.0066822628, 0.0078904731, -0.0037128106, -0.0119151492, 0.0081381807, -0.0051888349, 0.0095040696, -0.0086406898, 0.0120075000, -0.0035504643, 0.0023179790, -0.0115177240, -0.0140592800, -0.0111772455, 0.0051876483, -0.0071991514, -0.0028240290, -0.0026530745, -0.0140298549, 0.0099256067, -0.0062718429, -0.0105116609, -0.0045518856, 0.0140527776, -0.0094774161, -0.0152394231, -0.0053754384, 0.0145773878, -0.0022462830, 0.0104313539, -0.0138908951, 0.0130043840, -0.0096131619, -0.0112841949, -0.0092667490, 0.0135889454, -0.0070398785, -0.0132038854, 0.0009677326, -0.0095364461, -0.0043560751, -0.0110231489, -0.0007996606, 0.0062254472, 0.0098926658, -0.0088950135, 0.0001459718, -0.0113651361, 0.0030931095, 0.0153748402, -0.0143467188, -0.0055123232, 0.0106910830, 0.0044540400, 0.0116460165, -0.0003597140, 0.0030541243, 0.0085434066, 0.0056200707, 0.0043285629, -0.0138785457, -0.0133433873, -0.0080350414, 0.0046284990, 0.0042355945, 0.0050685210, 0.0149476370, -0.0024529388, -0.0047033839, 0.0010147290, -0.0091925943, -0.0028922008, -0.0110324286, 0.0154217491, 0.0033618966, 0.0018740790, -0.0092599588, -0.0003104312, 0.0014959974, 0.0116811814, 0.0042981887, -0.0005833237, -0.0131588895, -0.0041034380, -0.0108056292, -0.0098511456, -0.0082480786, 0.0117969615, -0.0079636704, -0.0033698846, -0.0132277170, -0.0079945354, -0.0102303009, -0.0028097741, 0.0101733832, -0.0108162239, -0.0045952890, -0.0136458008, 0.0057986481, -0.0052432232, -0.0150497938, 0.0009586895, 0.0075811306, 0.0108110337, 0.0144503759, 0.0078033144, 0.0022309246, -0.0063306438, -0.0152180903, -0.0032031368, -0.0076575149, 0.0035643661, 0.0108551411, -0.0033809142, -0.0118328854, -0.0101741143, -0.0015732115, -0.0052362783, 0.0130878566, -0.0082019214, -0.0051350035, 0.0124479299, -0.0150948921, -0.0087839002, 0.0075082472, -0.0128566315, 0.0079191355, -0.0148668736, 0.0139580080, 0.0093141990, -0.0007154904, 0.0068452330, -0.0035559274, -0.0099724373, 0.0113855181, 0.0145275304, 0.0087672165, 0.0002652360, -0.0084809233, 0.0146525828, -0.0087604551, 0.0126830628, 0.0061969114, 0.0119263371, 0.0052294815, -0.0035785139, 0.0104617672, 0.0082845027, -0.0061478643, -0.0145978732, -0.0033414522, -0.0074097225, 0.0085712010, -0.0016575661, -0.0102212653, -0.0152666280, -0.0060070679, -0.0139302248, -0.0038280720, -0.0131986178, 0.0031432109, -0.0084065702, 0.0096681667, -0.0011353139, -0.0050943168, -0.0148901567, 0.0122151813, -0.0124359671, -0.0034436965, 0.0006227633, -0.0118331723, -0.0096265879, 0.0032670917, 0.0060868105, 0.0046324180, -0.0117913615, 0.0082320580, 0.0004447503, 0.0037809340, 0.0137696220, 0.0057382779, -0.0056195548, -0.0146567738, 0.0074816728, 0.0152682764, 0.0018550241, 0.0145110460, -0.0007373877, 0.0117068114, -0.0046213409, 0.0054438906, -0.0083518494, 0.0096223643, 0.0001030965, -0.0138060534, -0.0047021601, -0.0129307117, 0.0019105012, 0.0038961889, -0.0049261795, 0.0149342446, -0.0084093269, 0.0128522413, 0.0144485990, -0.0067141159, 0.0065058237, -0.0091576371, -0.0132623101, 0.0013285661, -0.0061188741, 0.0154585177, -0.0049215127, -0.0020916183, -0.0011829557, -0.0078442879, 0.0092733847, -0.0080185113, 0.0014560362, -0.0042251134, 0.0090170624, 0.0137028033, 0.0063236551, -0.0149520654, -0.0144693935, 0.0016204109, -0.0016149702, -0.0128271477, -0.0005311286, 0.0035088239, 0.0120342178, -0.0007019136, 0.0149413003, 0.0017032465, 0.0090041412, -0.0002249004, 0.0119352257, -0.0036240248, 0.0083996253, 0.0016259840, -0.0149854962, -0.0027553299, -0.0109939165, 0.0017102724, -0.0014683269, -0.0154024074, -0.0131104179, 0.0027018161, 0.0051127812, -0.0044886209, -0.0107800905, -0.0020195907, -0.0151401274, 0.0049242629, -0.0095858201, 0.0063505089, 0.0130321896, 0.0003178818, 0.0041009905, 0.0145054972, -0.0062409034, 0.0054487595, 0.0084507214, -0.0020561554, -0.0121093057, -0.0030593872, 0.0089723980, -0.0148873515, 0.0154061234, 0.0118366564, -0.0137470830, -0.0140776196, -0.0042681033, -0.0107975816, 0.0048627490, -0.0013881084, 0.0137117570, 0.0133498712, -0.0022908654, 0.0082494942, -0.0038010916, -0.0112195173, 0.0142998425, 0.0076720985, -0.0089805592, -0.0138447303, 0.0146627193, 0.0131396065, -0.0058830958, -0.0003372710, 0.0023092227, -0.0013095522, 0.0153405583, 0.0058398778, 0.0021703960, 0.0142399771, -0.0130657498, -0.0045787999, 0.0000797613, 0.0059726881, 0.0051409611, 0.0093844058, -0.0040991586, -0.0010062251, -0.0137209985, -0.0133723589, -0.0026885113, 0.0151604759, 0.0041579744, 0.0077374792, 0.0111310976, 0.0048341649, -0.0027471352, -0.0005380958, -0.0102391522, 0.0146226129, -0.0028745690, -0.0024453420, -0.0150787095, -0.0144162914, -0.0131052565, -0.0102509260, 0.0137047963, 0.0022671772, -0.0023378069, 0.0112534789, 0.0019354345, 0.0096877376, 0.0059163319, -0.0001123492, -0.0098291934, 0.0133499196, -0.0143481493, -0.0076850411, -0.0029654671, -0.0139554758, -0.0031342534, 0.0072721103, 0.0024861237, -0.0083260555, 0.0064242845, -0.0106913932, -0.0019199559, 0.0116579784, 0.0002836967, 0.0120046837, -0.0131541826, 0.0023735436, 0.0036506364, 0.0015733028, -0.0124762151, 0.0007616589, -0.0131518375, 0.0136300521, -0.0046680756, -0.0013947915, -0.0102691185, 0.0097139506, 0.0103088049, 0.0102336230, -0.0138502494, 0.0076290378, 0.0063998410, 0.0099676521, -0.0114272023, -0.0152788851, 0.0054127285, -0.0003551459, 0.0022335099, 0.0151392622, -0.0120378789, -0.0072473651, -0.0038410518, -0.0016143136, -0.0092278654, 0.0109691368, -0.0144802677, -0.0008563679, -0.0063720122, 0.0043392433, -0.0029410562, 0.0151886838, 0.0116706816, -0.0070200134, 0.0004588431, 0.0074050436, 0.0099329231, 0.0027012890, 0.0066222968, -0.0013038972, -0.0033194479, 0.0152066918, -0.0154218534, 0.0008092923, -0.0017765164, 0.0154513652, 0.0021079117, 0.0116099240, -0.0086671542, -0.0057410281, 0.0150351441, 0.0111608161, 0.0037814872, 0.0008368818, -0.0048226407, -0.0006294874, 0.0018772865, -0.0002711825, -0.0118957190, -0.0084767025, 0.0131899426, 0.0024031522, -0.0008205222, 0.0113923149, 0.0128300777, 0.0099418657, 0.0055232281, 0.0037560230, -0.0058561778, 0.0028558346, 0.0059587499, 0.0002655564, -0.0031031035, -0.0093309805, -0.0062148338, 0.0003099041, 0.0054462934, -0.0116167618, -0.0040993467, 0.0060033230, 0.0068066427, -0.0006548688, 0.0134428414, -0.0090846475, 0.0031611854, 0.0030624392, 0.0074275760, 0.0094057349, 0.0091451323, 0.0018017711, -0.0103083812, -0.0134410169, -0.0129824579, 0.0139870243, -0.0113892928, -0.0093441661, 0.0055311536, 0.0152653242, -0.0115060350, -0.0010116035, 0.0051759435, 0.0064252624, -0.0143622570, 0.0098620607, 0.0017902674, -0.0153651536, 0.0112707792, -0.0070667854, 0.0124784494, 0.0127753476, -0.0082968753, -0.0118573066, 0.0043660691, 0.0058537228, -0.0134091591, -0.0000621667, -0.0005866485, -0.0073889904, -0.0064742453, -0.0060181962, 0.0043131979, 0.0134506570, 0.0013522403, 0.0027013430, 0.0083694709, -0.0005001603, -0.0111473873, -0.0012091435, 0.0024872301, -0.0103610996, 0.0139630409, 0.0001526074, 0.0136903310, 0.0043770382, -0.0062917164, -0.0033554565, -0.0133166648, -0.0108737350, 0.0000557080, -0.0053177904, 0.0085438238, -0.0063786730, -0.0080301641, 0.0069157602, -0.0058232630, 0.0134404683, 0.0088904211, 0.0062081804, 0.0118183428, 0.0104027307, 0.0048829084, -0.0144862803, -0.0092338519, -0.0093153678, -0.0087947939, 0.0102918083, -0.0149032064, 0.0029031793, -0.0016312934, -0.0117948232, -0.0112830149, 0.0008532302, -0.0090403445, 0.0088780457, 0.0045708520, 0.0100852838, -0.0104213422, 0.0105364630, -0.0140867978, 0.0142844496, 0.0108817378, 0.0011349740, 0.0013404628, -0.0043742517, -0.0103524700, -0.0017025098, -0.0104084658, 0.0067667058, -0.0060786009, -0.0035818089, 0.0109508941, -0.0052081402, 0.0125770112, 0.0013616523, -0.0052453177, -0.0098602176, -0.0103916116, -0.0065199453, 0.0070795985, 0.0038725035, -0.0147757987, -0.0115874521, -0.0122161582, 0.0050470689, 0.0049011456, -0.0037201466, -0.0066504637, 0.0004344145, 0.0053562140, 0.0128249591, 0.0038322704, 0.0026404010, -0.0087791560, 0.0000567399, -0.0099027697, 0.0035773898, 0.0025874684, -0.0069400268, -0.0074822288, -0.0146910017, 0.0111607416, 0.0007505706, 0.0132817673, -0.0047269985, 0.0074433787, -0.0128915999, -0.0049494365, 0.0012677563, -0.0004599495, 0.0152081857, -0.0117601827, 0.0056667300, 0.0135628982, 0.0078599388, -0.0093558487, 0.0056878449, -0.0118725505, 0.0016738186, 0.0017917370, 0.0035428638, 0.0135074640, -0.0135964695, 0.0134451678, -0.0010077329, -0.0089894664, 0.0081196288, -0.0028422177, 0.0073053585, -0.0031172894, -0.0058926363, 0.0113714179, -0.0140039772, -0.0082302038, 0.0087069077, -0.0057737110, 0.0085684704, 0.0154275196, 0.0132726310, 0.0144213187, 0.0047948426, 0.0149781974, 0.0117485011, -0.0008062301, -0.0144609921, 0.0048953248, -0.0014116168, -0.0098070865, 0.0150388973, 0.0007514721, 0.0056288047, 0.0121345827, 0.0121112848, 0.0026006410, 0.0102445902, 0.0128665688, -0.0007218271, -0.0071355877, -0.0000841375, -0.0079269540, -0.0007017180, 0.0130383829, 0.0049449233, -0.0085714376, -0.0038223583, -0.0041737957, 0.0033351416, 0.0062744236, 0.0136863319, -0.0042117136, -0.0009699520, 0.0015103081, 0.0117053809, -0.0113730757, 0.0013976665, -0.0115506621, 0.0116622886, 0.0090940772, -0.0082804374, -0.0110162590, 0.0040606884, -0.0091921929, -0.0019746469, 0.0108485455, 0.0063580917, 0.0085378727, 0.0035175486, -0.0012686122, -0.0001964308, 0.0104775736, 0.0017672041, 0.0119943721, 0.0046711126, -0.0109383194, 0.0074396515, 0.0040376401, -0.0070154825, 0.0143345511, 0.0116219530, -0.0146852247, 0.0054606041, -0.0067298124, 0.0028568516, -0.0092918016, -0.0069609946, 0.0109518850, 0.0096363937, -0.0124304891, 0.0124945501, -0.0067731896, 0.0104671856, -0.0041781012, -0.0125618232, -0.0154478345, -0.0065103611, 0.0044152224, 0.0137225585, -0.0135549512, -0.0052232910, 0.0024847267, 0.0134979738, -0.0004751999, 0.0013601696, 0.0108350581, -0.0011194069, 0.0130854016, -0.0039388798, -0.0119626848, 0.0121745644, -0.0067923702, 0.0101692593, 0.0081117125, 0.0145299053, 0.0023867982, 0.0098379785, -0.0100018736, 0.0009445669, 0.0117423600, 0.0033822963, 0.0049567139, 0.0136007434, -0.0074762134, -0.0101676695, -0.0066339048, -0.0128924148, -0.0131239686, 0.0080185262, -0.0030959193, 0.0129425013, 0.0146264127, 0.0103540672, -0.0041984534, 0.0008885274, -0.0149935950, -0.0025832886, -0.0016508307, -0.0074599972, 0.0023024892, 0.0092141749, 0.0129360361, -0.0133187221, 0.0031538615, -0.0027554594, -0.0104119824, 0.0004189303, -0.0040972633, -0.0151580619, 0.0002412377, 0.0052073738, 0.0055992352, 0.0033151424, -0.0132272495, 0.0138641717, 0.0151133286, 0.0031576352, -0.0116599035, -0.0145178838, -0.0131735727, -0.0092045683, 0.0046508340, 0.0070964126, 0.0097657656, 0.0116984593, -0.0152027067, -0.0075984821, 0.0128430175, 0.0008016480, -0.0111231375, 0.0042717708, 0.0148093840, 0.0004792353, -0.0026359996, 0.0017031701, -0.0035645571, 0.0001248820, 0.0125283105, -0.0142502505, 0.0026008105, -0.0089161806, -0.0003173025, -0.0131489038, 0.0099065816, 0.0026215864, 0.0070231603, -0.0086721415, 0.0092962915, 0.0003088722, 0.0088798301, 0.0083943931, -0.0063521648, -0.0000584768, 0.0041623050, -0.0085510779, -0.0041299574, -0.0051394822, 0.0095893675, 0.0098975310, -0.0111284573, 0.0020917812, 0.0090952525, -0.0045810416, 0.0008607833, 0.0119252251, 0.0003918400, 0.0114763165, 0.0107288165, -0.0154503742, -0.0084986137, 0.0097265141, -0.0121780150, 0.0009264043, -0.0072966693, -0.0128563698, 0.0031578196, -0.0097503383, 0.0055046258, -0.0053808680, 0.0019878065, -0.0099391975, -0.0098902285, -0.0107081477, 0.0008786442, -0.0128974905, 0.0132797724, 0.0139157521, 0.0011539115, -0.0026862519, 0.0010022735, 0.0124233151, 0.0150476182, -0.0050197206, 0.0005939184, -0.0039104065, 0.0033732867, 0.0117666489, 0.0121075539, -0.0039851395, -0.0150833726, -0.0028843526, -0.0125457542, 0.0091767507, -0.0077532898, -0.0117959622, -0.0124983443, 0.0080957850, 0.0098686488, 0.0070369104, 0.0049901595, -0.0078458982, -0.0065387310, 0.0007444834, -0.0000985693, -0.0152042294, -0.0054982631, 0.0020864094, 0.0012358101, 0.0010665162, -0.0084367646, -0.0067634946, -0.0059159370, 0.0009580823, 0.0083465306, 0.0067188786, -0.0131608434, 0.0149021884, 0.0005034702, -0.0120436698, 0.0109270690, 0.0007914742, 0.0080013508, -0.0109227886, 0.0095656971, 0.0054184915, 0.0096646873, -0.0016500382, 0.0008126730, 0.0029391283, -0.0083868764, 0.0073319403, 0.0097681219, -0.0016019354, 0.0008594720, 0.0140296454, -0.0152822109, -0.0080810506, 0.0110603636, 0.0057802955, -0.0150841027, -0.0020783441, 0.0152733894, 0.0098763006, 0.0128671741, 0.0008996604, -0.0143398549, -0.0025750604, 0.0084563801, 0.0023505175, -0.0027841358, 0.0030365912, 0.0091912234, -0.0084655955, 0.0011681551, 0.0147893755, -0.0002148915, 0.0143083809, 0.0064708209, 0.0050781490, -0.0053850338, -0.0151218912, 0.0025255932, -0.0021256246, -0.0126805268, 0.0054199146, 0.0017478289, -0.0102483938, 0.0015608361, -0.0120205460, 0.0071608527, 0.0086619044, 0.0037728874, -0.0045104399, -0.0075995550, 0.0081667611, 0.0086232023, -0.0080366265, -0.0041574473, 0.0027561663, -0.0081679486, 0.0005667871, 0.0106638921, 0.0059334738, 0.0004313914, -0.0136774918, 0.0063584568, 0.0024233526, -0.0078979423, 0.0010452671, -0.0102860164, 0.0030549793, -0.0037468802, -0.0046422640, 0.0051561454, -0.0033328040, 0.0090158964, -0.0134055503, 0.0116278203, -0.0102209784, 0.0030738050, 0.0030921819, 0.0086235227, -0.0004260717, -0.0068905046, -0.0132612372, -0.0009402251, -0.0036021611, 0.0019093873, 0.0136642875, -0.0004949803, 0.0080064060, 0.0065764943, 0.0145408968, -0.0120538631, -0.0082862135, -0.0070551625, -0.0086813234, -0.0132692810, -0.0119429147, 0.0014528660, -0.0148603041, 0.0124084121, -0.0144622857, 0.0096670231, 0.0079243546, 0.0059938198, -0.0058139879, 0.0014293706, -0.0097587984, -0.0135086607, -0.0009387871, 0.0109213730, 0.0108832056, 0.0016119955, 0.0091550304, -0.0064889546, 0.0029479461, -0.0147391418, 0.0132993022, 0.0095275538, -0.0142364120, 0.0031707631, 0.0129522691, 0.0138065619, -0.0098682614, 0.0045107240, -0.0120746354, -0.0144824833, 0.0136909811, 0.0118525336, -0.0014538728, 0.0083658723, -0.0074215187, 0.0083728032, 0.0023361528, 0.0063972408, -0.0091043916, 0.0067408355, 0.0001652995, 0.0032912800, 0.0004305067, 0.0069667483, -0.0023345379,