//Numpy array shape [1568, 10]
//Min -0.061658877879
//Max 0.061659391969
//Number of zeros 0

#ifndef W9_H_
#define W9_H_

[[intel::fpga_register]] static constexpr w9_t w9 = {{0.0540002100, -0.0002958104, -0.0206803903, 0.0152031519, 0.0169253461, -0.0174253732, -0.0172983967, 0.0560691394, 0.0480930470, -0.0181982443, -0.0258642212, -0.0481429324, -0.0471751466, -0.0230869278, -0.0196295716, -0.0059034377, 0.0249868967, 0.0077398084, -0.0418321565, -0.0099413432, -0.0302351601, -0.0212512948, 0.0212688930, -0.0416011214, 0.0208719783, -0.0311315544, -0.0074354261, 0.0607237108, 0.0056938864, -0.0276929587, -0.0215205848, -0.0397724882, 0.0128420852, -0.0517964214, 0.0365705900, -0.0261135437, -0.0497896634, -0.0107922517, 0.0263227038, -0.0145243071, -0.0432799347, -0.0032585785, -0.0288937204, -0.0113172010, 0.0484866537, 0.0550181381, -0.0003610700, -0.0196784250, -0.0361039042, -0.0462433919, 0.0447809882, -0.0068071410, 0.0505915321, 0.0225722603, 0.0347302966, 0.0452943482, 0.0574333332, 0.0169534422, 0.0133648105, 0.0046245568, 0.0359477140, 0.0236609317, -0.0517191067, 0.0113284178, 0.0416904800, 0.0353541262, -0.0098756738, 0.0570892654, 0.0208592080, 0.0123220198, -0.0522505939, 0.0122734420, 0.0435696878, -0.0437639058, -0.0489048399, 0.0136601962, 0.0417955630, 0.0436256565, -0.0090183392, 0.0057004876, -0.0460914969, -0.0272294171, -0.0105890036, 0.0594930314, 0.0032155924, -0.0277438089, 0.0056016780, 0.0585791282, -0.0208331421, -0.0496040881, 0.0233914219, 0.0563799553, -0.0011032298, 0.0109781809, -0.0345705487, -0.0549880043, -0.0001157746, 0.0536313914, 0.0492664240, -0.0056494251, 0.0591708086, 0.0612722747, 0.0478720106, -0.0157320648, 0.0527457558, -0.0337870605, 0.0054771267, 0.0076482631, -0.0529274680, -0.0141445063, 0.0086091049, -0.0039112493, 0.0302527733, 0.0259437449, -0.0232422799, 0.0406380706, -0.0054166131, -0.0531495064, 0.0187973343, 0.0286335908, -0.0221383572, 0.0364419483, -0.0345520079, 0.0232903250, -0.0532661900, 0.0019447170, -0.0125422776, -0.0164019279, -0.0047993399, -0.0502088927, -0.0174662136, 0.0411461405, 0.0063203610, -0.0044280551, -0.0542264953, -0.0602230988, -0.0038749687, 0.0386458971, 0.0077310018, 0.0537681915, -0.0114344731, 0.0081047006, -0.0357137099, 0.0058152415, -0.0590008125, 0.0309975035, -0.0499918535, -0.0178726092, -0.0183476284, -0.0580813512, -0.0390229598, 0.0541687347, -0.0273435749, -0.0171217844, 0.0307508595, -0.0282528810, 0.0214528106, -0.0060734786, -0.0447692871, -0.0335004702, 0.0537610613, -0.0574640036, -0.0159235112, -0.0326927081, 0.0235912763, -0.0240271203, 0.0111987181, -0.0296810158, -0.0231562145, 0.0477833636, 0.0140593387, -0.0412576646, -0.0227136724, -0.0057791509, 0.0340386219, 0.0117175840, 0.0165028833, 0.0278473385, -0.0575435981, -0.0485098660, 0.0159257166, -0.0499379709, 0.0064927675, -0.0556672290, 0.0336226262, 0.0542149656, -0.0490335524, -0.0235448666, -0.0539982989, -0.0004746690, -0.0172614343, -0.0294742659, -0.0314294957, -0.0492234640, -0.0436999127, -0.0465634465, 0.0014523752, 0.0530372895, -0.0593036041, 0.0291591696, -0.0455355868, 0.0225672610, 0.0202826746, 0.0238574781, 0.0208734237, 0.0093261562, -0.0381542072, -0.0366649851, 0.0550362654, 0.0480344482, 0.0041776262, 0.0293737389, 0.0465194546, -0.0554664955, -0.0463207960, 0.0585580729, 0.0342457779, 0.0181149058, 0.0435087197, -0.0486355200, 0.0083275549, 0.0167289041, 0.0612187423, 0.0084175430, 0.0123818703, -0.0342132449, 0.0029662363, -0.0497037470, -0.0455671549, 0.0074720345, -0.0269537643, 0.0595830493, 0.0114414282, 0.0460885428, -0.0248735584, 0.0082561262, -0.0398857221, 0.0337390639, 0.0602357276, 0.0175979249, -0.0374921076, 0.0305086933, -0.0178481005, -0.0232393369, 0.0529307760, -0.0260636471, -0.0465014055, 0.0264012404, -0.0515168421, 0.0428510644, 0.0320335515, 0.0420234539, 0.0204231776, -0.0346427187, -0.0333784446, -0.0264870636, -0.0078189000, 0.0614846013, -0.0326908119, -0.0295268558, 0.0041795708, -0.0599491484, -0.0024891868, -0.0165229067, -0.0567085668, 0.0215984993, 0.0108410455, -0.0272732154, -0.0272390172, 0.0078701191, 0.0119917057, -0.0067997165, -0.0598965324, -0.0047581159, 0.0604781546, 0.0271092765, 0.0044059865, -0.0571018904, -0.0229583643, 0.0544164516, -0.0407850742, -0.0062634498, -0.0169531591, 0.0157405473, 0.0396330617, 0.0598384179, -0.0072450265, 0.0521983616, 0.0447788872, 0.0260529034, -0.0090263374, -0.0341030844, 0.0575272031, -0.0427045450, 0.0598462112, 0.0052785091, -0.0577590205, -0.0040889494, -0.0306877606, -0.0186281912, 0.0100857280, -0.0399956144, 0.0392113216, 0.0089414604, 0.0214730538, -0.0423037969, -0.0276928842, 0.0295307077, 0.0395925753, -0.0116006024, 0.0343937315, 0.0074517317, -0.0197884217, 0.0159248896, 0.0088240989, -0.0374131016, 0.0399098881, -0.0543936789, 0.0314834677, 0.0304643698, 0.0591373034, 0.0530907102, 0.0356003009, -0.0059311204, -0.0543774627, 0.0403203703, 0.0489210971, -0.0224671848, -0.0296201631, 0.0462324284, 0.0524699129, 0.0152345262, 0.0025852360, -0.0560459532, -0.0314212926, 0.0178907327, -0.0194408633, -0.0353813842, 0.0545824058, -0.0423104875, -0.0087713078, -0.0230787247, 0.0381838866, 0.0501425155, -0.0406610519, -0.0481704697, 0.0526971705, -0.0190679133, -0.0047414005, -0.0514370874, -0.0110584237, 0.0006643459, -0.0217735954, 0.0298264436, 0.0437867679, 0.0545701571, 0.0528197326, 0.0006335489, 0.0316905640, -0.0403403342, -0.0000500306, -0.0507426895, -0.0461557284, 0.0543804802, 0.0546168201, -0.0350879841, -0.0208025314, 0.0511021130, -0.0405896753, 0.0205795132, -0.0425684527, -0.0398780480, 0.0159175433, 0.0395741202, -0.0201435499, 0.0238591991, 0.0373771898, 0.0330865793, -0.0136193857, 0.0488131307, -0.0391587913, -0.0303547271, -0.0293580964, -0.0062303729, 0.0295662694, 0.0429736860, 0.0279296674, -0.0090374798, -0.0392806083, 0.0589441992, -0.0516198277, -0.0126146078, -0.0045487694, 0.0235045962, -0.0397876501, -0.0028959922, 0.0370283164, 0.0446552448, 0.0407466553, 0.0496882088, -0.0124200508, 0.0185148008, -0.0540561788, 0.0135173537, -0.0348338671, -0.0291025676, -0.0157529712, 0.0559218861, -0.0229193307, -0.0423598550, 0.0097389482, -0.0183876604, 0.0482882895, 0.0410874672, 0.0537780710, 0.0454783253, -0.0513422042, -0.0013896041, -0.0320293158, -0.0145153701, -0.0345227122, 0.0321395360, 0.0172915272, 0.0136937015, 0.0278470553, -0.0237012878, 0.0462212227, 0.0187745281, -0.0199147947, -0.0525896139, -0.0475656912, -0.0385293588, -0.0595384166, -0.0420482978, 0.0347333215, 0.0281277411, 0.0488364436, 0.0360742621, -0.0160012655, 0.0209050886, 0.0511561967, 0.0458284579, 0.0211028270, -0.0419078097, 0.0286462195, -0.0205759071, -0.0077368654, 0.0210167654, -0.0422853306, -0.0040842444, -0.0597236715, -0.0305908322, -0.0340399705, -0.0265769958, -0.0096909180, 0.0124923550, 0.0517779551, -0.0578191765, 0.0200204588, 0.0419103689, -0.0479826704, -0.0562808849, -0.0433744490, 0.0116855614, -0.0577907301, -0.0425281152, 0.0068662576, 0.0572235025, 0.0570749156, 0.0074364580, 0.0179318972, -0.0072395727, 0.0496276207, -0.0288609192, 0.0570044927, 0.0101272576, -0.0393825918, 0.0372186191, 0.0489876084, 0.0597502999, 0.0375410356, 0.0601150133, 0.0276426487, 0.0008366928, 0.0600629710, 0.0165829323, 0.0134353973, 0.0080069937, -0.0324051753, -0.0194355249, -0.0607565567, -0.0111180246, 0.0512109362, -0.0507336184, 0.0124642141, -0.0052049123, -0.0026072413, -0.0524552837, -0.0611856207, -0.0355274826, 0.0164152719, -0.0424807146, -0.0231669620, -0.0612047762, -0.0579739250, 0.0444675796, 0.0152615570, 0.0211506374, -0.0192901418, 0.0139649846, 0.0254421271, -0.0044009723, 0.0300876610, 0.0047048368, -0.0383216441, -0.0475355834, -0.0459594205, -0.0118025132, -0.0318285227, -0.0502718613, -0.0532261729, -0.0566753857, -0.0599484295, 0.0358473472, 0.0093252473, 0.0038550608, -0.0500218756, -0.0248344094, 0.0584822930, 0.0362267755, 0.0546625890, 0.0347351171, -0.0402196348, 0.0190796591, -0.0322569981, 0.0610121451, 0.0466914363, 0.0300121345, 0.0432910211, 0.0326933376, 0.0308675282, 0.0544314943, -0.0191261023, -0.0603497662, 0.0439532511, 0.0073779114, -0.0468092710, -0.0553278886, 0.0070495419, -0.0008243434, -0.0442034081, 0.0500826947, -0.0517987460, -0.0102223642, -0.0182634331, -0.0293071121, -0.0419974476, -0.0611004978, -0.0264626034, -0.0330201127, -0.0495112017, -0.0028956980, 0.0170638897, 0.0288613178, 0.0093020461, 0.0091083981, 0.0603000559, -0.0367678963, -0.0388565138, -0.0391990431, -0.0012062006, -0.0597133823, 0.0609792136, -0.0556298718, 0.0081153996, -0.0588806719, 0.0470374189, -0.0184686966, -0.0110258907, -0.0195373632, -0.0403356329, -0.0499103069, 0.0209170990, 0.0017863698, 0.0070439242, -0.0504410602, -0.0070578307, -0.0551554114, -0.0453372970, -0.0198557526, -0.0220910907, -0.0127029791, 0.0059822388, -0.0587580316, -0.0433971956, 0.0282284878, -0.0511039048, -0.0518854409, 0.0483153798, -0.0158060156, 0.0455526896, -0.0258332305, -0.0228028223, -0.0317928419, 0.0191336609, 0.0082045831, 0.0462620668, 0.0092088096, -0.0484325960, -0.0323476046, -0.0336357504, -0.0598753765, 0.0442501493, -0.0452584922, 0.0522354506, 0.0125732534, 0.0529415198, 0.0560003184, 0.0443962775, -0.0015581250, -0.0460342765, -0.0237137862, -0.0583846420, -0.0485904738, -0.0512712225, -0.0319687501, 0.0472737662, 0.0453141816, -0.0509878695, -0.0267285369, 0.0046594106, 0.0599872582, 0.0033833794, 0.0206166916, 0.0420435108, 0.0133489333, -0.0447386950, -0.0311956834, 0.0420617051, 0.0258583687, 0.0564948060, 0.0472222082, 0.0286954977, 0.0376783796, -0.0425947122, -0.0536073819, 0.0305935852, 0.0347670652, 0.0047958530, -0.0569768250, -0.0468380675, -0.0480605885, -0.0197582096, 0.0130829848, -0.0078160465, -0.0174578056, -0.0376891382, 0.0393310897, 0.0069524236, -0.0064484850, 0.0479955338, -0.0392030999, -0.0409495533, 0.0173920579, 0.0176384561, -0.0612857975, 0.0153804086, -0.0193558745, -0.0597128086, 0.0573646687, 0.0558367260, 0.0326537378, 0.0244041719, 0.0207459293, -0.0195558742, -0.0185781345, 0.0024186932, -0.0229197554, 0.0067855455, 0.0316804089, 0.0309642069, 0.0017107241, 0.0501940437, -0.0197356716, -0.0380247161, -0.0592433140, 0.0482023247, -0.0362558439, 0.0395409130, 0.0530291609, 0.0319735818, -0.0422574133, 0.0154374354, -0.0016550533, -0.0330876485, -0.0553817116, -0.0367418006, 0.0172139965, -0.0032009780, -0.0562587753, 0.0319054015, -0.0458896756, -0.0266766548, 0.0000511482, 0.0149051063, -0.0324763022, 0.0407535993, 0.0115576871, -0.0347849727, 0.0342654474, -0.0216042362, 0.0406796597, -0.0196902156, 0.0330857523, -0.0084830113, 0.0125706531, 0.0217717700, -0.0389074832, 0.0183945559, -0.0300077125, 0.0024233274, 0.0547481067, -0.0039745867, -0.0370496958, -0.0375116765, 0.0429752581, 0.0332353152, -0.0425407887, 0.0027684905, 0.0595968701, 0.0363609008, 0.0592615269, 0.0555263422, -0.0201257914, -0.0174688436, 0.0174531601, -0.0098317601, 0.0388530307, 0.0574652366, 0.0384597890, 0.0110083334, 0.0382701717, -0.0495113507, -0.0390278436, 0.0130236782, -0.0592703782, 0.0529556833, -0.0038180277, 0.0495784469, -0.0260434635, 0.0361899100, 0.0237893648, -0.0080354698, 0.0148983561, 0.0118286796, -0.0101993270, -0.0536939912, 0.0591238923, -0.0257795677, 0.0365492292, 0.0388421454, -0.0327114835, -0.0444952212, 0.0522444509, -0.0145758502, -0.0143546797, -0.0493148789, -0.0336278006, 0.0406676792, 0.0092329048, 0.0103821866, -0.0461722538, -0.0580982715, 0.0581076331, 0.0074254759, 0.0078063570, -0.0419495329, -0.0365256593, 0.0241798647, -0.0494021177, 0.0397273116, -0.0235245042, 0.0511666350, -0.0092928298, -0.0365642831, 0.0155061744, -0.0597226135, 0.0297911726, 0.0557013936, -0.0240954086, 0.0419443585, 0.0031830557, 0.0410142131, 0.0243275426, 0.0351745449, 0.0248569585, 0.0149243660, 0.0155543722, 0.0538842566, 0.0192485638, 0.0006741807, -0.0135915242, 0.0121315159, 0.0481286980, 0.0415189452, 0.0450743549, -0.0138503462, -0.0350959525, 0.0171288587, -0.0500001013, 0.0587357618, -0.0503375307, 0.0458177961, 0.0261770971, 0.0441346206, -0.0028472133, 0.0158218183, -0.0053999126, 0.0323058404, 0.0594908111, 0.0180923976, 0.0472127087, -0.0605824627, -0.0519335419, 0.0146639831, -0.0067298263, -0.0467919521, 0.0220553093, -0.0572877042, 0.0549550466, -0.0533101931, 0.0265324228, -0.0184865147, -0.0384510309, -0.0039376691, -0.0056286380, -0.0520801023, 0.0094005205, 0.0031452589, 0.0431066044, 0.0321241878, -0.0173849426, -0.0531979315, 0.0604856201, -0.0610311814, 0.0080905668, 0.0338415913, 0.0429325067, -0.0503904261, -0.0280964561, 0.0331419595, 0.0480259992, -0.0581871122, 0.0179534368, 0.0046393164, -0.0227212571, 0.0132406466, -0.0193419792, 0.0390710644, -0.0470130332, -0.0188759118, -0.0440290198, 0.0561030842, 0.0056613199, 0.0496462919, 0.0460678749, -0.0399292968, 0.0486003570, 0.0318882577, 0.0375105180, -0.0612984672, 0.0286900885, -0.0195952132, 0.0493541174, 0.0382688008, 0.0529466681, -0.0248460658, 0.0574236177, 0.0223095976, -0.0165435150, 0.0341862328, 0.0544573553, -0.0349191353, -0.0390903689, -0.0589820109, -0.0536810234, 0.0088325851, -0.0474975780, 0.0123724304, -0.0374256447, 0.0297402032, -0.0088823922, 0.0360595025, -0.0339350030, 0.0054109655, 0.0402991287, -0.0550461039, 0.0118005387, 0.0484403260, 0.0581042580, 0.0095339082, 0.0456858240, -0.0356206931, -0.0222495869, -0.0318529867, 0.0312893875, 0.0572584160, 0.0213067941, 0.0116799586, -0.0469546989, -0.0089188814, 0.0323999859, 0.0045689680, -0.0357474647, -0.0578821599, -0.0001935884, -0.0165058076, -0.0388314463, -0.0592415482, 0.0013000257, 0.0363053419, -0.0066083781, 0.0557766519, -0.0375839770, -0.0576599315, -0.0474717505, -0.0396717712, -0.0133185312, -0.0410813093, 0.0387503542, -0.0011030249, -0.0317314640, -0.0410688408, -0.0422112346, 0.0567677431, 0.0190010630, 0.0427480154, 0.0311533399, 0.0140870847, -0.0046176724, 0.0105432533, 0.0608420037, 0.0085599758, -0.0341352820, 0.0199906267, 0.0156109817, 0.0419004150, 0.0295622982, -0.0333361477, -0.0066901892, -0.0126994662, -0.0139954202, -0.0301025063, 0.0326294489, -0.0058468245, -0.0572667830, -0.0066965707, 0.0416274257, 0.0385618173, -0.0545217469, 0.0434385054, -0.0394628048, -0.0199958757, -0.0165115856, 0.0489082970, 0.0489744954, -0.0462112129, -0.0077533163, -0.0027943477, -0.0167048201, 0.0266100131, -0.0400438234, -0.0023510978, 0.0261544324, -0.0256135762, -0.0615823120, 0.0409807377, -0.0335243009, -0.0048400797, -0.0584713370, -0.0188812353, -0.0133807622, 0.0272649191, -0.0369500779, -0.0086411871, -0.0308769532, -0.0006918982, 0.0306594558, 0.0216633342, -0.0133111812, 0.0100327022, -0.0394204482, -0.0397902355, 0.0279522799, -0.0105441809, 0.0011331625, 0.0516280271, -0.0065384284, 0.0597413443, 0.0308053978, -0.0565498322, 0.0446493365, -0.0513107255, -0.0162265375, -0.0280303285, 0.0395304151, 0.0238605104, -0.0182588473, -0.0251441710, 0.0307044722, -0.0234464519, 0.0080003776, -0.0446917936, 0.0597062968, -0.0318800807, 0.0174593739, -0.0545099527, -0.0048387535, -0.0373956487, 0.0065440424, 0.0036891587, -0.0372138992, -0.0314478874, -0.0078343824, 0.0499220379, -0.0280694924, 0.0277470462, 0.0110736676, -0.0194147527, 0.0275224186, -0.0232692547, 0.0311429016, 0.0457510985, -0.0397600681, 0.0359699689, 0.0135669746, 0.0117614232, 0.0161454566, -0.0606903546, 0.0581220277, 0.0132587738, -0.0030884072, 0.0410162099, 0.0100056939, -0.0164977498, -0.0583987869, -0.0194920227, 0.0062772669, 0.0403074361, 0.0294161253, 0.0015784167, -0.0389711261, 0.0510164760, -0.0143908896, 0.0394627564, 0.0426672660, -0.0190748237, 0.0056988560, 0.0407113023, -0.0414299816, -0.0492533371, -0.0397946313, 0.0492048673, -0.0541493110, -0.0256208517, 0.0527726598, 0.0087324940, -0.0017817207, 0.0065454952, -0.0242998190, -0.0031654425, 0.0247388668, -0.0371389017, 0.0130059309, -0.0053776093, -0.0483082086, 0.0498650707, -0.0284458064, 0.0141962282, -0.0230722688, -0.0410041250, 0.0316164829, -0.0245251320, 0.0389333107, -0.0139674433, -0.0231402367, -0.0483918302, -0.0098679699, 0.0476640277, 0.0092670880, 0.0434285365, 0.0469170772, 0.0176027454, -0.0400657877, -0.0523822457, -0.0304419510, 0.0524205007, 0.0362461098, -0.0448408686, 0.0266877972, 0.0541255362, 0.0278947242, 0.0474449508, 0.0016079955, -0.0171040110, -0.0254677497, 0.0603046604, -0.0269851983, 0.0011170097, 0.0227155201, 0.0145553686, 0.0006048493, -0.0235140808, 0.0091199540, 0.0273822136, -0.0355337933, 0.0274990462, -0.0351146981, 0.0155314766, -0.0422981530, 0.0281229354, 0.0070157982, 0.0605988540, 0.0409258865, -0.0089205876, -0.0100215860, -0.0356950685, -0.0542483851, 0.0204033442, -0.0605641268, 0.0606877245, 0.0510648601, 0.0239691772, 0.0028427579, -0.0358803049, -0.0554560423, 0.0420918278, 0.0288689770, -0.0327035002, -0.0337028354, -0.0011549369, -0.0028897002, 0.0000063814, -0.0446378700, 0.0587956272, -0.0387227573, -0.0162265226, -0.0502229631, 0.0256004892, 0.0526116081, 0.0172682889, 0.0140468739, 0.0026179738, -0.0042512827, 0.0211749338, 0.0172135346, -0.0239213109, 0.0551185124, -0.0309985802, -0.0584444180, -0.0513537303, 0.0333311670, -0.0272970311, -0.0489569418, 0.0595438741, -0.0103625730, -0.0476476811, 0.0220978372, 0.0427329503, 0.0299225338, -0.0539507680, -0.0313216448, 0.0432386361, 0.0148078837, 0.0441439711, -0.0470456854, -0.0295753106, 0.0118125789, 0.0604355745, -0.0033147223, -0.0597590283, -0.0353834555, -0.0405030698, 0.0357521810, 0.0146954171, 0.0578801893, 0.0110668354, 0.0609099679, 0.0088541545, -0.0450457633, -0.0088573135, -0.0350766033, 0.0137004890, -0.0297736190, 0.0365498699, 0.0091052987, -0.0454696082, -0.0006207414, -0.0570418797, 0.0066292994, -0.0287472494, -0.0090914182, -0.0485267602, -0.0415125042, 0.0065057762, 0.0324860476, -0.0238416605, -0.0590404905, -0.0298781171, -0.0087327473, -0.0041932836, -0.0437509567, 0.0590648092, 0.0114610530, -0.0366673544, -0.0371771306, 0.0329380743, -0.0304128118, -0.0271358453, 0.0521916710, 0.0111298598, -0.0564085543, 0.0152128972, 0.0364450105, 0.0106648169, -0.0199472420, -0.0183440857, -0.0234994516, 0.0173078515, -0.0365535468, -0.0071218126, 0.0313970633, -0.0021388493, 0.0324262567, -0.0405383781, 0.0558011420, -0.0155742913, -0.0127872191, 0.0549780540, 0.0422153063, 0.0401840471, 0.0579866879, -0.0345634036, -0.0317089707, 0.0285866894, 0.0308088250, 0.0576872043, -0.0421266593, -0.0208339058, -0.0160680711, 0.0054500736, -0.0101943426, -0.0548517480, 0.0231786631, -0.0516970232, -0.0430511348, -0.0393020436, -0.0283719040, 0.0276768617, -0.0532991365, 0.0610884167, -0.0271418281, 0.0203670003, 0.0392380469, 0.0588984601, -0.0559367388, 0.0045760684, -0.0019634031, 0.0198432542, 0.0226370133, 0.0340479426, 0.0259690247, -0.0012852959, -0.0398361459, -0.0616500117, -0.0548638180, 0.0550521500, -0.0086518452, 0.0028302334, -0.0568395406, 0.0143677332, -0.0000964850, -0.0110142753, -0.0497247279, 0.0165789761, 0.0374372117, -0.0492756702, 0.0255297609, -0.0396059230, 0.0157611631, -0.0004265942, 0.0006628186, -0.0171005130, -0.0009414256, -0.0074856170, 0.0551491641, -0.0043370351, -0.0150411986, -0.0524886288, 0.0364745446, -0.0304181632, -0.0189665928, 0.0084282346, -0.0170411207, 0.0248851590, 0.0567131825, -0.0078411140, 0.0247572698, -0.0000630245, 0.0215921216, 0.0529749952, -0.0469191931, -0.0453476310, -0.0410573296, 0.0159510337, -0.0499976613, -0.0466895700, 0.0316330083, -0.0028609745, 0.0465465076, -0.0603942685, -0.0503072888, -0.0162676126, 0.0320030935, -0.0162916631, 0.0066697858, -0.0000708774, -0.0372639969, -0.0094810538, 0.0309322886, 0.0259288363, 0.0220488645, -0.0393221378, -0.0601341389, 0.0333516486, 0.0148217343, 0.0390501432, -0.0103822574, 0.0189541690, 0.0414812006, -0.0394077301, 0.0347300880, 0.0470480062, -0.0602911077, -0.0449585542, 0.0163794495, -0.0177552439, -0.0530990213, -0.0598869026, -0.0228677429, -0.0285073780, 0.0315113850, -0.0142541826, 0.0116306059, -0.0221885778, -0.0061561279, -0.0307061374, -0.0133114755, 0.0183261521, 0.0384299345, 0.0464662276, -0.0457272381, 0.0361844338, 0.0593505315, -0.0329966620, 0.0356020667, 0.0115083195, 0.0065809302, -0.0068835318, -0.0588157810, 0.0109440871, -0.0290009975, 0.0023938753, 0.0420346297, 0.0111905597, 0.0042709969, 0.0140808783, 0.0149005316, 0.0203229524, 0.0479114242, 0.0145151950, 0.0061400570, 0.0482562520, -0.0358845405, -0.0387987494, 0.0016502924, -0.0176792815, -0.0593287610, -0.0494423993, 0.0330110230, 0.0362551697, 0.0033077113, 0.0121477656, -0.0326633789, 0.0073756315, 0.0110392980, 0.0370710157, -0.0307237785, -0.0546520725, -0.0178422183, 0.0611711554, 0.0582187958, -0.0454681963, -0.0445957184, 0.0583368652, -0.0094376691, -0.0182601698, -0.0179643147, 0.0505211391, 0.0349301510, -0.0450980440, 0.0568775870, 0.0068347342, -0.0320812017, 0.0292105488, -0.0365354791, 0.0283269025, 0.0409056805, 0.0531585179, -0.0416944474, 0.0000426918, 0.0261467807, -0.0468049310, -0.0247725435, -0.0440494865, 0.0402381904, 0.0235736631, 0.0373050906, 0.0350582562, -0.0463966280, 0.0312908478, -0.0092721470, 0.0094491206, -0.0089802332, 0.0276940130, -0.0525621213, 0.0286050104, 0.0109300800, 0.0345141701, -0.0439528376, -0.0517497435, -0.0411766618, 0.0411038734, -0.0192136653, -0.0013605356, -0.0215753317, 0.0246622823, 0.0073678158, -0.0164036006, -0.0339777842, -0.0573184453, -0.0530595183, -0.0501961634, 0.0569933169, 0.0345567428, 0.0183858387, -0.0078899823, -0.0072026253, -0.0057347976, 0.0074783824, 0.0526686348, -0.0274762586, 0.0178288855, -0.0263128541, -0.0048043095, -0.0209935792, -0.0426042527, -0.0170498975, -0.0363405533, -0.0297154002, 0.0267120264, -0.0044553690, 0.0393603481, -0.0386257693, -0.0521293059, -0.0514241941, -0.0595867112, 0.0191925429, 0.0527575500, 0.0250961818, 0.0283531733, 0.0056753568, 0.0216392688, -0.0279337540, 0.0223835595, 0.0244955681, -0.0182255618, 0.0016112737, 0.0471617244, 0.0114498399, -0.0059280209, 0.0516184159, 0.0486890338, 0.0172761343, 0.0272667594, 0.0123304613, 0.0134413354, 0.0042314790, 0.0030613877, 0.0034991540, -0.0519193560, 0.0306235291, 0.0058845319, -0.0610189326, 0.0252535604, -0.0526707210, -0.0203635581, 0.0361527242, 0.0565699749, 0.0043449737, -0.0035180449, 0.0508711971, 0.0586892404, -0.0402216092, -0.0130248405, -0.0221546441, 0.0487633534, -0.0409865566, -0.0511165336, -0.0311472565, -0.0409393199, 0.0010876767, -0.0102796555, 0.0575651489, 0.0386127867, -0.0289941579, 0.0087814964, 0.0495084859, 0.0431294478, 0.0245443024, -0.0609051436, -0.0218613222, 0.0252348371, 0.0568640046, 0.0354206078, -0.0344106108, -0.0239703991, 0.0198713951, -0.0164394602, -0.0305561218, 0.0240533613, -0.0565805323, -0.0017927773, 0.0030889623, -0.0497573502, 0.0273388587, -0.0606694631, -0.0118066147, 0.0270115696, -0.0307631940, 0.0177410431, -0.0539337285, 0.0373571180, -0.0249471851, -0.0262912698, 0.0375285260, -0.0238070972, -0.0036917143, 0.0430577956, 0.0263396539, -0.0476621762, 0.0120420568, 0.0554504283, 0.0070354827, -0.0027736314, -0.0407629758, -0.0275204368, -0.0467943624, 0.0536871217, 0.0094315223, -0.0159680247, -0.0290702395, -0.0075747222, 0.0149288960, 0.0269625746, -0.0244664736, -0.0233858228, -0.0330716856, -0.0119828545, 0.0044896640, 0.0119390748, 0.0299482755, -0.0181161985, 0.0047840364, -0.0270862989, 0.0329158343, -0.0187326297, 0.0195679553, 0.0214126594, -0.0431159809, 0.0260284357, 0.0336434580, 0.0081513040, -0.0076672547, 0.0182971545, -0.0040794499, 0.0114837848, -0.0477075316, -0.0048630573, 0.0083834939, -0.0021299422, -0.0243208110, -0.0399628878, 0.0485325046, -0.0322385505, 0.0380169265, -0.0572403222, -0.0430226997, 0.0470559634, -0.0368332602, 0.0431006216, -0.0024192519, -0.0477872863, -0.0560565963, -0.0350194015, -0.0579730459, 0.0109033100, -0.0029572845, -0.0453807525, 0.0200181492, -0.0169553794, -0.0282313414, -0.0006805621, 0.0378901698, 0.0160904042, -0.0497798435, -0.0225430727, 0.0412125178, 0.0432490446, 0.0403427891, -0.0562371910, 0.0416121818, 0.0238604657, 0.0271151178, 0.0108468123, -0.0277410038, 0.0574162416, 0.0499557443, 0.0177302547, -0.0434439890, -0.0313443318, 0.0037972666, 0.0290659927, 0.0167300813, 0.0256426819, -0.0404635221, 0.0385749452, -0.0059155822, -0.0517594926, 0.0498893075, -0.0049166717, -0.0431400910, -0.0178808831, 0.0468182974, -0.0227607749, -0.0026572123, -0.0286640525, 0.0443139188, 0.0306641795, 0.0493315347, -0.0409726799, -0.0002314299, -0.0410686508, -0.0333909728, 0.0381276421, -0.0099462830, -0.0519273840, 0.0390767567, -0.0196396112, 0.0323062800, -0.0407012440, -0.0095707625, 0.0568712838, -0.0030376427, 0.0261334516, -0.0193263218, -0.0609599240, 0.0321596302, -0.0562577583, 0.0589640774, 0.0170991011, -0.0248651356, 0.0607351400, 0.0017709620, -0.0551395901, 0.0432504006, 0.0061005093, 0.0458387025, 0.0520661362, -0.0404082276, 0.0181182809, 0.0059650503, -0.0462134629, -0.0583120920, -0.0510189608, 0.0075032450, -0.0334442072, 0.0132121854, 0.0454029255, -0.0509133153, 0.0082262643, -0.0159747154, 0.0472402759, -0.0126678720, -0.0569583029, -0.0247654282, 0.0453933515, -0.0232332796, -0.0440149680, -0.0392203890, -0.0225577466, 0.0549899898, -0.0101130567, -0.0591187924, -0.0296622552, -0.0022184588, -0.0574165769, 0.0559836961, 0.0033413880, 0.0100175701, -0.0451781377, 0.0149719976, 0.0225800462, -0.0324575603, -0.0312084574, 0.0514391921, 0.0027078278, 0.0528800525, 0.0063000880, -0.0023802482, -0.0480415672, -0.0416017249, 0.0321377106, 0.0445139520, -0.0068028495, -0.0336863995, 0.0071179606, 0.0510065816, 0.0113905631, -0.0224243291, 0.0004617460, -0.0505657122, 0.0512864850, 0.0493590571, -0.0198253654, 0.0495291390, -0.0045876987, 0.0021175481, -0.0436476618, 0.0441795327, 0.0130092688, -0.0246953778, -0.0049222000, -0.0384268016, -0.0031165443, -0.0048395209, -0.0039484762, 0.0182323717, 0.0447048210, 0.0372084863, -0.0408347175, -0.0117412657, -0.0043635294, 0.0123902969, 0.0488321073, 0.0118861161, 0.0469507538, 0.0240245499, 0.0602979250, -0.0192242935, 0.0548467971, -0.0417149588, -0.0087265857, 0.0220906623, -0.0063630678, 0.0519162379, 0.0062375031, 0.0129809268, -0.0437788442, 0.0492680557, -0.0401302651, 0.0202250592, 0.0450088046, 0.0469168387, -0.0319101475, 0.0286489986, -0.0281599090, 0.0148303173, -0.0199854933, 0.0499996580, -0.0440962799, 0.0007083043, -0.0394584388, 0.0461866446, 0.0169429742, 0.0377262123, -0.0248958617, 0.0461769886, 0.0166552477, 0.0294246040, 0.0179960541, -0.0497452356, -0.0194418170, -0.0002105422, 0.0146190859, 0.0397675224, -0.0478438437, -0.0194625482, 0.0478156917, 0.0123663284, 0.0151814781, -0.0521475673, -0.0098470934, -0.0554221533, 0.0374467112, 0.0069282241, 0.0277785473, 0.0024353229, 0.0513013043, -0.0387888849, -0.0182472765, 0.0033232458, 0.0262730084, -0.0299212374, -0.0578741618, -0.0476903915, 0.0082476847, 0.0423647501, -0.0382249504, -0.0551063344, 0.0498803444, -0.0590834357, -0.0604025014, 0.0519089587, 0.0454947017, 0.0016576238, 0.0372394361, -0.0006634928, 0.0084665753, 0.0226941444, -0.0067289285, -0.0230581425, 0.0266898312, -0.0203406699, 0.0394859128, 0.0002929121, -0.0478892438, 0.0263865180, -0.0451465137, 0.0479874052, 0.0143867470, 0.0096187182, -0.0128167123, 0.0043915324, -0.0526907593, 0.0044298880, 0.0216870196, -0.0312512964, 0.0615527891, 0.0003419444, -0.0145513415, -0.0055291541, 0.0560133345, -0.0472035185, -0.0266627781, 0.0513801314, -0.0251568854, 0.0395921059, -0.0414652824, -0.0224456601, -0.0190579891, -0.0295221061, -0.0183724165, -0.0238820314, -0.0534264073, 0.0561746545, 0.0329667889, -0.0403083041, 0.0557169206, 0.0362864099, 0.0261742286, -0.0577405989, 0.0280913226, 0.0234292112, 0.0230345614, -0.0108073652, -0.0348189026, 0.0412103124, 0.0566564761, -0.0521526560, -0.0027171634, 0.0243266635, 0.0506909080, -0.0172174349, 0.0197733827, 0.0299243070, -0.0394493937, -0.0354335569, 0.0137371607, -0.0216400027, 0.0159282275, 0.0193785019, 0.0009979419, 0.0474093296, -0.0491781980, -0.0080225877, 0.0438777693, 0.0217189528, -0.0481924489, -0.0033458583, 0.0560767092, -0.0500145555, -0.0073302202, -0.0149710439, 0.0155470483, -0.0562217385, -0.0365240276, 0.0489981361, 0.0353111811, -0.0308575779, -0.0137874372, -0.0058411062, -0.0187057443, -0.0552414730, 0.0030544139, -0.0025858209, 0.0107224770, 0.0564103909, -0.0312138982, 0.0572365709, 0.0192987733, 0.0555159189, -0.0327646434, -0.0228715204, 0.0111534111, 0.0505117439, -0.0579949357, -0.0249184296, 0.0481777899, -0.0475252941, 0.0337148495, -0.0479232930, -0.0073780902, -0.0111738294, 0.0430755951, 0.0558268838, 0.0207031928, 0.0108329467, 0.0500662439, -0.0513743982, 0.0028766580, 0.0024629869, 0.0173745491, -0.0556819439, -0.0109177157, 0.0355931856, -0.0536248796, -0.0189809091, 0.0557707883, -0.0082530491, 0.0335983820, -0.0361110941, 0.0172604062, -0.0184386894, 0.0227770172, 0.0609015562, -0.0375113375, -0.0042326711, -0.0485668518, 0.0006551743, -0.0544407107, 0.0554496907, 0.0408307500, -0.0266597942, -0.0224757567, 0.0540796258, 0.0170442797, 0.0316264965, 0.0244762488, -0.0531647056, 0.0287065394, -0.0076986551, 0.0508087315, 0.0046975650, 0.0236402787, -0.0601562336, 0.0466595925, 0.0452952646, 0.0253179260, 0.0102859177, 0.0195260160, 0.0274697281, 0.0010703914, 0.0365082808, -0.0052617341, 0.0189123414, 0.0069781654, 0.0450339876, -0.0155043676, -0.0321299359, -0.0387944579, 0.0503429286, -0.0322252586, -0.0447715968, -0.0221305639, 0.0332430787, 0.0568788685, 0.0594789200, 0.0523851551, -0.0124159195, 0.0414640345, 0.0300479345, 0.0510491692, 0.0129841752, -0.0203983001, 0.0147188790, 0.0080273114, 0.0210602321, -0.0197771750, 0.0585731305, -0.0422858894, 0.0322976820, -0.0407027006, 0.0297785588, -0.0257079303, 0.0404079221, -0.0574340560, 0.0475291722, 0.0579806454, -0.0430741571, -0.0117200054, -0.0055409744, -0.0604819618, -0.0232278705, -0.0016489662, 0.0582822599, 0.0098173060, 0.0347177573, -0.0568978637, 0.0271694921, 0.0611561723, 0.0221944414, -0.0362372920, 0.0237686224, -0.0062181838, 0.0597225539, -0.0443778001, 0.0614165924, 0.0344062410, -0.0294059329, 0.0519759692, -0.0404779576, -0.0255443305, -0.0176872052, 0.0373063423, 0.0232161991, -0.0378058106, 0.0152768008, -0.0281977765, -0.0129985549, 0.0318592079, 0.0162856691, 0.0144556351, 0.0147348009, -0.0467998758, -0.0111628324, 0.0526733063, 0.0592405237, 0.0351214148, 0.0013284571, -0.0057178326, -0.0492339917, 0.0309424661, -0.0086435825, 0.0489005186, -0.0109227747, 0.0262652747, 0.0184118114, -0.0132598728, -0.0041546039, 0.0289519541, -0.0572908334, -0.0211708769, 0.0440476052, 0.0266839303, -0.0178290904, 0.0221667923, -0.0082378350, -0.0377326831, -0.0348412916, -0.0489540026, 0.0443635248, 0.0001270063, 0.0557464845, -0.0522214845, 0.0505511276, 0.0333704166, 0.0011608489, -0.0017321631, 0.0265659280, 0.0303374343, -0.0546237156, -0.0131322071, -0.0387768149, -0.0073670782, 0.0133671649, 0.0162864886, 0.0497467183, 0.0117646866, 0.0124731772, 0.0266200863, -0.0003410466, 0.0426023863, 0.0595827140, 0.0245875828, -0.0104308613, -0.0051622763, 0.0589312874, 0.0407533161, 0.0128719322, 0.0022627376, 0.0407715477, 0.0322425179, 0.0397423394, -0.0321790799, 0.0572490804, 0.0145892315, -0.0476545170, -0.0399351940, 0.0544369034, -0.0307583567, -0.0225891918, 0.0103466474, -0.0093341433, 0.0365226902, -0.0386011899, -0.0305988453, -0.0538872108, -0.0392827094, 0.0230186842, -0.0172371641, -0.0201954022, -0.0168695226, -0.0221002810, -0.0185878351, 0.0242282785, -0.0259306282, 0.0366239808, 0.0186922885, -0.0392844304, -0.0032598861, 0.0342265181, -0.0147364810, -0.0521270148, 0.0520418324, 0.0164243318, -0.0162842833, -0.0140057094, 0.0305879526, -0.0413764715, -0.0571979508, -0.0356668383, 0.0576385148, 0.0473137386, 0.0293636210, 0.0420514308, 0.0564879738, -0.0166523382, 0.0598713793, -0.0039555468, 0.0076574944, 0.0055578090, -0.0067358539, 0.0368667655, -0.0103861839, 0.0599206127, -0.0583804101, 0.0492364578, -0.0045953877, -0.0251955241, -0.0053662620, -0.0437474139, -0.0274229348, 0.0161395930, 0.0251758508, -0.0198031217, 0.0469061993, 0.0537275560, -0.0292661972, -0.0303265452, 0.0108926930, 0.0311666019, 0.0148076378, -0.0191162825, 0.0282193907, -0.0017208569, -0.0113191716, -0.0184415840, 0.0529843904, 0.0410958342, 0.0232834555, -0.0031348914, 0.0356204100, 0.0454135500, -0.0547264479, 0.0296863355, 0.0355477594, -0.0417153984, 0.0240482576, -0.0147243813, -0.0384336077, 0.0584894828, 0.0056821816, 0.0377154090, -0.0612305477, -0.0297756791, 0.0326937549, -0.0274023227, -0.0136046223, 0.0176738016, -0.0579429194, -0.0410507433, -0.0104133524, -0.0570629910, 0.0113910772, -0.0443943813, 0.0048501082, -0.0481363311, 0.0191617869, -0.0109931491, -0.0350876004, -0.0246871449, -0.0212431215, -0.0312977284, 0.0507639460, 0.0534492396, 0.0042618997, -0.0214645714, -0.0255159698, -0.0586860962, 0.0184865110, -0.0403558761, 0.0221684538, -0.0547496341, 0.0504451133, 0.0585139282, 0.0266909488, 0.0227899887, 0.0237084813, -0.0340056866, -0.0242768526, 0.0395248421, 0.0375888012, -0.0048277862, -0.0538177937, 0.0275698639, 0.0539669804, 0.0130079500, 0.0530693941, -0.0512883961, -0.0561573915, 0.0070817657, -0.0019204170, -0.0068532154, -0.0286363997, -0.0070869252, 0.0521814711, 0.0148399360, 0.0586464293, -0.0543663204, 0.0253704675, -0.0134803653, 0.0484215133, 0.0332540981, 0.0191134624, 0.0284215175, -0.0055828430, 0.0253542699, 0.0128881000, 0.0388992168, -0.0080994628, -0.0339364558, 0.0084125213, -0.0106797703, 0.0546079092, -0.0185487010, -0.0383164957, 0.0213229097, 0.0517753847, 0.0252934359, -0.0301157981, -0.0309539456, 0.0496966951, -0.0558892377, -0.0571057424, 0.0611719899, -0.0293078609, -0.0272070877, 0.0402066521, -0.0451458655, 0.0021051280, 0.0146315433, 0.0006770492, 0.0526501425, 0.0320783742, -0.0062556006, 0.0153600164, 0.0568853803, -0.0146754235, 0.0177602284, 0.0585386567, -0.0237092562, 0.0020265616, -0.0553744324, 0.0332874767, -0.0287915431, -0.0199227929, 0.0141829215, 0.0388411023, 0.0162338577, 0.0215703212, -0.0293308832, 0.0462619178, -0.0224373713, 0.0343807079, 0.0013422780, 0.0273780935, -0.0211834759, 0.0601377971, 0.0258261003, -0.0173425898, 0.0078895427, -0.0177683607, 0.0284657888, -0.0578854382, 0.0570414104, 0.0134892501, -0.0518275723, -0.0543196276, 0.0502909161, -0.0196676180, 0.0281707458, 0.0464508347, 0.0337235369, 0.0261838622, 0.0270664506, 0.0485732444, -0.0521885417, 0.0530843325, -0.0522409379, 0.0111798756, 0.0093244351, 0.0213435329, 0.0430724360, -0.0110328123, 0.0612548329, 0.0030177198, 0.0360054336, -0.0146550313, -0.0221804902, 0.0544067211, 0.0261735134, 0.0590066351, 0.0502648614, 0.0320904292, 0.0541981794, 0.0207171179, 0.0329826660, 0.0466734730, -0.0064339451, 0.0211546905, 0.0230673887, -0.0246692076, 0.0323250256, 0.0274422504, 0.0250772350, 0.0318599977, 0.0578011982, 0.0371270813, -0.0526308641, -0.0400696658, 0.0346803255, -0.0451159179, -0.0394373089, 0.0126213543, -0.0470017269, -0.0435857400, 0.0142886154, -0.0509389713, 0.0099693947, 0.0602535717, -0.0089938752, -0.0276351348, -0.0293128006, -0.0504379719, 0.0415983610, 0.0432563238, -0.0564174317, -0.0477929190, 0.0501384549, -0.0593197048, 0.0228129961, -0.0212032497, -0.0351901874, 0.0400932021, 0.0324205123, -0.0434930176, -0.0318231881, -0.0013486594, 0.0180090256, -0.0481080003, -0.0245011114, -0.0493508242, 0.0451430716, -0.0456500426, 0.0465098582, -0.0226290487, -0.0100560747, -0.0548703335, -0.0046327412, 0.0107684918, 0.0386486761, -0.0373508707, 0.0336974375, -0.0216162317, 0.0211610012, 0.0171118043, -0.0338457190, -0.0206671916, -0.0104480460, 0.0242807753, -0.0068538040, 0.0258338042, -0.0215125717, 0.0124433823, 0.0441469140, 0.0132044964, -0.0436799340, 0.0058079548, 0.0561289750, 0.0329562314, 0.0509335436, -0.0393352062, -0.0161537491, 0.0591604598, -0.0435293019, -0.0108558945, -0.0462165326, 0.0190324523, -0.0063125826, -0.0588766597, -0.0261591338, -0.0550126880, -0.0374769941, -0.0162478685, -0.0409370437, 0.0145404823, -0.0602459274, 0.0247959681, -0.0028029047, -0.0506783873, 0.0279525556, -0.0419360250, -0.0404556990, -0.0419458300, -0.0025911853, -0.0375139713, -0.0238945261, 0.0132527910, -0.0607465021, -0.0448269174, 0.0593860038, 0.0112051181, 0.0336829908, 0.0151975043, -0.0353649184, -0.0492801815, 0.0564676262, 0.0334367268, 0.0437031351, -0.0385623202, 0.0320889316, -0.0178627297, -0.0341824889, 0.0004590712, -0.0135601535, -0.0503066592, 0.0186404400, 0.0005737990, -0.0396596119, 0.0556354560, 0.0132572837, -0.0534039885, -0.0072701797, -0.0031227805, -0.0518501997, 0.0432546772, 0.0222399719, -0.0001305491, 0.0384336524, -0.0402732827, -0.0560303405, 0.0608835630, 0.0142056681, -0.0440093204, 0.0000539087, 0.0163167305, -0.0553238466, -0.0450161844, 0.0386145972, 0.0516330115, 0.0466924496, 0.0257772468, -0.0304112397, -0.0360250436, 0.0529120900, 0.0001714043, 0.0089919604, 0.0217687748, 0.0509836487, 0.0279736854, -0.0251600184, 0.0243163146, -0.0011581257, 0.0537631474, -0.0500344895, 0.0411983021, -0.0414831005, -0.0118103027, -0.0497025140, 0.0465919934, 0.0207030736, -0.0062581562, -0.0030243509, 0.0018019043, 0.0206874497, 0.0093695559, -0.0373654552, -0.0161316693, 0.0170351230, -0.0245570205, -0.0612121709, 0.0602740385, 0.0086461566, -0.0516928509, 0.0377940945, 0.0432072617, 0.0104437359, -0.0270450041, -0.0376347713, -0.0471164137, 0.0302021094, -0.0504087433, 0.0108051486, 0.0511254556, -0.0392917804, 0.0341844596, -0.0144229829, 0.0312550925, -0.0135696046, -0.0041653514, -0.0002676547, 0.0294127874, -0.0176857375, 0.0548795946, 0.0087380074, -0.0502321348, -0.0544893593, -0.0147006810, 0.0143016241, -0.0331179947, -0.0451711677, 0.0062910579, 0.0294312797, -0.0440192148, 0.0605256669, -0.0540902540, -0.0101848878, -0.0185225606, -0.0079851300, -0.0003448240, 0.0573102720, -0.0486802161, -0.0018414967, -0.0572086833, -0.0472546518, 0.0223461948, 0.0235682987, -0.0155121014, 0.0581452288, -0.0197847299, -0.0413190611, 0.0044740252, -0.0286231972, 0.0066096671, 0.0037932135, 0.0487605147, -0.0025292784, -0.0550836511, -0.0459235758, -0.0530991815, -0.0558517165, 0.0368537791, 0.0147305988, -0.0034411550, 0.0215424560, -0.0597807877, -0.0467308648, -0.0572337769, -0.0362463295, 0.0254119895, -0.0049758777, -0.0249374658, 0.0155211724, -0.0602760799, -0.0338431448, 0.0224352516, -0.0157977827, -0.0092573687, -0.0434032977, -0.0568472594, 0.0568228401, -0.0218024999, -0.0532566495, 0.0069691502, -0.0461810455, 0.0300229900, -0.0043339357, 0.0008747540, 0.0020589493, -0.0551051609, -0.0437382981, 0.0093933903, 0.0198923610, -0.0608601421, 0.0198383145, -0.0232933089, -0.0474635176, -0.0604738034, 0.0370798744, -0.0071549937, 0.0293909274, -0.0565383099, -0.0280346051, -0.0363224261, -0.0482465178, -0.0535621196, 0.0592303015, -0.0130608156, 0.0098127164, -0.0346047878, 0.0323275812, -0.0048100725, 0.0439581908, -0.0430219807, 0.0612030588, -0.0591212027, 0.0499712564, -0.0087831430, -0.0081347637, 0.0179881491, -0.0443369448, 0.0278047808, 0.0487003438, -0.0449642427, -0.0477755554, 0.0480006970, -0.0078930706, 0.0199794210, -0.0189603418, -0.0476112515, 0.0318544693, 0.0178536139, 0.0058307387, 0.0324148200, -0.0051164366, -0.0030539483, 0.0370036028, 0.0015808381, -0.0578665175, -0.0066941902, -0.0265213773, -0.0387427062, 0.0316322185, 0.0195760019, 0.0150439180, -0.0506912917, 0.0181698985, 0.0109663047, 0.0291539915, 0.0102849193, 0.0283726938, -0.0039500929, 0.0529447459, -0.0433451645, -0.0066943504, -0.0293892473, -0.0499867536, -0.0353254862, -0.0429618508, 0.0322551318, 0.0435741581, 0.0008539967, 0.0297658555, -0.0330891497, 0.0071136691, -0.0111311525, -0.0110001042, -0.0053285360, -0.0131005235, -0.0377535447, -0.0394228883, -0.0517908335, 0.0516133718, -0.0555912964, -0.0301424526, 0.0237085484, 0.0004453398, -0.0546210408, -0.0519767925, 0.0161638819, 0.0493034087, -0.0344114788, 0.0216182433, -0.0154426955, 0.0314282440, 0.0576355420, 0.0555199198, 0.0102278478, 0.0293127708, 0.0158959739, 0.0341223888, 0.0013844557, 0.0247268118, 0.0129686035, -0.0163850039, 0.0494456626, 0.0386844017, -0.0370663516, 0.0572935678, -0.0076957308, -0.0244553611, -0.0264843293, 0.0384655111, 0.0293114744, -0.0445452929, 0.0543668382, -0.0235931464, -0.0449661389, 0.0332761519, 0.0449666418, -0.0065768994, -0.0291184448, 0.0052728169, -0.0054208599, -0.0537523404, 0.0584217347, -0.0543657318, -0.0506391600, -0.0384428427, 0.0370379649, -0.0277165547, -0.0212304182, -0.0486036614, -0.0054345764, 0.0605520569, 0.0398327671, -0.0268118083, -0.0475819819, 0.0064361803, 0.0162149258, -0.0027139895, 0.0583360679, 0.0016975664, -0.0231728293, -0.0041296110, -0.0390630104, 0.0576630794, -0.0230424702, -0.0159436204, -0.0451491736, 0.0465235896, 0.0098877884, 0.0076046847, 0.0396196060, -0.0191005208, -0.0286380313, 0.0408619903, 0.0204663537, 0.0257184245, -0.0026955232, -0.0408060215, -0.0583495498, -0.0613307990, -0.0142332911, 0.0184479393, -0.0089968890, -0.0466906428, 0.0003534406, -0.0500509106, -0.0465373918, -0.0448993668, -0.0478438586, -0.0013993494, 0.0359828956, -0.0222325921, 0.0078173392, -0.0471804515, -0.0530977994, 0.0471064188, -0.0284201987, -0.0499506593, -0.0437495150, -0.0120572597, -0.0548784472, 0.0111238621, -0.0444785058, 0.0120370127, 0.0361626484, -0.0248137824, -0.0598985031, 0.0200540759, 0.0513452329, 0.0160744525, -0.0578433909, -0.0044383444, 0.0134775005, -0.0102997385, 0.0438699983, -0.0066421181, -0.0414662212, -0.0102979876, -0.0154684074, 0.0340929814, 0.0089610927, -0.0507781059, 0.0605027340, -0.0601857714, -0.0544885918, -0.0231577158, -0.0509081557, -0.0208887123, -0.0585822314, -0.0396039225, 0.0537213497, 0.0455069952, -0.0465056375, -0.0042199679, -0.0576830730, -0.0135715008, -0.0542825945, 0.0250229575, -0.0160375945, 0.0379600115, -0.0263206437, -0.0131095648, -0.0566468053, 0.0537327267, 0.0314685442, -0.0052349009, -0.0278936625, -0.0225720368, -0.0350020081, 0.0392950438, -0.0353853777, 0.0232505985, 0.0339470841, 0.0439370759, -0.0256636329, -0.0194160603, 0.0510799550, -0.0596419610, 0.0368847884, 0.0602047630, 0.0300702639, 0.0499722995, -0.0028144866, -0.0591225401, -0.0424954742, -0.0568904392, 0.0382837541, -0.0021585226, 0.0485643186, 0.0280955471, 0.0288289599, -0.0048393868, 0.0591740869, -0.0467039905, 0.0053016506, -0.0453241393, -0.0384384915, 0.0285075121, -0.0140675753, 0.0088320859, 0.0486199670, -0.0285152867, 0.0146992393, -0.0545515753, -0.0218665116, 0.0232381038, 0.0258230828, -0.0522654578, 0.0195651315, 0.0067338385, -0.0505506881, 0.0173045285, -0.0472921692, 0.0575310104, -0.0405268110, 0.0287909396, -0.0247590207, 0.0337550081, -0.0586990789, 0.0035534017, -0.0535333604, -0.0561900139, -0.0264137499, 0.0140436552, -0.0540663935, -0.0123225488, 0.0038345940, -0.0390351042, -0.0581169128, -0.0234797373, -0.0451149791, 0.0268534012, 0.0272896774, 0.0544938259, 0.0305573307, -0.0509569943, -0.0429638214, 0.0366202779, -0.0303359218, -0.0549911037, 0.0444508977, 0.0193207972, 0.0444513820, -0.0504152998, -0.0426305532, -0.0063801073, 0.0445709042, 0.0582090057, -0.0242813826, -0.0462533608, 0.0477762632, 0.0101732872, -0.0353040509, 0.0138073154, 0.0235940255, 0.0136065371, -0.0562967770, 0.0021739118, 0.0291085355, -0.0462083891, 0.0445744060, 0.0174150951, 0.0448440127, -0.0498025417, -0.0064208880, 0.0343494080, -0.0525145903, -0.0277834460, 0.0470059477, 0.0058897994, -0.0390620083, -0.0429352894, -0.0600356683, -0.0274897516, 0.0138237216, -0.0390248895, 0.0308575071, 0.0237643607, -0.0015175045, 0.0442982502, -0.0543807298, -0.0460698716, -0.0147071481, -0.0578591675, 0.0526202805, -0.0586720444, -0.0065686107, -0.0288692266, 0.0560823269, 0.0598892830, 0.0401246212, -0.0112625249, 0.0168029256, -0.0601405203, 0.0064807497, -0.0277900770, 0.0336728729, 0.0487522371, -0.0338825472, -0.0499662459, 0.0127666928, 0.0184830166, 0.0570698120, -0.0314562842, 0.0191512443, 0.0456479378, 0.0104512386, -0.0057098344, 0.0612180196, -0.0134205334, -0.0136507004, 0.0253783949, -0.0282040276, 0.0378115140, -0.0482555777, -0.0055739358, -0.0271169208, 0.0331896506, -0.0298547409, -0.0477194265, -0.0526386425, 0.0595754050, -0.0189042874, 0.0332517065, 0.0405841880, -0.0070675500, 0.0592550151, 0.0598668940, -0.0507901162, -0.0327699631, 0.0255306251, 0.0157035626, -0.0408143140, 0.0569500960, -0.0319879502, 0.0494713895, 0.0023640953, -0.0486006811, 0.0115295909, -0.0282258429, 0.0135553144, -0.0204039142, 0.0250165574, 0.0446841829, -0.0517431125, -0.0223756544, 0.0000945032, 0.0345689170, -0.0223852098, -0.0399965569, -0.0345841944, 0.0174837373, 0.0232221372, 0.0095459335, 0.0253098123, 0.0404145233, -0.0068965554, -0.0032530800, -0.0524870977, -0.0517993458, 0.0081135742, 0.0354195349, -0.0058510117, 0.0286796950, 0.0552060567, 0.0383387990, 0.0390587337, -0.0188423060, -0.0085804537, -0.0599769950, 0.0605075099, 0.0038662963, 0.0112730674, -0.0344714299, -0.0506158769, -0.0350231230, -0.0107971765, 0.0168983079, 0.0140058883, 0.0095891692, -0.0223615393, -0.0550862104, 0.0132104494, -0.0036534145, 0.0169002898, 0.0201597698, 0.0457035862, 0.0147537552, 0.0343771242, -0.0306482129, -0.0600358136, -0.0449802689, 0.0197790824, -0.0313835666, -0.0133944675, 0.0564884581, 0.0568699725, 0.0089975782, -0.0075514503, -0.0417425670, 0.0218824036, -0.0615976155, 0.0201117061, -0.0360260718, -0.0581751317, 0.0078966282, -0.0245089009, -0.0304475222, -0.0149580464, 0.0182027034, 0.0227052905, 0.0344207995, 0.0455618612, 0.0218996741, -0.0568121374, 0.0003479719, -0.0153985769, -0.0601648651, 0.0043199696, 0.0564977638, 0.0176187865, 0.0355690606, -0.0320743769, 0.0051313154, 0.0056250803, 0.0035524629, 0.0250106938, 0.0125148855, 0.0433745645, 0.0100998096, -0.0522177666, -0.0282903388, 0.0102892406, -0.0021616668, -0.0348129794, 0.0228224881, -0.0139706619, 0.0447906591, -0.0208028555, -0.0130258538, 0.0285737999, -0.0126292668, -0.0485152937, 0.0529075749, -0.0521366149, 0.0226628594, 0.0467348658, -0.0056620687, -0.0327162147, 0.0100365244, -0.0385215357, 0.0173645206, -0.0336589962, -0.0083316900, -0.0331994854, 0.0582621507, -0.0579626784, 0.0288048647, 0.0272954591, 0.0403128602, -0.0437368304, -0.0554456040, -0.0522260591, -0.0362988301, -0.0091200732, 0.0150286891, 0.0349572711, -0.0006632879, -0.0532868765, -0.0000302419, 0.0006289147, 0.0203843601, 0.0265122466, 0.0039782189, -0.0115299448, 0.0380270667, -0.0170979090, 0.0565072112, -0.0095416233, 0.0291996263, 0.0092281438, 0.0473401435, -0.0184777230, 0.0322036929, -0.0382821821, 0.0553544946, 0.0171026029, 0.0540669076, -0.0185729153, 0.0238681845, -0.0460654609, 0.0187377073, 0.0382265188, 0.0525452755, -0.0373584405, 0.0288037471, -0.0463686213, 0.0206024460, -0.0284685791, -0.0068041421, 0.0397814251, -0.0181848221, 0.0593950488, -0.0026060790, -0.0382682309, -0.0503590256, -0.0274915770, 0.0328102745, -0.0308026522, -0.0471475199, -0.0425688662, 0.0409136228, 0.0185810439, 0.0505492948, 0.0257522799, -0.0133949220, -0.0614771508, -0.0429260395, -0.0368018858, 0.0192870088, -0.0244898945, -0.0247182064, -0.0350921750, 0.0596418865, -0.0018263683, -0.0020887628, -0.0501913689, -0.0402673408, -0.0210412256, -0.0489914007, 0.0242904387, -0.0383077636, 0.0526369251, 0.0521874242, 0.0018593930, -0.0527771898, -0.0034461394, 0.0606149919, 0.0344572850, 0.0271937214, -0.0003941171, -0.0502428375, 0.0531245135, 0.0463482998, 0.0111553483, 0.0280331038, -0.0084066950, -0.0179839581, 0.0576269738, 0.0043014027, 0.0313073583, 0.0140491240, -0.0203640163, -0.0150748193, 0.0205099843, 0.0408318825, -0.0477624424, 0.0346903391, 0.0298093297, -0.0015648305, -0.0296827182, 0.0119164921, 0.0303359814, 0.0524809100, -0.0259141475, -0.0399612561, -0.0358630493, -0.0215181448, 0.0269395225, -0.0173748583, -0.0042304359, -0.0608980879, 0.0262700878, 0.0030219890, 0.0068386160, 0.0230571888, 0.0593835376, -0.0040027685, -0.0335558504, -0.0185772814, -0.0375049859, -0.0098346546, -0.0454531126, -0.0094375387, -0.0154562369, 0.0264437236, 0.0365656950, 0.0115921162, 0.0023458041, 0.0432137363, -0.0116984993, -0.0052501932, 0.0024972446, -0.0156810358, -0.0567549653, 0.0212460496, -0.0277054831, -0.0565762222, 0.0474374928, 0.0151470490, -0.0012795925, -0.0403625518, -0.0207986943, -0.0242125802, 0.0063501038, 0.0505423509, 0.0259005167, -0.0449328721, -0.0327897221, -0.0015150048, -0.0390482470, -0.0426427126, -0.0237216651, 0.0256936215, -0.0501316786, -0.0229007192, -0.0101435333, 0.0192800574, 0.0363748632, -0.0075621679, 0.0429832004, 0.0483847745, -0.0248603262, -0.0303015076, 0.0183721222, 0.0072976984, 0.0230180062, -0.0383872986, -0.0138745010, 0.0522159599, 0.0190977417, 0.0007658899, 0.0344143324, 0.0479449444, -0.0226930156, -0.0055323578, 0.0027454533, 0.0129486136, 0.0363245569, 0.0130946152, -0.0275245085, 0.0552747436, 0.0069470145, 0.0192205049, 0.0403747819, -0.0415201038, 0.0092949308, -0.0021581091, -0.0128625780, -0.0523152836, -0.0199137963, 0.0123815052, -0.0450720489, 0.0455577262, -0.0230636410, -0.0447877645, 0.0039162524, 0.0035633706, -0.0191226937, -0.0593527071, 0.0197005980, 0.0322464593, -0.0063092746, 0.0497138761, -0.0384590402, -0.0484961346, 0.0060810931, -0.0310089290, -0.0481333472, 0.0237893648, 0.0314573087, -0.0204146467, -0.0553332977, -0.0010461882, -0.0230394863, -0.0229761228, -0.0159847401, -0.0566593446, -0.0396010131, -0.0554358847, 0.0600536503, -0.0006311648, 0.0579106770, -0.0607653931, -0.0275317542, 0.0526274703, 0.0201150291, 0.0456099175, -0.0552179068, 0.0422737338, -0.0231521726, -0.0559946895, -0.0129174739, -0.0059614219, -0.0472540334, 0.0117656402, -0.0333632901, 0.0275147445, 0.0085312463, -0.0067936741, -0.0402853824, -0.0350764580, 0.0085216500, -0.0415316299, 0.0097831227, 0.0262887292, -0.0337780192, 0.0147409923, 0.0098569281, 0.0357641093, -0.0467811450, -0.0020490959, -0.0359980948, -0.0383743159, -0.0290502310, -0.0473399051, -0.0607820787, -0.0228622891, 0.0211384781, 0.0432782136, -0.0597791411, -0.0520708710, -0.0469095334, -0.0363801569, -0.0167416930, 0.0474938639, -0.0213480890, 0.0228385292, 0.0188676678, 0.0241069160, -0.0504892506, 0.0185384862, 0.0612521730, -0.0077249706, 0.0578623302, 0.0328321941, 0.0193984620, -0.0023847930, 0.0052759759, -0.0200124420, -0.0033907145, 0.0057904609, -0.0343240947, 0.0182101093, 0.0357927419, -0.0576217659, 0.0159787573, -0.0503315926, -0.0022738092, 0.0250177197, -0.0138670318, -0.0447649956, 0.0266885795, -0.0098903291, 0.0539897867, -0.0493949726, -0.0063248575, 0.0394701697, 0.0029450096, -0.0399475545, 0.0138590224, -0.0036558285, -0.0186265893, 0.0530116968, 0.0073426850, 0.0429162942, -0.0547663346, -0.0349887609, 0.0462258868, -0.0242709890, 0.0386576168, -0.0270622633, -0.0375150889, -0.0574551523, 0.0352540351, -0.0085522570, -0.0560818538, -0.0207916088, 0.0590441562, -0.0259614438, -0.0190247074, 0.0263462551, -0.0285363384, -0.0455614030, 0.0088816471, -0.0151033103, -0.0169435143, 0.0477070920, -0.0049524717, 0.0413007997, 0.0348813571, 0.0246038474, 0.0464809127, -0.0435841084, 0.0087222345, -0.0491092205, -0.0278076604, -0.0047108233, -0.0363965221, -0.0359046236, 0.0146796890, 0.0285720043, 0.0406937934, -0.0176938809, 0.0074693449, 0.0131969340, 0.0188260041, -0.0394724309, -0.0570266619, -0.0051529557, -0.0183790289, -0.0396484360, 0.0010889582, -0.0349129774, 0.0239818953, -0.0079117976, 0.0461258702, -0.0032419637, 0.0325572751, -0.0142088123, -0.0364566967, -0.0358170047, -0.0492355786, 0.0024720617, -0.0543411076, 0.0142054744, 0.0570143275, 0.0055453070, 0.0160656758, 0.0346441455, 0.0376620255, 0.0180699490, 0.0305681936, 0.0417129584, 0.0198945813, 0.0521942116, -0.0177293867, 0.0419763513, 0.0490376092, 0.0253479071, 0.0491947941, 0.0517020114, 0.0162474401, -0.0586384945, -0.0049039721, -0.0289175063, 0.0513317920, -0.0097909756, -0.0403262973, -0.0121980719, 0.0337797068, -0.0072770752, 0.0229788683, -0.0020336919, 0.0605703779, -0.0250415690, -0.0607591160, 0.0093725882, 0.0551679246, 0.0450900309, -0.0448563918, -0.0393042788, 0.0251265131, 0.0586887412, -0.0527017862, 0.0532075502, -0.0193281770, -0.0309859067, 0.0122487731, 0.0460610799, 0.0340902172, -0.0372771285, -0.0033201464, 0.0072906278, -0.0504664630, -0.0393008664, 0.0323788784, 0.0307093151, 0.0153121911, 0.0442433693, 0.0440518372, 0.0389824919, 0.0141043104, -0.0238580368, -0.0173878968, 0.0156616755, 0.0060918666, -0.0548388436, -0.0199630596, 0.0128247254, -0.0186921582, -0.0227838121, -0.0453036278, -0.0557723753, 0.0483860634, -0.0395714194, 0.0200396292, -0.0055516474, 0.0606169961, -0.0138198100, 0.0170637704, -0.0112531297, -0.0224839151, 0.0542922951, 0.0280508660, 0.0469987132, -0.0304592401, 0.0502910726, 0.0297266208, -0.0406528488, 0.0612384267, -0.0398531258, 0.0026534609, -0.0082803816, -0.0127936155, -0.0238301791, 0.0534499921, -0.0212257579, 0.0576427318, 0.0613500141, -0.0159160122, -0.0057769604, 0.0302643292, 0.0384091325, 0.0152045004, 0.0177749135, 0.0523320250, -0.0381396636, -0.0014901608, -0.0184579045, 0.0389460884, 0.0427995659, 0.0036327131, 0.0114306845, -0.0228978358, 0.0146291442, 0.0565030836, -0.0109524690, -0.0141826719, 0.0197159983, -0.0290636532, 0.0009795316, -0.0081048310, 0.0581862442, 0.0004434697, 0.0380669944, -0.0180366896, 0.0442038514, 0.0346395262, 0.0545566939, 0.0575476550, -0.0017866753, 0.0588130318, 0.0027660020, -0.0563606098, 0.0302734859, -0.0185620040, -0.0137637667, -0.0478504598, 0.0116204508, 0.0495959707, 0.0480279960, 0.0099778213, -0.0162647180, -0.0213723034, 0.0325436778, -0.0065133460, -0.0197647959, -0.0009535253, 0.0280853100, 0.0099886693, -0.0105802715, -0.0227074064, -0.0199735425, -0.0205230117, 0.0308133699, -0.0432856530, -0.0392061286, 0.0127577595, 0.0607783608, 0.0436630435, 0.0444219224, 0.0187606551, -0.0111922957, 0.0231977068, 0.0450534113, 0.0220478512, 0.0328482352, 0.0237544663, 0.0136132799, -0.0587034151, -0.0359323211, -0.0084180310, -0.0279283449, -0.0287255794, -0.0521772355, 0.0261065625, 0.0189834870, 0.0248719417, 0.0500151701, 0.0045558996, -0.0537064001, -0.0359593704, 0.0127670802, 0.0452872179, -0.0202434026, 0.0268811993, 0.0378784053, -0.0260795988, -0.0502865016, 0.0417773835, 0.0224719010, 0.0303994007, 0.0497701876, 0.0273782872, 0.0010365583, -0.0001173913, -0.0031333938, 0.0225385018, -0.0263136625, -0.0194102526, 0.0110817291, 0.0258646049, -0.0574718863, 0.0197400860, 0.0183124803, 0.0177451484, 0.0489781834, 0.0081391297, 0.0451213010, -0.0414764248, 0.0272252895, 0.0260636322, -0.0259724371, -0.0272039846, -0.0481070615, 0.0178971626, 0.0073746182, 0.0468472429, 0.0501203127, -0.0545157902, 0.0197828971, 0.0361989178, 0.0377338044, 0.0205873139, -0.0418602526, 0.0006058365, 0.0579454787, -0.0165201575, -0.0055015422, -0.0043348148, 0.0139146931, -0.0160210095, -0.0230567157, -0.0342419706, 0.0043601654, 0.0219972096, 0.0234534331, -0.0029690154, 0.0468649901, -0.0020464659, 0.0216789804, 0.0552335195, 0.0044869892, -0.0499724336, 0.0570897199, 0.0184183754, -0.0470660180, -0.0053024106, 0.0591935180, -0.0542869605, -0.0497029535, -0.0526594445, -0.0279942080, 0.0436075442, 0.0118313245, -0.0548553653, -0.0531840250, 0.0199793763, -0.0583035797, 0.0033344664, -0.0214886665, 0.0312178098, 0.0324503817, -0.0442623198, 0.0044284202, -0.0533027537, 0.0510928966, -0.0277890041, -0.0059564374, 0.0577547438, -0.0501630679, -0.0129015371, 0.0094294511, -0.0612258278, -0.0219180547, 0.0180812217, -0.0042328760, -0.0581967719, -0.0465623885, 0.0497394018, 0.0300000496, 0.0278102197, -0.0172142424, -0.0111631416, 0.0307868458, 0.0493842252, -0.0098346099, 0.0055009834, 0.0236128606, -0.0543959290, -0.0329991616, -0.0277496167, 0.0081705488, 0.0457386039, 0.0476816259, -0.0208936669, 0.0493989401, -0.0313029289, -0.0591525175, 0.0517766885, 0.0416596048, 0.0306153558, -0.0279678181, -0.0186255760, -0.0429234505, -0.0553998798, 0.0187655203, -0.0117750801, 0.0479970612, -0.0162305646, 0.0272010453, 0.0260581486, -0.0363976099, -0.0556031168, -0.0253641643, 0.0001195967, 0.0004717000, -0.0176040679, 0.0328177772, 0.0602567606, 0.0531131811, -0.0068448074, 0.0481892116, 0.0108956508, 0.0185696222, -0.0174550414, -0.0597078837, 0.0459321178, 0.0502223037, 0.0345999338, -0.0031922422, -0.0444939882, -0.0391216390, 0.0202473588, 0.0597408898, -0.0374405496, -0.0598053373, 0.0041402392, 0.0063263886, -0.0006094649, -0.0606540740, -0.0240945555, -0.0428537950, 0.0225287266, -0.0420376882, 0.0380076729, 0.0498777144, -0.0293002911, -0.0257254690, 0.0567555390, -0.0588838458, -0.0219367407, -0.0089484900, -0.0284807533, 0.0146148838, 0.0023774095, -0.0062091127, -0.0337480307, 0.0435649119, -0.0564584509, -0.0060664192, -0.0527948290, 0.0172938220, -0.0274544246, 0.0609528534, -0.0291574188, 0.0507055111, -0.0197453611, 0.0120074190, -0.0428782441, -0.0145562552, -0.0528527685, 0.0070439838, -0.0567619056, 0.0267276727, -0.0132687241, -0.0315471068, -0.0201444924, 0.0532543696, 0.0288145952, -0.0581803657, -0.0332042053, 0.0353675745, 0.0406148173, -0.0332370028, -0.0303783081, -0.0022654459, -0.0248190016, -0.0554052480, 0.0539302416, 0.0272437967, 0.0613881610, -0.0139249563, -0.0295758992, 0.0368608125, -0.0053416789, -0.0543356538, 0.0374881066, 0.0597334467, 0.0152826421, -0.0562632717, -0.0046392567, 0.0005017482, 0.0395656861, -0.0524777770, 0.0123808421, 0.0060861222, 0.0188880824, -0.0413270444, -0.0481813923, 0.0060067140, 0.0003651865, 0.0084518306, -0.0253703967, -0.0417675301, 0.0532137193, 0.0118579976, -0.0586725734, 0.0270516016, -0.0258617066, -0.0567117557, 0.0442147590, -0.0154710114, -0.0593778938, 0.0159811266, 0.0614135824, 0.0163836069, -0.0485147052, 0.0453701057, 0.0129649602, -0.0299247354, 0.0057632290, -0.0109156705, -0.0180640072, -0.0237990394, -0.0401380286, 0.0437859632, 0.0132419355, 0.0484376065, -0.0436720699, 0.0438453369, 0.0502694659, 0.0482643358, 0.0448561721, -0.0517708845, -0.0151451081, -0.0256956667, -0.0564782247, -0.0552657023, -0.0420001671, -0.0249172971, -0.0498828143, 0.0543054007, -0.0399148762, -0.0256038867, 0.0354293101, 0.0246177353, 0.0012558885, 0.0479297750, -0.0607724786, -0.0072189160, 0.0060971789, -0.0393922180, -0.0417588279, -0.0585178398, -0.0452966169, 0.0011103190, 0.0369871221, 0.0184454061, -0.0455311760, 0.0067773722, 0.0363730602, 0.0452862345, -0.0085176341, -0.0334957056, 0.0579969622, 0.0056727417, 0.0017889105, -0.0141799375, 0.0563368089, 0.0560895018, -0.0344959088, -0.0463407189, -0.0009476468, 0.0486119725, 0.0002889000, 0.0615123175, -0.0375225842, -0.0615238436, 0.0234258138, 0.0070089661, 0.0602292456, 0.0481944196, 0.0536164679, 0.0568167679, -0.0330192745, -0.0198328942, -0.0123261660, 0.0323230065, -0.0287922360, 0.0398127995, -0.0149431080, 0.0442802124, -0.0005109236, -0.0138591826, 0.0152862556, 0.0251356699, -0.0481729954, 0.0273766257, 0.0453725196, -0.0076837204, 0.0001523085, -0.0191628858, 0.0473295711, -0.0289935879, -0.0608988963, 0.0224878825, -0.0443576276, 0.0547747128, 0.0329465456, -0.0525211766, -0.0026671514, -0.0520843491, -0.0031471997, -0.0060074665, -0.0127358809, -0.0186336152, 0.0104339011, 0.0599831827, 0.0576509647, -0.0292300172, -0.0137101226, -0.0444522798, -0.0303309113, -0.0171457939, 0.0612942912, 0.0225781091, 0.0613662265, 0.0475008748, -0.0589837134, 0.0524760000, -0.0099574849, 0.0222987793, -0.0585685894, -0.0441387966, 0.0101213939, -0.0477184542, -0.0259159692, -0.0499322824, 0.0138401724, -0.0226604939, 0.0575573705, 0.0157937519, -0.0174633153, -0.0530759245, 0.0150376074, -0.0283932947, 0.0054894574, 0.0536502264, 0.0046657734, -0.0174500868, 0.0342355035, 0.0429111756, -0.0388530120, 0.0239334814, -0.0512679294, -0.0294154324, -0.0511407778, -0.0245616063, 0.0277387537, 0.0463735573, -0.0164123513, 0.0140762068, 0.0211138986, -0.0095950477, 0.0205809660, -0.0510793701, 0.0600948967, -0.0302697234, -0.0573228560, 0.0331967957, -0.0196718536, -0.0084888786, 0.0198892318, -0.0037658513, 0.0283185951, 0.0028195865, 0.0447222553, 0.0385901816, 0.0146293230, -0.0215644985, 0.0436978675, 0.0528928749, 0.0585571192, 0.0558889844, -0.0572189726, 0.0380853154, -0.0344553180, -0.0265919156, -0.0073940568, -0.0407570526, -0.0086046979, -0.0192563422, 0.0182387941, 0.0399697535, -0.0545725375, 0.0431649126, -0.0007109195, 0.0351990499, 0.0094388463, -0.0561708882, -0.0387908965, 0.0605323575, 0.0419078581, -0.0522874072, -0.0329607762, 0.0481905080, -0.0200338475, 0.0019808672, 0.0569811203, 0.0056107007, -0.0213184096, -0.0528033599, 0.0614365153, 0.0177583732, -0.0289942324, -0.0206383020, 0.0316972546, 0.0608100109, -0.0594301708, -0.0222272985, 0.0508304723, -0.0551661253, -0.0187864229, -0.0118928365, -0.0425704271, 0.0115652718, 0.0140508749, -0.0395379737, -0.0497536436, 0.0030252375, -0.0459962189, 0.0599986948, -0.0082353801, 0.0129728578, -0.0585204549, 0.0074884258, -0.0364808217, -0.0136621520, 0.0115509667, -0.0543175116, -0.0332124531, -0.0447652563, 0.0090689994, 0.0141296573, -0.0335858837, -0.0292885117, -0.0481235273, -0.0158841088, 0.0413603000, 0.0463827662, 0.0481702052, 0.0156451054, 0.0605084859, -0.0345671959, -0.0171989985, 0.0411903597, -0.0404264852, -0.0368179530, 0.0582938306, 0.0300363041, -0.0384051614, 0.0372553281, -0.0133889951, 0.0140703358, -0.0485734530, 0.0120480992, 0.0390416496, 0.0461244397, -0.0539270975, -0.0143960081, -0.0532958880, -0.0554141998, -0.0479834639, -0.0542280972, -0.0289400890, -0.0612560399, 0.0202150606, 0.0089913793, 0.0410504527, 0.0437623225, 0.0147318356, -0.0283076875, -0.0506013632, -0.0373233482, -0.0215469711, 0.0317652188, -0.0596670285, -0.0208469741, -0.0074857324, -0.0526905693, -0.0244208984, 0.0524481572, 0.0442707278, 0.0448947363, 0.0349420123, -0.0090386719, 0.0360744111, 0.0100184940, -0.0568975247, 0.0462738238, -0.0574553609, -0.0195873789, -0.0468036830, 0.0154299177, -0.0288841203, 0.0494973548, -0.0486322418, -0.0222420022, -0.0400132723, 0.0570038743, -0.0403281040, 0.0350426324, 0.0467096083, 0.0166599639, -0.0446861200, 0.0080322810, 0.0133666061, -0.0529680587, 0.0129486881, 0.0005798861, 0.0206377693, -0.0016847514, 0.0325706713, -0.0426199958, 0.0311235003, -0.0087115616, 0.0010978915, -0.0108197890, 0.0584794693, -0.0118915439, 0.0430819653, 0.0515931584, -0.0220815353, -0.0086842030, 0.0291026272, 0.0122381486, 0.0495441668, 0.0164467655, 0.0223470889, 0.0520494916, -0.0067582130, -0.0225455277, 0.0551878847, -0.0338221379, -0.0324286409, 0.0550993644, -0.0553057343, 0.0245228969, -0.0044165850, -0.0508477315, 0.0278652124, -0.0238038898, -0.0056077018, -0.0204977840, 0.0461749844, 0.0387246571, -0.0410308689, -0.0172261819, 0.0008481629, -0.0338084064, -0.0163207166, -0.0328235812, -0.0581775419, 0.0029195435, -0.0273115858, 0.0187990554, -0.0180122703, 0.0493409894, 0.0188602842, -0.0612300634, 0.0339011289, 0.0117751397, -0.0082642809, 0.0056577735, 0.0018379875, -0.0328132026, 0.0417512096, 0.0503781773, 0.0341318734, 0.0107879750, 0.0112891905, 0.0566721819, -0.0358752944, -0.0060771517, 0.0513403527, 0.0549063794, 0.0538581498, -0.0480610020, 0.0126043595, 0.0308137946, 0.0042349957, -0.0030559450, 0.0612145551, 0.0294257514, -0.0272027217, -0.0054011755, -0.0322263166, 0.0103151314, 0.0321557932, 0.0417686440, 0.0153180249, 0.0182166509, -0.0411887765, 0.0268113501, 0.0441180207, -0.0047040023, -0.0535049438, 0.0228571855, 0.0323394723, -0.0610743724, -0.0204056799, -0.0097959451, 0.0395277105, -0.0530699119, 0.0470404066, -0.0060475133, 0.0322829299, 0.0067071877, 0.0615379401, -0.0250629447, -0.0001155399, -0.0566807352, 0.0323230065, -0.0459642857, -0.0293466710, -0.0268933848, -0.0613581575, 0.0361711942, -0.0122463070, 0.0204902403, -0.0378343314, 0.0300208516, 0.0526600070, 0.0610169359, -0.0320603698, -0.0547397546, -0.0294861309, 0.0168584548, -0.0228994079, 0.0596037395, -0.0513011701, 0.0541143529, -0.0292979814, -0.0369841978, -0.0405724272, -0.0447384566, -0.0197535194, 0.0439166836, -0.0472368188, -0.0138279684, -0.0514889099, 0.0318481214, -0.0195099749, 0.0544306673, 0.0003073663, 0.0274091028, -0.0167329609, 0.0172410272, -0.0009236969, -0.0179497898, 0.0383576192, 0.0114859305, 0.0215403698, -0.0586563721, 0.0222852565, 0.0434525721, -0.0458541140, 0.0225197859, 0.0225912370, -0.0503461026, -0.0410799235, 0.0104169659, -0.0460752361, 0.0149715580, 0.0613944717, -0.0391424298, -0.0230193436, -0.0566261485, 0.0111073069, -0.0411821157, -0.0500995889, -0.0085587241, 0.0558483787, -0.0586818494, 0.0136064775, -0.0199562386, 0.0137970932, -0.0096452534, 0.0379900746, 0.0371620022, 0.0348132290, 0.0240592100, -0.0397419408, -0.0042593665, -0.0556393415, 0.0273056291, 0.0476758368, 0.0352229439, 0.0048722588, 0.0364103131, 0.0510932319, -0.0552264340, -0.0585647523, 0.0251785256, 0.0005879439, -0.0493228324, -0.0282949544, 0.0397477485, -0.0283430144, -0.0095231608, 0.0257963277, -0.0551649220, 0.0288694613, 0.0219962187, -0.0246391594, 0.0186947174, 0.0195002742, -0.0069400594, 0.0283979662, -0.0587537549, 0.0253888331, -0.0006692149, 0.0032929815, 0.0014228709, -0.0021813102, 0.0313971080, 0.0293712951, -0.0010912493, 0.0311595015, -0.0252192952, -0.0227210224, 0.0497661717, 0.0081597976, 0.0085232221, 0.0102040730, -0.0178878084, -0.0353268236, -0.0354932621, 0.0244970955, 0.0165773295, -0.0122322664, -0.0048758462, 0.0532305278, 0.0025159307, 0.0008667298, -0.0134910531, -0.0025079921, 0.0435401388, -0.0161518082, 0.0137616210, 0.0505135246, 0.0207005925, 0.0560296513, 0.0200516693, -0.0576583892, 0.0305574425, -0.0246199444, -0.0500826649, 0.0207101889, 0.0181854703, 0.0513014980, 0.0151017122, -0.0447031446, -0.0048715398, -0.0514069498, -0.0178776644, -0.0320472121, 0.0431789495, -0.0451369286, 0.0375048257, -0.0366325527, 0.0534131192, 0.0520719998, -0.0586954169, -0.0337610394, 0.0380557068, 0.0044111945, -0.0447923839, 0.0090193562, 0.0331759490, 0.0501188599, 0.0494626276, 0.0603055544, 0.0436689965, 0.0611167438, 0.0094160549, 0.0005970150, -0.0367936380, 0.0243304260, 0.0345642678, -0.0017289147, -0.0287667289, -0.0127441585, -0.0309732184, -0.0137114748, 0.0542388596, 0.0445265807, 0.0430657156, -0.0588308796, -0.0178840756, -0.0237470120, -0.0591463447, -0.0196481831, -0.0507587567, 0.0289273821, 0.0041817613, 0.0088858493, -0.0526034012, -0.0307441261, 0.0289756097, 0.0210472681, -0.0502749756, 0.0097677074, -0.0361647084, 0.0278041624, 0.0488729365, -0.0553435311, -0.0376950502, -0.0490958095, -0.0558125079, -0.0424758792, 0.0466236956, -0.0429185703, -0.0394682139, -0.0440837555, -0.0227448978, 0.0444076173, 0.0112322383, -0.0543842576, -0.0082787648, -0.0451083183, -0.0223349892, 0.0437085293, 0.0451408811, -0.0556858256, 0.0397749580, -0.0075206049, -0.0442196280, -0.0491607338, -0.0284984261, -0.0190998316, -0.0165138654, -0.0298015811, 0.0070609637, 0.0440768041, -0.0330337696, 0.0287269317, -0.0522573590, 0.0503794290, 0.0068571232, 0.0100373887, 0.0346473791, 0.0613321476, 0.0330539085, 0.0221653320, -0.0328094251, 0.0192087404, 0.0283818282, 0.0248191319, 0.0034319051, 0.0226280652, 0.0466284268, 0.0230831765, 0.0347282253, -0.0273647457, 0.0420485027, -0.0376359895, -0.0240246505, -0.0106790662, -0.0616210513, 0.0519195758, -0.0277637318, -0.0402985848, 0.0519780703, -0.0082481392, 0.0546583496, 0.0078446977, -0.0008598343, 0.0147406720, 0.0061495714, 0.0286995433, -0.0431509428, -0.0082570054, 0.0113667883, 0.0170439146, 0.0457744114, -0.0242712982, 0.0422446840, -0.0438131317, 0.0602553226, -0.0539857708, 0.0250548758, 0.0251979344, -0.0612077899, 0.0197702236, 0.0258025937, 0.0027132221, -0.0341564491, -0.0345181823, 0.0373807140, -0.0334573202, 0.0588112213, -0.0502753295, -0.0561447032, -0.0421210602, 0.0269980319, 0.0556265824, -0.0189419948, 0.0120886452, -0.0313795246, -0.0242385119, -0.0232736208, 0.0016581379, 0.0005743876, -0.0353258550, 0.0145786442, 0.0009177141, 0.0055588074, 0.0535078980, -0.0371120870, 0.0149119236, -0.0140897296, 0.0246763118, 0.0544534884, 0.0301804431, -0.0164866820, -0.0576410703, 0.0392483361, -0.0246893056, 0.0200634263, -0.0377150998, 0.0606797375, 0.0079537295, -0.0451352969, -0.0075048618, -0.0351997167, 0.0471864827, -0.0398070067, 0.0083139576, -0.0098859780, 0.0347437896, 0.0609287433, 0.0372411944, -0.0144725740, -0.0419711173, -0.0109424442, -0.0389189348, 0.0237630941, 0.0482437126, -0.0494560711, 0.0337547027, -0.0485780984, 0.0220814757, 0.0443503670, 0.0222805627, 0.0155356415, -0.0233087577, 0.0283448957, 0.0428780653, 0.0227308236, 0.0406311639, 0.0138639621, -0.0062205493, 0.0404782929, 0.0462107994, -0.0540237315, 0.0329620726, -0.0163509399, -0.0007712729, -0.0064765178, -0.0328697003, 0.0015893243, 0.0504602455, -0.0308743808, -0.0142588429, 0.0318228491, 0.0498392843, 0.0598235242, 0.0031368472, -0.0442640558, -0.0424271300, -0.0186668858, 0.0302986540, 0.0412607379, -0.0002464838, 0.0334228314, 0.0611794926, -0.0055732727, -0.0070732385, -0.0408687219, 0.0275789015, -0.0574086383, -0.0059981011, 0.0511313118, -0.0358077697, 0.0384015702, 0.0262508579, -0.0217130706, -0.0462002158, 0.0211296715, -0.0011618324, -0.0177173875, 0.0240427740, 0.0141682662, 0.0044382848, -0.0378342420, 0.0094767921, 0.0441760384, 0.0104548670, 0.0244742520, -0.0335329324, -0.0552527644, 0.0417010374, -0.0397489369, -0.0098613985, 0.0125628598, 0.0491518117, 0.0037682466, 0.0428860225, 0.0312514491, 0.0227439739, -0.0579047129, 0.0340529196, 0.0595858432, 0.0289766379, 0.0295194425, 0.0464987420, -0.0060642138, 0.0047808625, -0.0146191902, -0.0353423208, 0.0149804689, 0.0510241203, 0.0135871582, 0.0412781872, -0.0318261571, 0.0373872407, 0.0278584398, -0.0037118681, -0.0258564726, 0.0117732845, -0.0172054395, -0.0246834233, -0.0393731371, -0.0301337466, -0.0170057900, 0.0561726652, 0.0248558410, 0.0066646375, 0.0277703740, 0.0105356984, 0.0112591274, -0.0362555906, 0.0616558604, -0.0142563134, 0.0301052295, -0.0308681913, 0.0417849831, -0.0591025762, 0.0022667386, 0.0295709036, 0.0504985414, -0.0559246801, 0.0160683803, -0.0150679983, -0.0412596092, -0.0600536764, 0.0280417837, -0.0112375617, 0.0345501117, -0.0093221292, -0.0343800187, -0.0513244011, 0.0244702958, 0.0504910760, 0.0326691605, 0.0490149818, 0.0558654182, 0.0362068750, 0.0033021383, 0.0418275110, 0.0222596712, -0.0524185002, 0.0612430759, 0.0502952524, -0.0323129222, -0.0422022864, 0.0371409021, 0.0513220765, 0.0092640184, 0.0235218890, -0.0027058423, 0.0374071188, -0.0297019184, -0.0557782836, 0.0436904915, -0.0539476499, -0.0194477290, -0.0609888993, 0.0328810178, -0.0294047892, 0.0310723670, 0.0324132629, -0.0500471182, 0.0231345184, -0.0437957644, 0.0106672458, 0.0533896126, 0.0449791960, -0.0370944887, 0.0602176450, -0.0386584401, -0.0436261110, -0.0144788511, 0.0156118385, -0.0252753794, 0.0226426311, -0.0571597405, 0.0602901392, -0.0544210970, -0.0485229529, -0.0099673793, -0.0396766216, 0.0192885809, 0.0111508705, -0.0570072420, 0.0527595021, -0.0505911484, 0.0524150468, 0.0458696522, -0.0112645552, 0.0567540117, -0.0017803684, 0.0471148379, -0.0308567677, -0.0060041286, 0.0569903366, 0.0004334301, 0.0373259075, 0.0086031519, 0.0515322797, -0.0464886129, 0.0589238368, -0.0241669156, -0.0473514460, 0.0595820211, 0.0077140965, 0.0305713825, -0.0002191253, -0.0078052580, 0.0475756563, 0.0163427703, 0.0415773354, -0.0097594857, 0.0411220752, 0.0265615843, -0.0144775547, -0.0445940420, -0.0467703976, 0.0139328651, 0.0076388828, -0.0159629993, 0.0543049388, 0.0436195843, -0.0301305428, 0.0461641662, -0.0380359441, 0.0109655969, -0.0513112545, -0.0600441061, 0.0563931577, 0.0112241544, -0.0585498735, 0.0260930769, -0.0220674649, 0.0273625292, 0.0021374710, -0.0140945092, -0.0556078032, -0.0385288000, -0.0341403261, 0.0324564837, -0.0045867115, 0.0297736339, -0.0251685753, 0.0146527551, 0.0168957822, -0.0046997070, -0.0064156689, -0.0247514322, -0.0312553868, 0.0473880656, 0.0433924161, 0.0160575025, -0.0598615557, -0.0503861643, 0.0392000712, 0.0612700544, 0.0410229601, 0.0493316390, -0.0040583834, -0.0455339849, -0.0508014672, 0.0300049745, -0.0222240500, -0.0144763216, -0.0039666332, 0.0435132198, -0.0306268074, 0.0149281584, 0.0545562170, -0.0417911857, -0.0197794661, -0.0112401806, 0.0165615566, -0.0410408489, -0.0020724013, 0.0031808801, -0.0477402583, 0.0127434544, 0.0125858523, 0.0155348442, -0.0012844279, 0.0178398229, 0.0209345333, 0.0142661594, 0.0480437689, 0.0392012335, -0.0012061857, 0.0305429064, 0.0495735072, 0.0357890986, 0.0595559739, 0.0269296430, -0.0551873110, 0.0201954208, 0.0445941500, -0.0095504746, 0.0231842063, 0.0122275762, -0.0399505571, -0.0182116963, 0.0385469981, 0.0175413974, 0.0195994936, -0.0019206367, -0.0039824210, 0.0265156440, 0.0414655320, -0.0369184986, 0.0232294612, 0.0077721663, 0.0032243691, -0.0007286519, -0.0403658599, -0.0144304074, -0.0479414910, -0.0523081645, 0.0594837703, -0.0539671145, -0.0462906137, 0.0545084663, -0.0110580698, -0.0209863149, 0.0493893139, 0.0222645365, 0.0434729196, 0.0145228989, -0.0537458733, -0.0059471466, 0.0476628281, -0.0046505183, -0.0436365344, -0.0040208362, 0.0170068927, 0.0192288347, 0.0241467021, 0.0575383045, 0.0460225306, -0.0250990950, 0.0270040147, -0.0218791552, -0.0406261906, 0.0081389956, -0.0405967608, 0.0367497094, 0.0541659258, 0.0060659610, 0.0575454794, -0.0414263383, -0.0581584014, 0.0588340946, 0.0277362205, 0.0516447760, -0.0416922718, -0.0076962598, -0.0340752080, -0.0536788628, 0.0143068694, -0.0121918097, -0.0374290831, -0.0512960851, -0.0216978416, -0.0133316033, 0.0205544718, -0.0015486889, -0.0386072025, -0.0372773781, 0.0076309256, -0.0055715516, 0.0526891090, -0.0498556718, 0.0529114716, 0.0172578655, -0.0547048375, -0.0534397438, 0.0613250621, -0.0190674439, 0.0569434352, -0.0033153966, 0.0473629721, 0.0006312542, 0.0475761853, 0.0398806222, -0.0607134812, -0.0307568721, 0.0001924857, -0.0255305693, -0.0465133563, 0.0239047445, -0.0157292858, 0.0258324482, -0.0493473262, 0.0308525823, 0.0201559179, 0.0299249999, 0.0276479684, 0.0526334532, -0.0607378259, -0.0018478781, -0.0233690217, -0.0017519370, -0.0071914084, 0.0011979379, 0.0505653135, 0.0262252726, 0.0475265421, 0.0117728300, 0.0375663526, 0.0388810225, -0.0568662547, 0.0606047325, -0.0148719400, -0.0585842878, -0.0522555634, -0.0123391896, -0.0115371346, -0.0508895293, 0.0230601393, 0.0206264369, 0.0504994802, 0.0421402864, 0.0342263989, 0.0556361787, 0.0536256842, 0.0164628066, -0.0094163083, 0.0274289511, -0.0032978021, 0.0303980820, 0.0201913156, -0.0097627938, -0.0426643528, -0.0431500003, 0.0121794753, 0.0162889026, 0.0130469836, 0.0156621449, 0.0599739812, 0.0357663296, 0.0254273824, 0.0016969107, -0.0572000816, -0.0075843818, 0.0258864351, 0.0508684181, -0.0261384472, 0.0159254782, -0.0122540109, 0.0297688730, 0.0158932395, -0.0409167260, 0.0522109456, -0.0174863674, -0.0162039548, -0.0516530089, 0.0524281599, 0.0456107892, 0.0215999298, 0.0343200676, -0.0562821031, 0.0205710270, 0.0364749841, 0.0598252453, -0.0191538744, 0.0454094224, 0.0371441953, -0.0239563473, 0.0188435875, -0.0497136563, 0.0354304574, 0.0031968616, -0.0448380187, -0.0478310548, 0.0577325709, 0.0076240338, -0.0437941626, 0.0370268039, 0.0156246014, 0.0451647453, 0.0060857050, 0.0306826122, -0.0361959636, -0.0000246987, -0.0343163759, -0.0502403677, 0.0321899168, -0.0319717601, 0.0504270606, 0.0064395033, -0.0365362018, -0.0122804865, 0.0452914573, 0.0409530811, -0.0490802713, -0.0563668013, 0.0096226446, -0.0333626568, -0.0488211736, -0.0402466282, 0.0455069356, -0.0273548216, 0.0556079783, -0.0131068006, 0.0077765919, 0.0259614550, 0.0246762075, -0.0004455745, 0.0239961259, 0.0156804062, -0.0381491780, -0.0483588986, -0.0513228402, -0.0602732599, -0.0551514700, 0.0041245259, -0.0587418452, -0.0033990070, -0.0472401865, -0.0457900129, -0.0547039695, 0.0103885941, 0.0377000161, -0.0559776649, -0.0383517370, -0.0052405782, -0.0566136539, 0.0505974554, -0.0107351094, -0.0591485649, -0.0063717850, 0.0224624090, -0.0071081705, 0.0223838128, 0.0520440228, -0.0318426527, 0.0120175220, 0.0428748764, -0.0379864313, 0.0131873973, -0.0218058676, 0.0009851791, -0.0278423540, 0.0206694268, 0.0461565368, 0.0342140533, -0.0165221840, 0.0454639457, 0.0126485266, 0.0356650762, -0.0297426283, 0.0516460873, 0.0185586251, 0.0546109565, 0.0037737153, 0.0417334996, -0.0354705751, 0.0206315704, 0.0095354207, 0.0591782443, 0.0600990020, 0.0388332717, -0.0570462160, -0.0088844374, 0.0206802599, 0.0105662160, 0.0566268824, -0.0096033402, 0.0066969506, 0.0557964258, 0.0138966553, 0.0115637891, -0.0193516836, 0.0578877889, 0.0029365085, 0.0026367642, 0.0229103155, -0.0127180330, -0.0110710524, -0.0451098606, -0.0211290978, -0.0406289250, 0.0391520150, -0.0454298705, 0.0580127649, -0.0182787068, -0.0316752754, -0.0431168377, -0.0390457511, 0.0144973882, -0.0168377385, 0.0237589218, -0.0337599963, 0.0053713582, -0.0398099050, 0.0362470038, 0.0261642076, 0.0126423500, 0.0015782975, 0.0601516478, -0.0431510173, -0.0063498206, 0.0568047576, 0.0116781406, 0.0522573553, 0.0108388998, 0.0032268949, 0.0532674529, 0.0553082488, -0.0360944495, 0.0094451644, 0.0051076151, -0.0595068522, -0.0118903667, 0.0256972127, -0.0100774355, -0.0597416647, 0.0392234288, -0.0069147423, -0.0253369361, 0.0487773009, -0.0213080272, 0.0595827289, -0.0056841373, 0.0115763433, -0.0365672931, 0.0429956205, -0.0365306288, -0.0198950954, 0.0093240105, -0.0045841262, 0.0371601619, -0.0122059509, 0.0420630760, -0.0080916137, -0.0499562919, -0.0279436037, 0.0062850900, 0.0551389866, -0.0417193398, -0.0564117879, -0.0100682043, 0.0163178481, -0.0415000208, 0.0082293637, 0.0196339525, -0.0144725144, 0.0338883363, -0.0227087587, 0.0323186107, -0.0462057739, -0.0594616905, -0.0565785170, 0.0511480533, -0.0437452234, -0.0609309450, 0.0578497685, 0.0246057399, -0.0211438574, 0.0605025850, 0.0341364108, 0.0511243530, 0.0615695082, 0.0224596150, -0.0239819102, -0.0404739007, 0.0422342010, 0.0446835496, 0.0244657956, 0.0335531868, -0.0493570715, -0.0489356518, -0.0161785223, 0.0597201698, 0.0363026671, -0.0073203407, 0.0310311727, 0.0601048358, -0.0473938324, 0.0128712691, -0.0121752098, -0.0429327115, 0.0157598518, 0.0488473736, -0.0514858067, -0.0093006678, -0.0607182719, 0.0081488602, 0.0599987395, -0.0144463591, -0.0154716000, -0.0217998102, 0.0112065263, -0.0021173283, 0.0438934602, -0.0207317136, 0.0455378108, -0.0321374312, -0.0391014218, 0.0239021890, 0.0272989385, -0.0014975853, -0.0068549216, 0.0060380585, -0.0078908801, 0.0027592666, 0.0609556474, 0.0122452490, 0.0264089294, -0.0078378357, 0.0572186373, 0.0466924645, 0.0111788698, 0.0420622043, 0.0557296686, 0.0615572594, -0.0292734019, -0.0152939036, -0.0588402152, -0.0030215867, -0.0187765732, 0.0047180988, -0.0585051067, -0.0033656918, 0.0102406554, -0.0521922298, -0.0497892238, -0.0377171859, -0.0466357917, -0.0446329303, 0.0065572299, 0.0325560905, 0.0297430418, 0.0161492489, 0.0318627618, -0.0369223952, -0.0391291082, 0.0556512885, 0.0150119402, -0.0174229331, 0.0472764708, -0.0516121387, -0.0015699305, 0.0523801334, -0.0022687241, -0.0130177103, -0.0073613897, -0.0029329807, -0.0315615013, 0.0513435118, -0.0413655043, 0.0274285488, 0.0099733360, -0.0494777560, 0.0335088335, 0.0430568121, -0.0605304167, 0.0608147718, 0.0242906995, 0.0514504202, -0.0099814944, 0.0393014066, -0.0330781974, -0.0014074221, -0.0291596390, -0.0116571859, 0.0207753070, 0.0224104784, -0.0312645882, -0.0195039026, 0.0571795441, -0.0430528261, 0.0032942407, 0.0470851697, 0.0168272145, 0.0160091780, -0.0284148306, -0.0607737266, 0.0193567537, -0.0010268129, 0.0317499302, -0.0248526372, 0.0159804337, 0.0117586292, 0.0116039105, 0.0025013424, -0.0171448961, 0.0308261178, -0.0605608635, -0.0585312918, 0.0334694050, -0.0078871585, 0.0472234972, -0.0294371322, 0.0299412198, -0.0481012985, 0.0252664275, -0.0094523579, -0.0361413024, -0.0038001239, 0.0048201866, 0.0506234877, 0.0221078657, -0.0532759391, 0.0167101584, 0.0527114309, -0.0072833672, -0.0564695485, -0.0173727423, 0.0094031803, -0.0448670387, -0.0594875962, 0.0441630073, -0.0140137821, 0.0427406393, -0.0036548115, -0.0283956155, -0.0538779199, 0.0493620969, 0.0519623272, -0.0370683819, -0.0138790272, 0.0600973554, 0.0441845022, 0.0461850427, -0.0458550975, -0.0293022171, 0.0418317355, -0.0019267239, -0.0116480589, -0.0162707306, -0.0245914944, -0.0345744155, -0.0385518074, -0.0220102929, 0.0202984177, -0.0445116572, 0.0011081435, -0.0150612965, 0.0403959192, -0.0252900831, 0.0305054747, 0.0602856837, 0.0127722509, -0.0494783595, 0.0375873856, -0.0383892246, 0.0593592338, 0.0216072910, -0.0360549316, -0.0346238837, -0.0512474962, -0.0474095903, -0.0565789267, -0.0040647201, -0.0605443120, 0.0343517326, 0.0122416429, 0.0464696772, 0.0505150370, 0.0570865162, -0.0089298636, -0.0159124546, -0.0563058481, -0.0281427801, 0.0553859435, -0.0091599710, -0.0566740334, -0.0277639069, -0.0217809491, 0.0204506479, -0.0536312610, -0.0428731889, -0.0400614478, 0.0224149339, -0.0194212347, -0.0401952341, -0.0246685892, 0.0333551429, -0.0295940265, 0.0158686154, -0.0234628469, 0.0392424129, -0.0024832189, -0.0550915748, -0.0334240347, -0.0584080033, -0.0570154898, 0.0272206701, -0.0383661129, 0.0124888383, 0.0139588453, 0.0470894240, -0.0088315271, 0.0333920456, -0.0581128262, -0.0289105512, 0.0491839163, -0.0340980999, -0.0019311197, 0.0172362961, -0.0202474482, -0.0386672914, 0.0433448590, 0.0362150781, 0.0239395536, -0.0555859134, -0.0297485106, 0.0205141939, -0.0499637015, -0.0407635048, 0.0178307258, -0.0330195241, 0.0254014768, 0.0254822932, -0.0344765484, -0.0110564530, 0.0429902561, 0.0216852985, -0.0345035531, -0.0377199650, 0.0486569740, 0.0263261013, 0.0135951526, -0.0146804377, -0.0057403557, -0.0122397654, -0.0503513664, -0.0317544863, 0.0264496095, 0.0205333345, -0.0372730270, 0.0320050754, -0.0168054700, 0.0031634904, 0.0213144980, -0.0412195176, -0.0537073240, 0.0089354329, -0.0317447707, -0.0043478571, -0.0111799911, 0.0057639517, -0.0488272756, -0.0313225836, 0.0176444985, -0.0615948364, -0.0228979997, 0.0002408102, 0.0572397746, -0.0388082489, 0.0255578272, -0.0371111482, -0.0061474405, 0.0510939397, 0.0103556775, -0.0110553056, 0.0599897988, 0.0538600869, 0.0471660160, 0.0518288203, 0.0060627423, 0.0452058949, -0.0239844695, 0.0600306429, -0.0252641179, 0.0230851956, -0.0298083015, 0.0455729626, -0.0610640980, -0.0566128604, -0.0506593175, 0.0582845099, -0.0457212999, 0.0296914242, -0.0577287488, -0.0604379438, 0.0012997054, 0.0372213908, -0.0352899656, 0.0037478693, -0.0171973519, 0.0104722716, -0.0014729016, -0.0395293720, 0.0353315733, -0.0189405419, 0.0256506689, 0.0603763051, -0.0523632541, -0.0093526356, 0.0301644467, -0.0169461034, -0.0582814217, 0.0278024413, -0.0172164179, 0.0269734524, 0.0235555656, -0.0042850971, -0.0330092758, 0.0451466925, -0.0224868692, -0.0380183347, -0.0355267376, 0.0422963910, 0.0030997284, 0.0122252367, 0.0153675117, -0.0295569338, 0.0461543761, -0.0476182215, 0.0243374668, -0.0041129552, 0.0534371845, -0.0412671641, -0.0588646308, 0.0019097887, -0.0134706348, 0.0574136041, -0.0216141008, -0.0394319743, -0.0158090889, 0.0351522006, 0.0417002402, 0.0429357849, 0.0121978037, -0.0078351460, -0.0370549709, 0.0191983618, -0.0311678387, 0.0258713104, -0.0063967034, 0.0538536496, -0.0235129036, 0.0608002357, 0.0293665640, 0.0017287396, -0.0068140812, 0.0059373118, -0.0139731318, -0.0556112006, 0.0488034599, -0.0058123209, 0.0414339937, 0.0402114056, -0.0570908785, 0.0538068376, -0.0111823119, 0.0463762246, 0.0357591249, -0.0017577857, 0.0184715204, -0.0328820497, -0.0047191419, 0.0013020970, -0.0358566679, 0.0031438880, -0.0146038420, 0.0157719813, 0.0614363141, -0.0076404400, 0.0246716328, -0.0184969380, -0.0300438032, -0.0120439827, -0.0598771125, -0.0071144626, -0.0147972852, 0.0285300799, 0.0508922897, -0.0475688092, -0.0017567277, -0.0323144384, -0.0600306988, 0.0543246381, 0.0068170764, -0.0198378190, -0.0456484668, 0.0564681552, 0.0465577580, -0.0373490304, 0.0494464003, 0.0236134790, 0.0586466081, -0.0120052770, -0.0274280347, 0.0480064414, 0.0563483946, -0.0160893723, -0.0270946063, -0.0275094695, 0.0442149527, 0.0577791296, 0.0564545356, -0.0357422456, 0.0399524830, 0.0272147469, -0.0161905773, -0.0453672558, -0.0288164765, -0.0073333681, -0.0199146792, -0.0296111815, -0.0285279155, -0.0422950946, 0.0450527631, -0.0593898594, -0.0052350946, 0.0157409348, 0.0082346760, -0.0267518535, -0.0522129908, 0.0483765714, 0.0267821215, -0.0454271361, 0.0539959632, -0.0138217211, -0.0151770413, 0.0193422176, -0.0352853239, -0.0198048130, -0.0077157989, -0.0218052939, 0.0227944665, 0.0252894051, -0.0312371701, 0.0170689039, 0.0484124832, -0.0076005235, -0.0121029653, 0.0075237118, -0.0123434849, -0.0060275346, -0.0387802720, 0.0082596354, 0.0378032960, 0.0208650716, -0.0121218450, -0.0353782065, -0.0351199582, -0.0420949012, 0.0167895295, 0.0238731317, 0.0462042578, 0.0160511918, -0.0020814128, -0.0101980157, -0.0101322569, 0.0027114190, -0.0409157388, 0.0417749844, -0.0233105533, -0.0615686253, -0.0291129462, 0.0508804880, -0.0007658452, 0.0368453898, 0.0276689492, -0.0031353049, -0.0606093369, 0.0534418561, -0.0543434732, -0.0143869221, -0.0400636829, 0.0109143965, 0.0265367590, 0.0536835827, 0.0207050182, 0.0442616157, -0.0281667709, 0.0542641170, -0.0108889602, 0.0496309139, -0.0417511091, -0.0482125878, 0.0150556229, 0.0183106102, 0.0372713096, 0.0415442027, -0.0102016628, 0.0211941935, -0.0563318990, -0.0398820601, -0.0100983121, -0.0156771839, -0.0517105497, 0.0462142862, 0.0262077190, -0.0364431813, 0.0073859580, -0.0047747903, 0.0096405335, 0.0355262794, 0.0042717941, 0.0000966489, 0.0239535831, 0.0615424700, -0.0425358750, 0.0165251084, 0.0493277274, 0.0522278659, -0.0303184278, 0.0221382715, 0.0042224638, 0.0177147277, -0.0597215556, 0.0174331628, 0.0511836894, 0.0264247768, -0.0007974841, 0.0241975076, -0.0240174606, 0.0077371709, -0.0178956576, -0.0372028872, -0.0027449802, 0.0328266956, -0.0137966536, 0.0377803780, 0.0053299181, 0.0415265597, 0.0400088467, -0.0260575749, 0.0427089594, -0.0136693679, 0.0612817965, -0.0524504334, 0.0471010916, -0.0253792033, -0.0386917666, -0.0234747976, -0.0325821117, 0.0045692883, -0.0169315040, 0.0432290696, -0.0190747194, 0.0305535756, -0.0595369488, 0.0321320482, 0.0018170960, 0.0525729544, -0.0124018639, -0.0270641148, 0.0321732573, 0.0547179244, -0.0106652156, -0.0369596779, 0.0214852430, 0.0615655370, -0.0423280969, 0.0547959022, -0.0155897401, 0.0442185663, 0.0245928355, 0.0256033130, -0.0249160305, 0.0244516693, -0.0465053730, 0.0093720444, -0.0166235939, 0.0208311565, -0.0294131823, -0.0114214495, 0.0143588819, -0.0024482310, -0.0528051369, 0.0440289043, 0.0525200181, -0.0392714180, 0.0042490624, 0.0297305621, -0.0502040833, -0.0215965621, -0.0000892952, -0.0293211378, -0.0480920933, -0.0127323531, -0.0036675744, -0.0152153522, 0.0385662131, 0.0031037144, -0.0187675916, -0.0213659219, 0.0329063796, -0.0196430087, -0.0567518473, -0.0218112916, -0.0613981448, 0.0062188022, 0.0156531595, 0.0295392908, 0.0499437042, 0.0320152156, -0.0061708726, 0.0368405096, -0.0207408145, -0.0433574542, -0.0192112103, -0.0388283879, -0.0228791647, 0.0572868101, -0.0517750606, 0.0353350900, 0.0560221933, 0.0565565117, -0.0249389522, 0.0280384012, 0.0445128046, 0.0188653432, 0.0184720494, -0.0473844670, -0.0434461646, 0.0146319829, 0.0021575056, 0.0540637188, -0.0417544022, -0.0389106423, -0.0424576476, 0.0081250854, -0.0501576439, 0.0095597915, 0.0227531455, -0.0001239479, 0.0260243677, 0.0585908182, -0.0321005471, 0.0259073712, -0.0085701048, -0.0016917326, 0.0414080061, 0.0004959404, 0.0583913289, -0.0280451626, -0.0415038019, 0.0520566069, -0.0519295447, 0.0499276109, -0.0199506395, -0.0435446948, -0.0359242782, 0.0303044058, -0.0325887688, -0.0431030616, 0.0066425763, -0.0411169305, 0.0046224259, 0.0245546661, 0.0192237385, 0.0193940513, 0.0318656154, 0.0421785228, 0.0122862794, -0.0000226125, -0.0327299163, 0.0293011256, 0.0503421910, -0.0058263168, 0.0351187102, -0.0423102975, 0.0374878310, -0.0008928366, -0.0205677934, 0.0434397422, -0.0358949788, 0.0446976162, 0.0293855704, 0.0081213973, -0.0335379578, -0.0135784410, -0.0320248492, 0.0455053784, 0.0518374406, -0.0099472553, 0.0341008790, 0.0068489350, 0.0444866233, -0.0459247977, -0.0038967542, -0.0562479831, -0.0392053947, -0.0438243300, -0.0313389339, -0.0437797569, -0.0598560721, 0.0473454036, 0.0279775672, -0.0538140275, 0.0138817169, 0.0161200799, -0.0524565801, 0.0495101176, 0.0000324771, 0.0043873303, -0.0421753377, 0.0550686158, -0.0012132414, -0.0038851425, -0.0349262804, 0.0282638632, -0.0451380908, 0.0096328892, -0.0509901308, 0.0015201978, 0.0139021836, -0.0311108250, 0.0273175128, 0.0429623239, 0.0198203959, -0.0522668697, -0.0586778782, -0.0430402979, -0.0413656645, -0.0128398798, 0.0145320855, 0.0457919650, 0.0336413719, -0.0044031627, 0.0420800559, -0.0080223978, -0.0541027077, -0.0187952593, 0.0280492194, -0.0167639814, 0.0595253222, -0.0082102828, 0.0400839709, 0.0236057751, -0.0431617796, 0.0415280275, 0.0528029762, -0.0455912799, -0.0123565532, 0.0113349147, 0.0092304833, -0.0390346795, 0.0020382740, 0.0123401023, 0.0529186465, 0.0397998206, -0.0462230444, -0.0436004847, 0.0542507209, -0.0249040946, -0.0108147599, 0.0066963248, -0.0294495672, 0.0168506168, -0.0588077381, 0.0534902401, -0.0236101411, 0.0470815115, 0.0072774701, 0.0243695788, 0.0290355273, 0.0071213879, 0.0157070421, 0.0088940524, 0.0219725929, -0.0235128142, 0.0596426539, -0.0154173784, -0.0520700328, -0.0364159718, -0.0233128034, -0.0343531296, -0.0225702710, 0.0005780198, 0.0301707201, 0.0169024430, 0.0457695909, -0.0112106726, 0.0456227548, -0.0542944446, -0.0523946285, 0.0280929245, 0.0020386316, -0.0009978674, 0.0200843774, -0.0114588216, 0.0023742951, -0.0295131691, -0.0033218227, 0.0469032563, 0.0453201197, 0.0155773349, -0.0098490342, 0.0041644238, 0.0569198988, 0.0322910510, 0.0167074539, -0.0453327373, 0.0568496250, 0.0379339196, -0.0252647214, 0.0334396474, -0.0246550366, -0.0323954150, 0.0145003013, 0.0068897046, 0.0010770075, 0.0516742803, 0.0079400130, -0.0140109882, -0.0406892039, 0.0002926774, 0.0339140855, 0.0491891839, 0.0614634641, -0.0538798459, -0.0383084118, 0.0102166124, -0.0016202256, 0.0229571573, 0.0147183649, 0.0331543498, 0.0494048111, -0.0182279572, -0.0152479894, -0.0229215063, 0.0032445826, -0.0466371439, 0.0310001709, -0.0011601709, 0.0525560491, -0.0384121016, -0.0554489717, 0.0560867526, -0.0405377634, 0.0033661611, -0.0293065235, 0.0120017938, 0.0183927901, 0.0029520653, 0.0351635180, -0.0199679285, -0.0205785409, -0.0616517775, 0.0286109187, -0.0420435220, 0.0216596760, -0.0531733669, 0.0446205251, 0.0086693205, 0.0584294386, -0.0028403178, 0.0425797589, -0.0508298427, 0.0085805841, 0.0424767174, 0.0418010764, -0.0021466278, -0.0135197826, -0.0467538312, -0.0167491473, -0.0004099533, -0.0193945542, -0.0427452102, 0.0012006722, 0.0404029824, 0.0057591461, 0.0386637636, -0.0049704649, -0.0402149931, -0.0519634895, -0.0233597159, -0.0078084469, -0.0454291627, 0.0203134455, 0.0068147592, 0.0345508046, -0.0464370102, 0.0562532432, -0.0022485964, -0.0109740384, -0.0363120586, 0.0383558981, -0.0068238415, 0.0253558569, -0.0438951030, 0.0370512418, 0.0015667565, -0.0011412501, -0.0476823784, -0.0056410022, 0.0289778002, -0.0117753744, 0.0006863847, 0.0193368457, 0.0254934169, 0.0206366815, -0.0480578244, 0.0467904396, -0.0234109946, -0.0486205555, 0.0549471639, 0.0210861526, 0.0319385640, 0.0521612577, -0.0369912982, -0.0099822730, -0.0150825083, 0.0319750719, 0.0100709833, 0.0416310988, 0.0476342924, 0.0182353668, -0.0472314954, 0.0336413719, 0.0393061750, 0.0067938231, 0.0105357878, 0.0245592408, -0.0175196081, 0.0397703908, 0.0615189783, 0.0558279715, 0.0230409540, 0.0413162671, -0.0093482397, 0.0365930982, -0.0246223696, -0.0402063616, 0.0187891461, 0.0288988762, -0.0032622069, -0.0520503893, -0.0274839327, -0.0544308461, 0.0363825671, 0.0245238803, -0.0008729771, 0.0215991326, -0.0228460282, 0.0418949462, -0.0487537384, -0.0556114502, -0.0599993691, 0.0192684270, 0.0268571638, 0.0295771174, 0.0040834956, -0.0087947883, 0.0296288244, 0.0299507417, 0.0239138417, -0.0272558071, -0.0585019030, -0.0450261533, -0.0354150012, -0.0511362627, -0.0053199492, 0.0331871100, 0.0224373974, -0.0609937049, -0.0549995303, 0.0481018089, -0.0534553863, -0.0086966828, -0.0021801479, 0.0488687344, 0.0273575000, -0.0501923524, 0.0027149133, 0.0545870326, 0.0229597278, -0.0367092080, -0.0506974533, 0.0394709595, 0.0556514673, -0.0554476008, 0.0152183063, 0.0041110180, -0.0064620227, 0.0503560118, -0.0379043967, 0.0509375744, -0.0359861143, -0.0285844728, -0.0444020256, -0.0161104538, -0.0381404459, 0.0182278566, -0.0022109188, -0.0004588179, -0.0407824703, -0.0532272607, -0.0160840042, 0.0142782070, 0.0269031338, -0.0521900393, 0.0600933097, 0.0056421347, 0.0157619677, -0.0359025672, 0.0294080637, 0.0455314256, 0.0591513403, -0.0184757821, -0.0559031442, -0.0410312638, 0.0311770700, -0.0260607228, 0.0361271463, 0.0390385874, -0.0311807320, -0.0337398127, 0.0030173995, 0.0023352318, -0.0204903297, -0.0200798362, 0.0140343793, -0.0080532730, 0.0544274338, 0.0328560136, -0.0331606269, -0.0530350842, 0.0107719488, 0.0574513786, 0.0186662711, -0.0385919884, -0.0246229582, -0.0051870495, -0.0084322616, 0.0244146101, 0.0279818885, 0.0196117796, 0.0466777496, 0.0117548071, -0.0591795966, -0.0077519193, 0.0254448764, 0.0582453199, 0.0032564141, -0.0095573403, 0.0366717018, -0.0542157777, 0.0522694699, -0.0322164223, -0.0589775406, -0.0395212844, 0.0535100289, 0.0494634397, -0.0357523300, 0.0564842783, -0.0092921704, -0.0106090717, -0.0435586162, -0.0284100249, 0.0003510416, 0.0467296727, -0.0275145844, 0.0386329927, 0.0399260037, 0.0260072239, 0.0011216812, -0.0125570372, 0.0454098918, 0.0285892822, -0.0403020829, 0.0414501540, -0.0578029193, -0.0552866347, 0.0191256292, 0.0042623095, 0.0486822464, 0.0465189405, 0.0254596658, 0.0267721452, 0.0595647059, -0.0450656861, 0.0385031290, 0.0573583730, -0.0148101039, 0.0559707396, -0.0021498762, 0.0437691547, 0.0182347782, -0.0562614650, 0.0586787350, 0.0132332034, 0.0336619653, 0.0583453141, -0.0449000709, -0.0450619943, 0.0417188667, -0.0033663101, 0.0520467572, 0.0453157537, 0.0015379526, 0.0248863362, -0.0005734190, -0.0107942075, 0.0279758908, 0.0123968832, -0.0230326504, -0.0602483824, 0.0572636686, -0.0477475487, -0.0335253291, -0.0543917827, -0.0406136811, -0.0572798960, -0.0306818206, 0.0531543158, -0.0073698722, 0.0388682298, -0.0142968148, 0.0063231252, 0.0532025360, 0.0523543321, -0.0521266758, -0.0290177986, 0.0510316603, 0.0454763882, 0.0069389828, 0.0282515548, -0.0515517294, 0.0092587061, -0.0005972348, 0.0088801421, 0.0361604281, 0.0322057642, -0.0589203238, -0.0413664430, 0.0006452352, -0.0067495853, -0.0162757449, 0.0158594139, 0.0174565129, 0.0580682345, 0.0389132015, 0.0469234698, -0.0163365342, -0.0282426327, 0.0034531839, -0.0341133028, -0.0487377271, -0.0048751719, 0.0375184678, -0.0453725047, -0.0529286861, -0.0238486119, -0.0561406016, -0.0594558381, 0.0158287548, 0.0512041114, 0.0555082597, -0.0079370104, -0.0492203757, -0.0236154012, 0.0243600048, -0.0009230785, 0.0371961109, 0.0575047992, -0.0050014555, 0.0055338405, -0.0285184197, -0.0311038569, 0.0093906261, -0.0016779006, 0.0428211428, -0.0007585399, -0.0057788715, -0.0374060459, 0.0575402640, -0.0613724925, -0.0273640715, 0.0146459155, 0.0485538132, -0.0493233912, -0.0256757326, -0.0007181093, 0.0535667799, 0.0370065458, -0.0428219661, -0.0353162400, -0.0527965948, -0.0089458302, -0.0478883013, -0.0305407438, 0.0245268829, -0.0371419042, 0.0293525644, -0.0523656048, 0.0156595744, 0.0411568619, 0.0057198741, -0.0371504128, -0.0408035815, 0.0279225372, 0.0272821225, -0.0353748836, 0.0509346165, 0.0435435884, 0.0099544711, -0.0282054245, -0.0596384183, -0.0363065340, -0.0021044500, -0.0450463668, 0.0286069922, -0.0319222175, -0.0602666289, -0.0444874577, 0.0117918067, 0.0045544244, 0.0459521823, -0.0574720763, 0.0209068246, 0.0543482341, -0.0533653088, -0.0216306373, -0.0444892235, -0.0106601603, 0.0004887208, -0.0013313703, 0.0132792480, 0.0054955892, -0.0148584582, 0.0149925388, 0.0361842923, 0.0506390892, -0.0047491938, -0.0464732200, 0.0588669591, -0.0227123611, 0.0489935614, 0.0415362902, -0.0480270237, 0.0513807051, -0.0518537425, -0.0333632156, -0.0171256363, 0.0003384724, -0.0322289765, 0.0173734464, -0.0413377881, 0.0404656641, -0.0131630786, -0.0455260910, -0.0060504414, 0.0177755468, 0.0521907024, 0.0552188195, 0.0033948906, -0.0452199467, 0.0062623210, 0.0494057648, -0.0124458373, -0.0602196716, -0.0506074801, 0.0577795170, -0.0237079486, -0.0053176731, -0.0396742821, -0.0394770205, 0.0506454669, -0.0528580770, -0.0227932334, 0.0458077453, 0.0414175130, 0.0110324733, 0.0523594879, 0.0056957342, -0.0567763560, -0.0238327347, 0.0591288321, -0.0563948229, -0.0493509397, 0.0036502369, 0.0126292817, 0.0154824667, 0.0054708757, 0.0187042542, -0.0607460588, -0.0267197452, 0.0244838335, -0.0372053236, 0.0576218106, -0.0363892764, 0.0607555546, 0.0064809285, -0.0480968431, -0.0333897099, 0.0221651159, 0.0119321533, -0.0528378338, 0.0272550695, -0.0353832170, -0.0423377454, 0.0123865567, -0.0325014889, -0.0059164651, -0.0258633681, -0.0435764194, -0.0493821688, 0.0601586439, -0.0038477108, 0.0120884143, -0.0228415430, -0.0042650737, 0.0010958500, -0.0106136277, -0.0556842536, -0.0478595905, -0.0177189335, -0.0104560293, 0.0484937988, 0.0422853641, -0.0405880436, 0.0494827293, -0.0337776951, 0.0550893880, -0.0284085087, 0.0400380902, 0.0444996767, -0.0038435496, 0.0321264975, 0.0145681463, -0.0381734669, -0.0572488904, -0.0101578087, 0.0275872238, -0.0498629063, -0.0612402968, 0.0172280632, 0.0301202200, 0.0186705478, -0.0312576964, 0.0327538811, 0.0490090735, 0.0315736420, 0.0122351907, 0.0604034103, 0.0504908375, 0.0435195081, 0.0516336598, -0.0615971908, -0.0433903411, -0.0214062482, 0.0171866529, -0.0492774770, 0.0240814723, 0.0514080636, 0.0121963210, -0.0310156178, -0.0435870662, 0.0522152521, 0.0084245168, 0.0094944350, -0.0411434658, -0.0035330541, 0.0191838779, 0.0567453094, 0.0400491543, 0.0439961068, -0.0163363144, 0.0466372631, -0.0445754752, -0.0376351550, 0.0583064146, -0.0140183233, 0.0488427989, 0.0253073238, 0.0464908369, 0.0110616721, -0.0290896147, 0.0077759437, -0.0216714218, -0.0375117660, 0.0454534106, 0.0181852318, -0.0439189076, 0.0524852760, -0.0182522014, 0.0306111090, -0.0446932204, -0.0401024967, -0.0210211277, -0.0499055125, 0.0410216339, -0.0472205728, 0.0539898612, -0.0046601333, 0.0529377423, 0.0328181721, -0.0314602517, 0.0569732822, -0.0227032341, 0.0458788835, 0.0180601142, -0.0253699869, -0.0607125685, -0.0135436282, -0.0103657320, -0.0475259088, -0.0352533758, -0.0087624565, 0.0204224251, -0.0456070080, -0.0275777578, 0.0545949899, 0.0099369027, 0.0185921453, -0.0443116874, -0.0308044907, 0.0489025749, 0.0001408979, 0.0167496912, -0.0177741237, -0.0168724060, -0.0003843270, 0.0541494451, 0.0243671648, -0.0492263585, 0.0315680541, 0.0368405394, 0.0390152745, 0.0211366974, -0.0076326914, -0.0525911711, 0.0063589327, -0.0532976240, -0.0140639134, 0.0575403310, 0.0003851652, -0.0500332974, 0.0205930807, -0.0041522533, 0.0524062403, 0.0573843531, -0.0524142534, 0.0126377232, -0.0188312344, 0.0174325891, -0.0483873896, 0.0553924255, -0.0516400561, 0.0171650983, 0.0563883521, -0.0312128402, 0.0546748154, 0.0275059976, 0.0106481500, 0.0534112193, 0.0037397705, 0.0438225083, -0.0241966993, 0.0411315300, -0.0349759869, -0.0355320871, 0.0368040912, 0.0470195897, 0.0077296011, -0.0320170000, -0.0021174289, -0.0381381959, 0.0250309072, 0.0227663033, -0.0562113300, -0.0566596538, -0.0419523567, 0.0063238405, -0.0392512754, -0.0439369008, 0.0612645708, 0.0537818633, -0.0184378810, 0.0466336720, -0.0600460023, -0.0515370294, 0.0066126101, -0.0469405390, -0.0073187239, 0.0417285748, -0.0485169664, -0.0044271126, -0.0279228166, 0.0449528806, 0.0489714779, -0.0540803894, 0.0249975361, 0.0061775483, -0.0597230978, -0.0181306936, 0.0549916513, -0.0234485418, -0.0197070763, -0.0252910219, 0.0328808613, -0.0330770947, 0.0496938415, 0.0419161804, 0.0184642114, 0.0447452925, -0.0405856147, -0.0194905400, -0.0603147894, 0.0304665752, 0.0291606672, 0.0538467579, 0.0456766225, 0.0053447373, 0.0094870217, 0.0121569820, -0.0217407532, -0.0589365661, -0.0592686310, 0.0085500665, -0.0321324915, 0.0558373220, -0.0201664120, -0.0572196059, -0.0238268711, 0.0158783607, 0.0518437885, 0.0563691966, -0.0550959557, 0.0388236977, -0.0359149426, 0.0159498863, 