//Numpy array shape [3, 3, 16]
//Min -0.316930294037
//Max 0.322676569223
//Number of zeros 0

#ifndef W2_H_
#define W2_H_

[[intel::fpga_register]] static constexpr w2_t w2 = {{0.2013078630, -0.2252997011, 0.0122744739, -0.2500298321, 0.3029966652, 0.3226765692, 0.1657378972, -0.1363691241, -0.1541007161, -0.0566070080, -0.1180668920, -0.0956058502, 0.0941856503, -0.2061339766, 0.0441238880, 0.1610360444, 0.0080935359, 0.2283077538, 0.2921848595, -0.2001917809, 0.1778645813, 0.2512564361, 0.1202107370, -0.2781143785, 0.1954178512, 0.1272029281, -0.0971840024, 0.1255751848, -0.0038033128, 0.2617487609, 0.2035983503, 0.2335576713, 0.1584679186, -0.1839274168, -0.3037742078, 0.1251946688, -0.0442605019, 0.0287846029, 0.0178827345, -0.1290967613, 0.1499460936, 0.1088871658, -0.0794003457, 0.0228425562, 0.2430886328, 0.1963878572, -0.1480642408, 0.0212571919, -0.1093929708, 0.1621261835, -0.0507753491, 0.0401136577, 0.1290302277, -0.3169302940, 0.0729592144, -0.1265933067, -0.0766143203, 0.2226683199, -0.1332527995, 0.2084403932, -0.2181767076, -0.0914008468, -0.0889564902, 0.2748580277, 0.2936769426, -0.1964667588, -0.0987770259, 0.2237950265, 0.2215512693, 0.0931929052, 0.0346809924, -0.0739261508, 0.1865346730, -0.2630024254, 0.0204754770, -0.2940337360, -0.0137919188, 0.1616903245, -0.1821376234, 0.2588042319, -0.2881699800, -0.2526052296, -0.1799666286, -0.3025984466, -0.2185901701, -0.2602933645, -0.2348205745, -0.0774090439, -0.2778639793, 0.1796267331, 0.1790989339, 0.2198562920, 0.2437091172, -0.0027469695, -0.0487417281, -0.0045813322, -0.0424677432, 0.1623744965, -0.1792689860, 0.3059565723, -0.2735168934, 0.0109374225, -0.2469145060, 0.2130295336, -0.1947417855, 0.1513699889, -0.0132396817, -0.1854301542, -0.1016261727, -0.0250555575, 0.0374131203, -0.2739055753, 0.2147580087, 0.2225566208, 0.0667698085, 0.1990635693, 0.2766605318, -0.1761097908, -0.1012759954, -0.1678648740, -0.1204199791, 0.0904264450, 0.1777407229, 0.1414318979, -0.3150469065, 0.3112995923, -0.1134355217, -0.2204969972, 0.0202612877, -0.1106379777, -0.0672067702, -0.2960387468, 0.2064392269, -0.2616512179, 0.0091778934, -0.1009513438, -0.0306432247, 0.2071460187, -0.0308010280, -0.0458951890, -0.0213036835, -0.1220955253, 0.2783278525, -0.3030904830}};

#endif
