//Numpy array shape [16, 48]
//Min -0.304683864117
//Max 0.305522352457
//Number of zeros 0

#ifndef W4_H_
#define W4_H_

[[intel::fpga_register]] static constexpr w4_t w4 = {{-0.2410159111, -0.2856171727, 0.2296864688, -0.2463680208, -0.0262995958, -0.2721548676, 0.2902582586, 0.2509179413, -0.2948524058, -0.2737446725, -0.1610283405, -0.1524978727, 0.1843126416, 0.1991924942, -0.2062264383, 0.0089064837, 0.0784889460, -0.0116831362, -0.1902813911, 0.0239152610, 0.2010397613, -0.2912923694, -0.1644259989, 0.2663634717, 0.2233783305, 0.2571112812, 0.1812025309, -0.2134169936, -0.0003028810, -0.0586271286, -0.2237878740, 0.1528768241, 0.2834450901, -0.2131000161, 0.1840567887, 0.0474106669, -0.0213329196, 0.2503516376, -0.0146071017, -0.2118443400, 0.1717683077, -0.2225768715, 0.0908212960, 0.1458466351, 0.0406117737, 0.2718864381, -0.1108286828, 0.0736309290, -0.3044905663, 0.1099026799, -0.1398968846, 0.1942380965, -0.1965535134, 0.2919589579, 0.0673536658, 0.0484578013, -0.0757910758, -0.2776817977, 0.1336283982, 0.2749725878, -0.0506426394, -0.1988309920, -0.2693993747, -0.1697241515, 0.2275728285, -0.1101130545, 0.1495226026, 0.0174834728, -0.2784845233, -0.1770532578, 0.1531196237, -0.2161553800, -0.2137943357, 0.0183242261, 0.1584743559, 0.1020563543, 0.0639902651, -0.0917714685, 0.2137829959, 0.0010814965, -0.0106838346, -0.2837629616, 0.1295263767, 0.2218555510, 0.0987915695, -0.1145392954, -0.0594213754, -0.0413117707, 0.1115293503, 0.0357660651, 0.1460904777, -0.1717622578, -0.0472368598, 0.2062318623, 0.2163725197, -0.2046604455, -0.2008351386, -0.2933293879, 0.1533990502, -0.1002535373, -0.0695343465, 0.0107617974, 0.2959928215, 0.0407904685, 0.2222686708, 0.2637809217, -0.0599233955, 0.1955375969, 0.1168131828, 0.0045862496, 0.2067355216, -0.0023453534, -0.0139262974, -0.1400132477, 0.2258165777, -0.1856485605, -0.2614716887, -0.0350725651, -0.2496542931, -0.1631357968, -0.0937268585, -0.0516555905, -0.2611863911, -0.0754807442, 0.0688396692, -0.2043244839, -0.2695581019, 0.1581238806, 0.0650662780, 0.2033291161, 0.2325831354, -0.1579896957, 0.0778133273, -0.0949245095, -0.0771980882, -0.0351277590, 0.0854842961, 0.0134365559, 0.0332054496, 0.1407549977, 0.0840985179, 0.0194579959, 0.1168440580, -0.1487520635, -0.0594040751, 0.0483904779, -0.2419774085, 0.0057078302, -0.0006534159, -0.1840492636, 0.2819404304, -0.2766859233, -0.1310453564, 0.0039874911, -0.1206941158, -0.0695669055, -0.1008816361, 0.2922652066, 0.0108239949, -0.2771961987, -0.0062002242, -0.0476323664, 0.0348604918, -0.0401780009, 0.0105374157, -0.2485923469, -0.2097238898, -0.1107153893, 0.2933042943, -0.1580433547, -0.2864761055, -0.1309863031, 0.3041575253, 0.3055223525, 0.2619741857, 0.2666884959, -0.0463507771, -0.2671962380, 0.0353544354, 0.1211038530, 0.1212435961, 0.0804665983, -0.1394050121, 0.2624038756, -0.2096754313, 0.0551528037, -0.3029640615, 0.1068055630, -0.0685767233, 0.1077236831, 0.0115705132, 0.0156629086, 0.2252384126, -0.1286059022, 0.0183837712, 0.0416317284, -0.0324246883, 0.0691129863, -0.2615352571, -0.2930162251, 0.2581135929, -0.2680720091, -0.0228157043, 0.0471840799, -0.1460563838, 0.2917297184, 0.3030591905, -0.0080629885, 0.0933764577, 0.0166606009, 0.2824561298, 0.1524828970, -0.0211856961, -0.0519215167, 0.2151338160, 0.1353188157, -0.2423380315, 0.2936756909, -0.3015358746, 0.1170297861, 0.1871071160, 0.1873015761, 0.1732403040, -0.2362500876, 0.1000416875, 0.1428808570, -0.1963475049, 0.1493391991, -0.2324592471, -0.2578267753, -0.2082528621, -0.1587573737, -0.0970788151, -0.2291674316, 0.1888523400, -0.0256368220, 0.0919554234, 0.2005411088, 0.2408172786, -0.2034539580, -0.1577111185, -0.0403681695, -0.0051049888, 0.1262504756, 0.0913618505, 0.2873152196, 0.2073607743, -0.0591450632, -0.2079686821, 0.0106264651, 0.0477645695, 0.0819681585, -0.1705146134, 0.0580850244, -0.0687466711, 0.0397257805, 0.1648527682, 0.0406609178, 0.0824299455, -0.0912452042, -0.2839810848, -0.0052812994, 0.0498472750, -0.0626660287, -0.1104610562, -0.0385247767, 0.0845321417, -0.1650191993, -0.1076049060, 0.0374642015, -0.1138725132, -0.2822379172, 0.1513984799, 0.0003042519, -0.2516509295, -0.2882054150, -0.1289492995, -0.0927571207, -0.0377568603, -0.0678152591, 0.0338552296, -0.0180821419, 0.1355650425, 0.2673940361, 0.0526019633, -0.1483091712, -0.0250020921, 0.0654407740, 0.0358681381, -0.2384729385, 0.1313840151, 0.0983381569, -0.2302047610, 0.1514170170, -0.3008639216, 0.2577371299, -0.2730612457, 0.0762721598, -0.0831073970, 0.2608839571, -0.1487728059, 0.1515250504, -0.0265667737, -0.1720584929, -0.0877183378, 0.0242761672, -0.1934954524, 0.1886141896, 0.3031533659, 0.1262301803, -0.0381079912, 0.0017697513, 0.0004090965, -0.2679449320, -0.2663991451, -0.2412671149, 0.1506081820, 0.3024767935, 0.1901980937, 0.1863588393, 0.1995098293, -0.2299126238, -0.2759535909, -0.2830129564, -0.1176483929, 0.1226731539, 0.0727021992, 0.0431016088, -0.0438148975, 0.2105391920, 0.0934709907, -0.1169797033, -0.2356283367, 0.1819274426, -0.2150359154, -0.0689430386, 0.1458885372, -0.2973493636, -0.1538724750, 0.1419457197, -0.2063460201, -0.2539576590, -0.0329992175, -0.2345526069, 0.2399885952, -0.2539990544, -0.0578978509, -0.0044715106, -0.1412936747, 0.0520228446, 0.1138294339, 0.1876147389, 0.2979522645, 0.1003263891, -0.1988125145, 0.0250325203, -0.1905001700, 0.0898353457, 0.1033940315, 0.1729159653, -0.2095944583, 0.2475221455, 0.2184551060, 0.2925996482, -0.1877008229, 0.1405578256, 0.2295563519, -0.1428264678, 0.1425606012, -0.1698821336, 0.2123585045, 0.1963205040, -0.1967098117, 0.0653505325, -0.2085106969, -0.2689052522, -0.0973851979, 0.0516855717, 0.2238220274, -0.0428237617, 0.0879953802, 0.0732279420, 0.0180211961, -0.1802375466, -0.0297848582, -0.2234142721, 0.2791344225, -0.2406199574, 0.2511502802, -0.0247869492, -0.1199123561, -0.1306071430, 0.2024929821, 0.1894618869, -0.0060947239, 0.1933312714, -0.1420037597, -0.3010194600, -0.1708642840, -0.0438958406, -0.2128372192, 0.2501060665, 0.1121709347, 0.0753910244, 0.2191949785, 0.1830138266, 0.1000365913, -0.1359572709, -0.0655772835, 0.3000313342, -0.1290688068, -0.0420325100, -0.2941816747, 0.1167474091, -0.1350611150, 0.1064719260, -0.1642777324, 0.2599995434, 0.3022437394, 0.0814034343, -0.1427396685, -0.2817891836, 0.0986784697, -0.0095835626, 0.0028658509, 0.1247709692, 0.2230384648, 0.0498342812, -0.0251633525, -0.2958561480, -0.2229645103, 0.1582344770, -0.1825754642, 0.0194690228, 0.0874651074, 0.0571348667, 0.0922790468, 0.0705400705, 0.0231619477, -0.1515834630, 0.0980014801, -0.1506885588, -0.0330679119, 0.0370118916, 0.0941970646, 0.2815856636, -0.1971495748, 0.2137279809, -0.0862130672, 0.2049102485, 0.2293170989, 0.0254416168, 0.1817842722, 0.0400432348, 0.2723807991, 0.0065679252, -0.2831066847, -0.0273402035, 0.1038394570, -0.1197952628, 0.2866456807, 0.1597958803, -0.0128894746, -0.1570669711, -0.1425597966, 0.1964287460, -0.2176137865, 0.2248201668, -0.0047979653, -0.0314509571, 0.2579324543, -0.1517490298, 0.1640005410, 0.1633588672, -0.2041538060, -0.1477992684, -0.1899901181, 0.2478210032, 0.0596038699, 0.0199264288, -0.1389819086, 0.0731978118, -0.0422181487, 0.0298645794, 0.2971137464, -0.2121124715, -0.0291902721, -0.2265389860, 0.2578485310, -0.0554541647, 0.2939607799, 0.1653147936, -0.2929424942, 0.2269206941, 0.1257564127, 0.0304517746, -0.0966619104, 0.1307399273, 0.1273475289, -0.0815349668, 0.1169865727, -0.2522814870, -0.2875302136, 0.1532609463, 0.1621527076, 0.0311523080, 0.2232100070, -0.1475000381, -0.1938200891, -0.2305009961, -0.0085757375, 0.2465561330, 0.0985074341, 0.2786847651, 0.0095698535, -0.3001282811, -0.1445506662, 0.0527541637, 0.1057384312, -0.1179192960, -0.0247767270, 0.1879236102, -0.1377821416, -0.1753578931, -0.0025955439, 0.2406998575, -0.1158202291, 0.1376643181, 0.1020715535, -0.2159387916, -0.2506173849, -0.2203332037, -0.1233118325, 0.1142813861, 0.0415841341, 0.1260745525, 0.0441422164, -0.0005746484, -0.0203993917, -0.0913611352, -0.1565770656, -0.0287482440, 0.0112122297, 0.0230974257, -0.2222119421, -0.0414533913, 0.1731624901, -0.2117787898, -0.1402231306, -0.2359499037, -0.1198783368, -0.1277956665, 0.2447068393, -0.2059481740, 0.2003621757, -0.2448744327, 0.0858394504, -0.3030324578, 0.1576076150, 0.0407702625, -0.1758985370, -0.1959384084, -0.0517666936, -0.1263600439, -0.2655660510, -0.2655800581, 0.0685341060, 0.0780602992, 0.0687506795, 0.2031329572, 0.2576253116, 0.2791606486, 0.1284632683, -0.0858333111, 0.1897649169, 0.2018531859, 0.1460486352, -0.0385469496, 0.2248834670, 0.2704566419, -0.2116638124, 0.3044020832, 0.1692103744, 0.0667220056, 0.2177354991, 0.0011720359, -0.1760671735, -0.0989415795, -0.2688947320, 0.2299092710, -0.0997482240, 0.2508122027, -0.0972587615, -0.1798111498, -0.0990841389, 0.0436162651, -0.0994287729, -0.0113268197, -0.1024153680, -0.0406585038, 0.2276264131, 0.0118611157, 0.0538293123, 0.2414928377, 0.0314052403, -0.2613107860, 0.2259885967, 0.2279681861, 0.2548509538, -0.1169459075, -0.1022976935, 0.2643065751, 0.0337184072, 0.2428372800, -0.1510093212, -0.1686630994, 0.2778332531, -0.1583237499, -0.3046838641, 0.2149790823, 0.0270977914, -0.2514263690, -0.1453790814, -0.1985992193, -0.2100529820, -0.0726308823, -0.0640618652, -0.1283046305, 0.1066534817, -0.2540464401, -0.0876286924, 0.2590641677, 0.0237077773, -0.0048827827, -0.0244974196, -0.1322305948, 0.1776823103, 0.2927737534, -0.2822650671, -0.2814196348, 0.1184355617, 0.2289949954, -0.1485288292, 0.0282176733, 0.1348204315, -0.2103548348, -0.1937186122, 0.2488426864, -0.0249959528, -0.1781322807, 0.2061131299, -0.0903556198, -0.2188669145, -0.1436568499, -0.0205100775, -0.1242023706, 0.1412738264, -0.0110014677, -0.2856246233, 0.1282143295, 0.1486332119, -0.2072277218, -0.1211913973, -0.0089403689, -0.2410932183, -0.0333921015, 0.2635909617, -0.2751865685, 0.0543514192, 0.1150263548, -0.1169271469, 0.2694081366, 0.2843547165, -0.2863819897, 0.2230201066, 0.2645315826, 0.2540515363, -0.2008433193, -0.0824960917, -0.0047655404, -0.1781197935, -0.2935087383, 0.1047497988, -0.2942294180, -0.0604173988, 0.3025191128, 0.2109703720, -0.0167250633, -0.1962404847, -0.0125135183, 0.1054957807, 0.0456467569, -0.2980195284, -0.1623135209, 0.2464135587, -0.2456900775, -0.1388835013, 0.0010813475, -0.0159860253, 0.2275274098, 0.2994330227, -0.2688494027, -0.2838605046, -0.1219200790, 0.2576088011, 0.1929775178, -0.1901927590, 0.1383554935, 0.2577525675, 0.1137960851, 0.2969698012, -0.0916922539, 0.0593769252, 0.0035565794, 0.2020460665, 0.0255222023, 0.1564864814, -0.2983640730, -0.1158135980, 0.2156524956, -0.0359587967, -0.2395492792, 0.2746990621, 0.2472273409, 0.1645300388, 0.0170379579, -0.2749396861, -0.2125907838, -0.2900642157, -0.0683977306, -0.0516699553, 0.1251207888, 0.2234878242, -0.2814762294, 0.1093922555, 0.2185988724, -0.0358904600, -0.2138778418, 0.0448227227, 0.0851039588, -0.2905602455, 0.1418327093, -0.2586492598, 0.1427477002, 0.0106160939, 0.2164128125, -0.0459535122, -0.1541732997, 0.1901378036, -0.0729815811, 0.1025377214, 0.0993494987, -0.1336942613, 0.2497889698, 0.2383699715, 0.1239784062, -0.0305073261, 0.1230682433, -0.1256085783, 0.1425953507, -0.0640204102, 0.2188809216, -0.0473467410, 0.1921507716, 0.0580945313, -0.0763944238, -0.0449002683, 0.0612123013}};

#endif
