//Numpy array shape [16, 48]
//Min -0.405796021223
//Max 0.527596056461
//Number of zeros 0

#ifndef WR4_H_
#define WR4_H_

[[intel::fpga_register]] static constexpr wr4_t wr4 = {{-0.0397965908, -0.0575955659, 0.1574423164, 0.2245569527, 0.0415929370, -0.0115951812, 0.0456223004, 0.0751457959, 0.1104780510, -0.2663258016, 0.0256726686, -0.1205024421, -0.0107320584, 0.0487519242, 0.0432759337, 0.0701737180, -0.0696201399, -0.1187950745, 0.0726044774, 0.0324314386, -0.1066784710, -0.0783359110, 0.1769921929, -0.0876549482, 0.2164953500, 0.0110769812, -0.0637280121, -0.1117978320, -0.1362691373, 0.1025670767, -0.1316124946, -0.0142656472, -0.0106094163, -0.1469506025, 0.0610069036, 0.2116414905, -0.1703007668, -0.1165283918, 0.1949357092, -0.0791044980, -0.0956514478, 0.0885768086, 0.0079546710, 0.0727187619, 0.1274515241, 0.0723553523, 0.2304704636, 0.0013653783, 0.1509482414, 0.1724087447, 0.0760798082, -0.1839121878, 0.0365463756, 0.0264424924, 0.1872215569, -0.0201548245, 0.2834068239, 0.0594118461, 0.1202567443, 0.0827745274, 0.0103427339, 0.0721049607, 0.0400574990, -0.0122699663, -0.0633362010, -0.0226877853, 0.4316928387, 0.2801798880, -0.0636437014, -0.0868244246, -0.0382115617, -0.1467618644, -0.1416559368, -0.0285291076, 0.0716833249, -0.0928981006, 0.0695516840, -0.0475829169, -0.0687601864, 0.1013873070, 0.1490827501, 0.1427880079, -0.1446980983, 0.0452706926, -0.0084195603, -0.1510306597, 0.1004947424, -0.2006768286, -0.0831633806, -0.0266149603, -0.4057960212, 0.1783855706, -0.1285703480, -0.0375730731, 0.0415531546, 0.0443973243, 0.1972064376, -0.0374559052, 0.0860041827, 0.1325044483, 0.0598578081, 0.1194804758, -0.0661848038, 0.2458557039, -0.2085636407, -0.0941623002, -0.2103070915, -0.0044204611, -0.0532670170, 0.3040927052, 0.0960653722, 0.1641383469, -0.0198820792, 0.2346660942, -0.1416998804, 0.1106051728, -0.1859212220, -0.0330863670, -0.1053940430, 0.1126006842, -0.1556859314, -0.1184131727, 0.3897276819, -0.1065577269, 0.0948715732, -0.2034408748, 0.0723032206, -0.1225493774, -0.2795403004, 0.1758954376, -0.0862403363, -0.0641368926, 0.1612196416, -0.2206713408, 0.1019409150, -0.0233492386, 0.0302630290, -0.3552847803, -0.0475559831, -0.0892994702, 0.2535502911, -0.0670818612, -0.1580458283, -0.0670073628, 0.2470487952, -0.2425344586, -0.1985666305, 0.1620712280, 0.0818516240, -0.3082983792, 0.0875628665, 0.1374847293, 0.0717895925, 0.0158269852, 0.2811253965, 0.1314582080, -0.2814047039, 0.0248065852, 0.0159610584, 0.0363923162, -0.1282298416, -0.1049522758, 0.0183040742, 0.1287269592, 0.0026478749, 0.1799490303, 0.0510633029, 0.2451941967, 0.0530250371, 0.0517759174, -0.0400306471, 0.0014783256, -0.0521427989, -0.2600589693, -0.1076273024, 0.2085871845, 0.0102056526, -0.2060579807, 0.0212895889, -0.1453810483, -0.1213783547, -0.0212681685, -0.1123952195, 0.1976957917, -0.0419313163, -0.1803853363, -0.0765406340, 0.1544997245, 0.1815055758, -0.1857080758, 0.0568680391, -0.1092830524, 0.2185831219, 0.1866111010, 0.1556667686, -0.1072725803, 0.1277417541, -0.0198771209, 0.2689897716, 0.1011962071, 0.0586261377, -0.2018955648, 0.0446110256, -0.2648771703, 0.0343496837, 0.0821266696, -0.0095301419, -0.2280544192, -0.0812712237, -0.1962844729, 0.2346595079, -0.0364360362, 0.0926138535, -0.1081576273, 0.0014225678, 0.0702065453, -0.0788104311, -0.1906287819, 0.0368560888, -0.0336397924, -0.0654608607, 0.1016773582, 0.2010044903, 0.1594755203, -0.1654393375, 0.0364307910, -0.1605175734, 0.1717105210, 0.1698269099, -0.0719050765, -0.1384684145, -0.2475990057, 0.0634560287, -0.2402926087, 0.1317708045, 0.2280211598, 0.0265010949, -0.0831450000, 0.2090496421, 0.1271999627, 0.0114087835, -0.0095745372, 0.0147874700, 0.0170962457, 0.0501269102, 0.1125395000, -0.0025370531, -0.1421780139, 0.1720049530, -0.0993147716, 0.1928629279, 0.0132107744, -0.3804734647, -0.2963334024, 0.0204247236, 0.1231894940, -0.0244343821, -0.1608731896, 0.0283244438, -0.1118401885, 0.1315897405, 0.3527993560, 0.0542125478, -0.2418619245, -0.2063664645, 0.2496103793, 0.0814379007, -0.0021101718, 0.1453553438, 0.0135964248, -0.1567389071, 0.1837826371, -0.1022050604, 0.0495799556, 0.1977000087, 0.0236570798, -0.1481431723, -0.2752034068, -0.1928194761, 0.1797461957, -0.0253056139, 0.0594206527, -0.0928991511, 0.1059706137, -0.1487110108, -0.1063988954, 0.1018255800, 0.0550493486, 0.0434750877, -0.1656916589, 0.0597577952, 0.0017433949, 0.0695610568, -0.1138029546, -0.0237619057, -0.2211101353, 0.1718754172, 0.2546007633, 0.0750821978, 0.2232501507, 0.1761187911, 0.1449855417, -0.0944011733, -0.1228533983, -0.3569787443, -0.0632999912, 0.0184069276, 0.0159810185, 0.0382515267, 0.0166076981, 0.1296749115, 0.1409628242, 0.1215526164, 0.0472363085, -0.2501513958, -0.0598650351, 0.0602586009, 0.1235359758, -0.0166226439, -0.0213832036, -0.1133208424, -0.0056986441, -0.0113397073, -0.0214813147, 0.0308680534, -0.1836917698, 0.2263528407, -0.1809995323, -0.0078386115, -0.0507126823, -0.0079474393, -0.0027660662, -0.0136291673, 0.1426074207, 0.0558763370, 0.1396883875, 0.3165224493, -0.0646109283, 0.1848162115, -0.1365473568, 0.3187838495, -0.0093246996, 0.0884298310, -0.0446262136, -0.2047346234, 0.0591999590, -0.0499332510, 0.0879616216, -0.0847459137, -0.1341895014, 0.1310140938, -0.0553860888, -0.4004270136, 0.0004677847, 0.2523636520, -0.0971407369, -0.0397686325, 0.1795159280, 0.1212730333, 0.1191432029, -0.1150139421, 0.0346155018, 0.2307976186, 0.2178650200, -0.1109022424, 0.0016132202, -0.1187639460, 0.1693982184, -0.1085965037, -0.0256066062, -0.0693798289, 0.1007507890, 0.0071514933, -0.1277996600, 0.2047119141, 0.1522782743, 0.1318131089, 0.0816999674, -0.0540126637, 0.1676643342, 0.0606338978, -0.0160614233, -0.1806188077, -0.1199764535, 0.0051379292, -0.2566191554, 0.0102672745, 0.0496582426, -0.1281510592, -0.0877360702, 0.2304842174, 0.0169605296, 0.0191083550, -0.2089457810, -0.0944937989, 0.1185855716, -0.0158211179, -0.0911663398, -0.1276949644, 0.0710074380, 0.0407240056, 0.2995046675, -0.0780085772, 0.0317435861, -0.0510312095, 0.0863942727, 0.0872682109, -0.0038421401, 0.0096406313, 0.1246267110, -0.1905776709, -0.0795277581, 0.1311280727, -0.1146711335, 0.2929050624, 0.3574607968, 0.0949459746, 0.1402569860, -0.0949079618, 0.0901182815, -0.2999447584, 0.1714152694, 0.2529595494, 0.0129461791, -0.0190034881, -0.0317936763, 0.2004202008, 0.4036244154, 0.0968767628, -0.0045298040, -0.0426096022, 0.0002040556, -0.2122879475, -0.0727365762, -0.0020185597, -0.1150249839, 0.1701829731, -0.1072592437, 0.1721210778, -0.0382052884, 0.2268943340, 0.2642727494, -0.0097536705, -0.0448646024, 0.0501730107, 0.0009310879, 0.3009494841, 0.1018739715, -0.0519309863, 0.0283398945, -0.0310968533, -0.0020310665, -0.0549522899, -0.0196575895, 0.0841325074, 0.0415149555, -0.0073317988, -0.0788611621, -0.0121150231, -0.1106491387, -0.2432964146, 0.0259530451, 0.2129011601, -0.0719026774, 0.0206487216, -0.0149173494, -0.2108754963, 0.1009692699, -0.2779112458, 0.0039022956, 0.1077867299, 0.0696580261, -0.2262991071, 0.1014849842, 0.1782061309, -0.2087578028, -0.0313169211, 0.4092577398, -0.0463967621, 0.0514577068, -0.1241692156, 0.2000208348, 0.0691850111, 0.1105091274, 0.0681065097, -0.0125987837, -0.2489932179, -0.1484845430, 0.1357181221, 0.0114469528, -0.0072815446, 0.0639077723, -0.2869259119, 0.2852146924, 0.0038631703, -0.0948921591, -0.0794948563, 0.0307917465, -0.1946574599, -0.0904630423, 0.0472981706, -0.2996157408, -0.0088146841, -0.0354533792, -0.3383963704, 0.1786908656, 0.0108793862, 0.0422712080, -0.1095772386, -0.0921202824, 0.0260008853, 0.0380676165, 0.0855926797, 0.1076142415, 0.1353585422, -0.0303485282, -0.1786622256, -0.0972517133, -0.1195717752, 0.2192226797, 0.2388338000, 0.1502348185, -0.0106182704, -0.0408340171, -0.1018338874, 0.0824459046, -0.0305737220, 0.1902355552, 0.1205124557, 0.1068632528, -0.1917996407, 0.1549668759, 0.2499370873, 0.0839805081, -0.2004780024, 0.1406216621, 0.1722870767, -0.0652174801, 0.0441094264, -0.0215319134, 0.1365159750, 0.0813619718, -0.1741584241, 0.4427154958, 0.0297331288, -0.1161726117, -0.0315254703, -0.0857204348, -0.1356335580, 0.1392967403, 0.1493976861, 0.0115182362, -0.0535311177, -0.0966881886, -0.1626729667, 0.0062683388, -0.3867839873, -0.1004577801, -0.1810248047, 0.0504350439, -0.0760653839, 0.2556885481, 0.1618412435, 0.2843495607, 0.0214827321, -0.1831713319, -0.0526090562, -0.1662640125, -0.2064646035, 0.2233969122, -0.0797123909, -0.0354163125, -0.1074824631, -0.1691927612, -0.2794815004, -0.0663205981, -0.0301572774, -0.2152648568, -0.0511878543, -0.1744267344, -0.1066261679, -0.2361424267, -0.2120877504, 0.0636281595, 0.0628350973, 0.2248307019, 0.1511025578, -0.2256282270, 0.0440603048, -0.0686167628, 0.0922155976, 0.1408531070, -0.1760106236, 0.1761848181, -0.2579451203, -0.1659800410, 0.1282811016, -0.0681482777, 0.0282011293, 0.0615367666, -0.0161697175, -0.0437342636, 0.0059898617, 0.1211396977, -0.2043659091, 0.1734328568, -0.1848138422, 0.1315992177, 0.0344379991, -0.1349208206, -0.0499318913, -0.1293850690, 0.1231161803, -0.1429785192, -0.2315815389, 0.2151156515, -0.1215735227, -0.0246833935, -0.1154100075, 0.2339849323, 0.0986394510, 0.1249205470, -0.2551448345, -0.0392927788, -0.0512844101, 0.1260091811, 0.1017092392, 0.0784329772, 0.3904393911, 0.0607594959, 0.1441745311, 0.3307330310, -0.1765870899, 0.1154894829, 0.0745935813, 0.1871326715, -0.0505090766, -0.0581874736, 0.1844560504, -0.0864433572, 0.0806891173, 0.1523844898, 0.1923405677, 0.0090875886, -0.2124538869, 0.0735452399, -0.1636897027, -0.0862860233, 0.0850012004, -0.0448403656, -0.1781898737, 0.2514170110, -0.0092814639, 0.1269822419, 0.0505170524, 0.0195206963, -0.0379126891, -0.0480012521, -0.1035151556, 0.0909581035, -0.1451751292, 0.0415760912, -0.0109095704, 0.0209277794, 0.0827052891, -0.0375672355, -0.0649143159, 0.2762446404, 0.1070550308, 0.0257765837, 0.2810541093, 0.0217346568, -0.1625955850, 0.0790303648, -0.2044214010, 0.0071381703, -0.0910067484, 0.1561311483, 0.0340377204, 0.1895473301, 0.0023118537, 0.2134259641, -0.1947243810, -0.1016740054, -0.1163670495, -0.1294226646, 0.1230507791, -0.2275691330, -0.0072081694, -0.0984718278, -0.1161081344, 0.5275960565, 0.1970840991, 0.0579638444, 0.1216429397, 0.0675736517, -0.0110383369, 0.1081283540, -0.0215499718, -0.0570522882, 0.0292171538, 0.0949361175, -0.0052267117, -0.1045390517, -0.0682400316, -0.2171490788, -0.1527994126, 0.1442367733, -0.0300762188, 0.0764871091, -0.1452359557, -0.0793473944, -0.0337549523, -0.0896177217, -0.2126281708, -0.1070039421, 0.0580549315, -0.1208141074, 0.0276358146, -0.0354437046, -0.1683813781, 0.0955260023, 0.1209437996, -0.0349516235, -0.0028248974, 0.0188362114, -0.1247487441, 0.1164925545, -0.0579867214, 0.0067682490, 0.0994837135, 0.1302102506, 0.0118454956, 0.2047649175, 0.1203546748, -0.1989082843, 0.0381523557, 0.1498437822, 0.0551629663, -0.1358814090, -0.1115672067, -0.2544145882, 0.2251177877, 0.0355504863, -0.2183703482, -0.0581305400, -0.0320800282, -0.0139619187, 0.1382769048, 0.0218963232, -0.0452518612, 0.3179910779, 0.1681037098, 0.1231727600, 0.1205648854, 0.1420115232, -0.0193039589, -0.1587847620, 0.0582378954, 0.1939260513, 0.2396760434, 0.1915521771, -0.0353732742, 0.0308485422, 0.1479181647, -0.2207863927, -0.1696400940, 0.0117350845}};

#endif
